{
  "defaults": {}, 
  "inputs": [
    {
      "name": "variable_name0", 
      "offset": "0", 
      "scale": "1"
    }, 
    {
      "name": "variable_name1", 
      "offset": "0", 
      "scale": "1"
    }, 
    {
      "name": "variable_name2", 
      "offset": "0", 
      "scale": "1"
    }, 
    {
      "name": "variable_name3", 
      "offset": "0", 
      "scale": "1"
    }, 
    {
      "name": "variable_name4", 
      "offset": "0", 
      "scale": "1"
    }, 
    {
      "name": "variable_name5", 
      "offset": "0", 
      "scale": "1"
    }, 
    {
      "name": "variable_name6", 
      "offset": "0", 
      "scale": "1"
    }, 
    {
      "name": "variable_name7", 
      "offset": "0", 
      "scale": "1"
    }, 
    {
      "name": "variable_name8", 
      "offset": "0", 
      "scale": "1"
    }, 
    {
      "name": "variable_name9", 
      "offset": "0", 
      "scale": "1"
    }, 
    {
      "name": "variable_name10", 
      "offset": "0", 
      "scale": "1"
    }, 
    {
      "name": "variable_name11", 
      "offset": "0", 
      "scale": "1"
    }, 
    {
      "name": "variable_name12", 
      "offset": "0", 
      "scale": "1"
    }, 
    {
      "name": "variable_name13", 
      "offset": "0", 
      "scale": "1"
    }, 
    {
      "name": "variable_name14", 
      "offset": "0", 
      "scale": "1"
    }, 
    {
      "name": "variable_name15", 
      "offset": "0", 
      "scale": "1"
    }, 
    {
      "name": "variable_name16", 
      "offset": "0", 
      "scale": "1"
    }, 
    {
      "name": "variable_name17", 
      "offset": "0", 
      "scale": "1"
    }, 
    {
      "name": "variable_name18", 
      "offset": "0", 
      "scale": "1"
    }, 
    {
      "name": "variable_name19", 
      "offset": "0", 
      "scale": "1"
    }, 
    {
      "name": "variable_name20", 
      "offset": "0", 
      "scale": "1"
    }, 
    {
      "name": "variable_name21", 
      "offset": "0", 
      "scale": "1"
    }, 
    {
      "name": "variable_name22", 
      "offset": "0", 
      "scale": "1"
    }, 
    {
      "name": "variable_name23", 
      "offset": "0", 
      "scale": "1"
    }, 
    {
      "name": "variable_name24", 
      "offset": "0", 
      "scale": "1"
    }, 
    {
      "name": "variable_name25", 
      "offset": "0", 
      "scale": "1"
    }, 
    {
      "name": "variable_name26", 
      "offset": "0", 
      "scale": "1"
    }, 
    {
      "name": "variable_name27", 
      "offset": "0", 
      "scale": "1"
    }, 
    {
      "name": "variable_name28", 
      "offset": "0", 
      "scale": "1"
    }, 
    {
      "name": "variable_name29", 
      "offset": "0", 
      "scale": "1"
    }, 
    {
      "name": "variable_name30", 
      "offset": "0", 
      "scale": "1"
    }, 
    {
      "name": "variable_name31", 
      "offset": "0", 
      "scale": "1"
    }, 
    {
      "name": "variable_name32", 
      "offset": "0", 
      "scale": "1"
    }, 
    {
      "name": "variable_name33", 
      "offset": "0", 
      "scale": "1"
    }, 
    {
      "name": "variable_name34", 
      "offset": "0", 
      "scale": "1"
    }, 
    {
      "name": "variable_name35", 
      "offset": "0", 
      "scale": "1"
    }, 
    {
      "name": "variable_name36", 
      "offset": "0", 
      "scale": "1"
    }, 
    {
      "name": "variable_name37", 
      "offset": "0", 
      "scale": "1"
    }, 
    {
      "name": "variable_name38", 
      "offset": "0", 
      "scale": "1"
    }, 
    {
      "name": "variable_name39", 
      "offset": "0", 
      "scale": "1"
    }, 
    {
      "name": "variable_name40", 
      "offset": "0", 
      "scale": "1"
    }, 
    {
      "name": "variable_name41", 
      "offset": "0", 
      "scale": "1"
    }, 
    {
      "name": "variable_name42", 
      "offset": "0", 
      "scale": "1"
    }, 
    {
      "name": "variable_name43", 
      "offset": "0", 
      "scale": "1"
    }, 
    {
      "name": "variable_name44", 
      "offset": "0", 
      "scale": "1"
    }, 
    {
      "name": "variable_name45", 
      "offset": "0", 
      "scale": "1"
    }, 
    {
      "name": "variable_name46", 
      "offset": "0", 
      "scale": "1"
    }, 
    {
      "name": "variable_name47", 
      "offset": "0", 
      "scale": "1"
    }, 
    {
      "name": "variable_name48", 
      "offset": "0", 
      "scale": "1"
    }, 
    {
      "name": "variable_name49", 
      "offset": "0", 
      "scale": "1"
    }
  ], 
  "layers": [
    {
      "activation": "rectified", 
      "architecture": "dense", 
      "bias": [
        0.08700377494096756, 
        0.17568877339363098, 
        0.16661949455738068, 
        0.0038061358500272036, 
        0.034681323915719986, 
        0.012834192253649235, 
        0.03400987759232521, 
        0.015891360118985176, 
        0.00624979380518198, 
        -0.007462847512215376, 
        -0.025087380781769753, 
        0.2114855796098709, 
        -0.04501013085246086, 
        -0.05537992715835571, 
        0.029623938724398613, 
        0.10169783979654312, 
        -0.009570707567036152, 
        0.03908688202500343, 
        -0.01741071604192257, 
        0.0070579019375145435, 
        -0.014880442060530186, 
        0.027646832168102264, 
        0.1309787631034851, 
        -0.002442657947540283, 
        0.20305103063583374, 
        0.18324969708919525, 
        0.026313062757253647, 
        0.04101293534040451, 
        0.004636649042367935, 
        0.1208852082490921, 
        -0.020838662981987, 
        0.043883297592401505, 
        0.018350962549448013, 
        0.21563515067100525, 
        0.07331579923629761, 
        0.011209342628717422, 
        0.05449988320469856, 
        0.08624609559774399, 
        0.1850094199180603, 
        0.07770571857690811, 
        0.13646051287651062, 
        -0.001965185161679983, 
        0.025577345862984657, 
        0.057515304535627365, 
        0.1660209745168686, 
        0.0040896800346672535, 
        0.19997596740722656, 
        0.12719592452049255, 
        0.0188809335231781, 
        0.17159433662891388, 
        0.009238538332283497, 
        -0.0014201474841684103, 
        0.008099130354821682, 
        0.047861628234386444, 
        0.24108675122261047, 
        0.03468315303325653, 
        0.017404554411768913, 
        -0.00447832839563489, 
        0.19540290534496307, 
        0.18720977008342743, 
        0.15966226160526276, 
        0.19192878901958466, 
        0.19387347996234894, 
        -0.001993634505197406, 
        0.001862064003944397, 
        0.11722064018249512, 
        0.18022161722183228, 
        0.13272300362586975, 
        0.15447655320167542, 
        0.026508904993534088, 
        0.08105994015932083, 
        -0.0035149622708559036, 
        0.2212810069322586, 
        -0.004774818662554026, 
        0.07457180321216583, 
        -0.023429544642567635, 
        0.2205829918384552, 
        0.011099505238234997, 
        -0.015110667794942856, 
        0.1696425825357437, 
        0.04953809455037117, 
        0.023774512112140656, 
        0.0870669037103653, 
        0.048045992851257324, 
        0.19968487322330475, 
        0.06934627145528793, 
        -0.060788631439208984, 
        0.06034298241138458, 
        0.12035670131444931, 
        -0.015931569039821625, 
        -0.03015872649848461, 
        0.1407739222049713, 
        0.04650174826383591, 
        0.09535497426986694, 
        0.13411951065063477, 
        0.05463321879506111, 
        -0.0037169891875237226, 
        0.08178991079330444, 
        0.09378203749656677, 
        0.003497435711324215
      ], 
      "weights": [
        0.040911413729190826, 
        0.04161059111356735, 
        0.028720837086439133, 
        0.046212222427129745, 
        0.020465025678277016, 
        0.00768934516236186, 
        0.11268255859613419, 
        -0.042288992553949356, 
        -0.004095837473869324, 
        0.21401232481002808, 
        -0.04964739829301834, 
        0.2410445213317871, 
        0.015732713043689728, 
        0.001449397299438715, 
        -0.05518702417612076, 
        -0.07226526737213135, 
        -0.017448393628001213, 
        0.0477718748152256, 
        0.3456883728504181, 
        0.1343349665403366, 
        0.02091425471007824, 
        -0.010769692249596119, 
        -0.04050631448626518, 
        0.531211793422699, 
        0.5008504390716553, 
        0.3602524697780609, 
        0.005176937207579613, 
        0.005167720373719931, 
        0.04554275423288345, 
        0.21120432019233704, 
        0.29637831449508667, 
        -0.0665745735168457, 
        -0.1451997011899948, 
        -0.12533216178417206, 
        0.04936833307147026, 
        0.015133123844861984, 
        0.07466734945774078, 
        0.09022823721170425, 
        -0.13769687712192535, 
        0.3251728117465973, 
        -0.049306467175483704, 
        -0.097447469830513, 
        -0.0052196248434484005, 
        0.07326261699199677, 
        0.03738212585449219, 
        0.0718558207154274, 
        -0.01041823998093605, 
        0.0752125158905983, 
        0.3587239980697632, 
        0.0007944641984067857, 
        0.20272767543792725, 
        0.16128630936145782, 
        -0.10026288777589798, 
        -0.03596797212958336, 
        -0.1453646570444107, 
        -0.06729704886674881, 
        0.14612744748592377, 
        -0.015082511119544506, 
        -0.1422954499721527, 
        0.3844032287597656, 
        0.0026060896925628185, 
        0.3526192009449005, 
        0.00040544936200603843, 
        -0.02764972671866417, 
        -0.2198919802904129, 
        0.07404379546642303, 
        -0.0401625819504261, 
        -0.1463364064693451, 
        0.5702055096626282, 
        0.20070794224739075, 
        -0.019007444381713867, 
        -0.007143398746848106, 
        -0.007114652078598738, 
        0.5401570796966553, 
        0.5604816675186157, 
        0.24494460225105286, 
        -0.01583346165716648, 
        -0.0190926231443882, 
        0.003912493586540222, 
        0.15620172023773193, 
        0.21726873517036438, 
        -0.04557916149497032, 
        -0.10040272772312164, 
        -0.14276692271232605, 
        0.08470850437879562, 
        0.11632040143013, 
        0.211206316947937, 
        0.6145137548446655, 
        -0.09591468423604965, 
        0.9578573703765869, 
        0.07778508216142654, 
        -0.044854238629341125, 
        -0.0015733677428215742, 
        0.14553457498550415, 
        0.13911239802837372, 
        0.09432008117437363, 
        0.017634933814406395, 
        -0.03567425534129143, 
        0.5911566019058228, 
        -0.020842939615249634, 
        0.16294291615486145, 
        0.19985681772232056, 
        0.042474985122680664, 
        -0.0219714492559433, 
        -0.10258810967206955, 
        -0.02052437514066696, 
        0.16657324135303497, 
        -0.018738390877842903, 
        -0.03074871562421322, 
        0.23845921456813812, 
        0.00018800885300152004, 
        0.20533739030361176, 
        0.006304305978119373, 
        -0.005145328585058451, 
        -0.0032013587187975645, 
        -0.06602759659290314, 
        0.006572936661541462, 
        -0.011183813214302063, 
        0.24592827260494232, 
        -0.027517931535840034, 
        0.037919577211141586, 
        0.027502989396452904, 
        -0.026756901293992996, 
        0.5986438989639282, 
        0.5939972996711731, 
        0.25886431336402893, 
        -0.007865958847105503, 
        0.05502178892493248, 
        0.01137517299503088, 
        0.18875877559185028, 
        0.2407461702823639, 
        0.07399057596921921, 
        -0.044641390442848206, 
        -0.1287110298871994, 
        -0.6664485931396484, 
        -0.6714999079704285, 
        0.1421879529953003, 
        0.29077523946762085, 
        0.04598159343004227, 
        0.32301297783851624, 
        0.0003550586989149451, 
        -0.24397824704647064, 
        -0.21992042660713196, 
        0.12383750081062317, 
        0.1979997307062149, 
        -0.0028817765414714813, 
        0.07181303948163986, 
        0.024393964558839798, 
        0.5414404273033142, 
        0.016136355698108673, 
        0.023059329017996788, 
        -0.006426340434700251, 
        0.032444700598716736, 
        0.05687388405203819, 
        0.004571747500449419, 
        0.016476843506097794, 
        0.002589660696685314, 
        -0.006545372307300568, 
        -0.010665014386177063, 
        -0.11028482764959335, 
        0.050409384071826935, 
        -0.16246528923511505, 
        0.05036664381623268, 
        -0.005629385355859995, 
        0.021756228059530258, 
        0.03047102689743042, 
        0.028101295232772827, 
        -0.03081713430583477, 
        -0.18204407393932343, 
        0.03917968273162842, 
        0.04233481362462044, 
        0.06793981045484543, 
        0.020616993308067322, 
        -0.591078519821167, 
        -0.5170974731445312, 
        -0.23415178060531616, 
        0.03685508295893669, 
        -8.36483231978491e-05, 
        -0.03499671816825867, 
        -0.21972861886024475, 
        -0.23496097326278687, 
        0.01751752942800522, 
        -0.010129932314157486, 
        0.020928481593728065, 
        -0.001462850603275001, 
        -0.0913909524679184, 
        -0.0034693011548370123, 
        -0.21454016864299774, 
        -0.054690081626176834, 
        -0.3681587874889374, 
        0.002199201611801982, 
        0.04819820821285248, 
        0.04650205373764038, 
        -0.022307246923446655, 
        -0.030759526416659355, 
        0.014601161703467369, 
        0.08537903428077698, 
        0.06851256638765335, 
        -0.29134806990623474, 
        -0.010426406748592854, 
        0.07784523069858551, 
        0.04109124094247818, 
        -0.0004272412625141442, 
        -0.059615008533000946, 
        0.046249400824308395, 
        -0.02364094741642475, 
        0.06541421264410019, 
        -0.007367322687059641, 
        0.04924142360687256, 
        0.07189426571130753, 
        -0.021369323134422302, 
        0.05188561603426933, 
        0.001127698109485209, 
        0.012129014357924461, 
        -0.07429280132055283, 
        0.031623486429452896, 
        -0.029216689988970757, 
        0.02240757830440998, 
        0.0713018849492073, 
        0.013000286184251308, 
        0.018573647364974022, 
        0.004567405674606562, 
        0.025638950988650322, 
        0.15397928655147552, 
        0.17685015499591827, 
        0.09257826954126358, 
        -0.0005374864558689296, 
        0.021442171186208725, 
        -0.04275498911738396, 
        0.17183221876621246, 
        0.24014629423618317, 
        0.035482775419950485, 
        -0.16717135906219482, 
        -0.11639612913131714, 
        -0.03299659118056297, 
        -0.011636725626885891, 
        0.05240228399634361, 
        0.08614953607320786, 
        -0.02874252013862133, 
        0.1538827121257782, 
        0.015497340820729733, 
        -0.13070251047611237, 
        -0.10216466337442398, 
        -0.014820173382759094, 
        0.00965739693492651, 
        0.020258277654647827, 
        -0.029294826090335846, 
        0.01777309738099575, 
        0.12013278156518936, 
        0.023883016780018806, 
        0.013049987144768238, 
        0.03276420757174492, 
        -0.012411732226610184, 
        -0.015530389733612537, 
        -0.08402395248413086, 
        0.06908965855836868, 
        -0.023765306919813156, 
        0.04006906598806381, 
        -0.0804145336151123, 
        -0.021059295162558556, 
        -0.008972152136266232, 
        -0.06238461285829544, 
        -0.0220947302877903, 
        0.010216630063951015, 
        0.029785076156258583, 
        -0.021815737709403038, 
        -0.028307627886533737, 
        -0.04092802479863167, 
        0.034163523465394974, 
        0.015450062230229378, 
        0.00536780571565032, 
        -0.009786772541701794, 
        0.009210510179400444, 
        0.020633602514863014, 
        0.0024679943453520536, 
        0.01620292291045189, 
        -0.015936153009533882, 
        0.057952865958213806, 
        -0.03413012623786926, 
        0.048492494970560074, 
        0.008348226547241211, 
        0.05792541801929474, 
        -0.11065876483917236, 
        -0.11998704820871353, 
        -0.09087760001420975, 
        -0.043924346566200256, 
        -0.014916437678039074, 
        -0.05530339106917381, 
        -0.0033043536823242903, 
        -0.07456235587596893, 
        -0.061423372477293015, 
        -0.05445369333028793, 
        -0.11528488248586655, 
        -0.022083424031734467, 
        0.026400025933980942, 
        0.008475280366837978, 
        -0.013035443611443043, 
        -0.011998900212347507, 
        -0.023999657481908798, 
        -0.03508450835943222, 
        0.029906056821346283, 
        0.06312744319438934, 
        0.02346731163561344, 
        -0.0034790888894349337, 
        0.004008755087852478, 
        -0.08680038154125214, 
        -0.017922688275575638, 
        -0.0059091090224683285, 
        0.0383090041577816, 
        0.05122085288167, 
        -0.03793460130691528, 
        -0.015227392315864563, 
        0.04817948490381241, 
        -0.025464870035648346, 
        -0.041877489537000656, 
        -0.04770834371447563, 
        -0.04289430007338524, 
        -0.03000444918870926, 
        0.07236266136169434, 
        -0.03829608112573624, 
        0.04543575271964073, 
        0.04851775988936424, 
        0.05597260966897011, 
        0.09584867209196091, 
        0.16365700960159302, 
        0.017549041658639908, 
        0.042931463569402695, 
        0.04825528338551521, 
        -0.019290633499622345, 
        0.11421340703964233, 
        0.05116613581776619, 
        -0.10238425433635712, 
        -0.07789348810911179, 
        -0.09111346304416656, 
        -0.043450597673654556, 
        -0.07947298139333725, 
        0.06383176147937775, 
        -0.03479171171784401, 
        -0.06858175247907639, 
        -0.053145911544561386, 
        -0.018270811066031456, 
        -0.13215371966362, 
        -0.1580049693584442, 
        0.010946733877062798, 
        0.06923019886016846, 
        0.051656171679496765, 
        0.012973535805940628, 
        0.021541355177760124, 
        0.046080172061920166, 
        0.005412828642874956, 
        -0.027785805985331535, 
        0.04175291210412979, 
        0.04769792780280113, 
        0.04631183296442032, 
        0.058084581047296524, 
        -0.027183344587683678, 
        0.015861527994275093, 
        -0.012863346375524998, 
        0.08469951897859573, 
        -0.04830009117722511, 
        -0.03319671377539635, 
        -0.08370926976203918, 
        -0.04124298319220543, 
        0.013333579525351524, 
        0.01921239122748375, 
        -0.057764045894145966, 
        -0.010233578272163868, 
        0.013884013518691063, 
        0.04073338210582733, 
        0.013515381142497063, 
        -0.010837414301931858, 
        -0.03443349152803421, 
        0.022563979029655457, 
        -0.007867459207773209, 
        -0.0007265949971042573, 
        -0.03951654210686684, 
        0.004440969321876764, 
        0.017072489485144615, 
        0.025063037872314453, 
        0.10830148309469223, 
        0.08620915561914444, 
        0.05266966298222542, 
        -0.07037508487701416, 
        -0.11712266504764557, 
        -0.12020473182201385, 
        -0.10605625063180923, 
        0.05930535867810249, 
        -0.03832968324422836, 
        -0.04383469745516777, 
        -0.059602465480566025, 
        -0.05718275532126427, 
        -0.10563192516565323, 
        -0.0845114141702652, 
        0.009784501045942307, 
        0.06355790793895721, 
        0.019241729751229286, 
        -0.00916379690170288, 
        0.020999114960432053, 
        -0.06998809427022934, 
        -0.0665888711810112, 
        -0.020224368199706078, 
        -0.04641193524003029, 
        -0.004965818952769041, 
        0.04378197714686394, 
        -0.007838108576834202, 
        -0.03555089235305786, 
        -0.010499534197151661, 
        -0.030523601919412613, 
        -0.01870645582675934, 
        -0.19328732788562775, 
        0.08859028667211533, 
        -0.22968018054962158, 
        0.016352077946066856, 
        -0.024530095979571342, 
        -0.016312386840581894, 
        -0.01674172654747963, 
        -0.058824069797992706, 
        -0.02800014615058899, 
        -0.266773521900177, 
        -0.040073174983263016, 
        0.0001541013189125806, 
        0.07023447751998901, 
        -0.01407556887716055, 
        -0.6472969651222229, 
        -0.5119742155075073, 
        -0.22938145697116852, 
        0.023650771006941795, 
        0.04925550892949104, 
        -0.018323851749300957, 
        -0.28476426005363464, 
        -0.27371615171432495, 
        0.02078578993678093, 
        0.00674476521089673, 
        0.07204339653253555, 
        -0.08748190104961395, 
        -0.11603347212076187, 
        -0.021112123504281044, 
        -0.25553274154663086, 
        0.07801518589258194, 
        -0.4962873160839081, 
        0.03575316071510315, 
        -0.022244783118367195, 
        0.0431809164583683, 
        0.06744063645601273, 
        0.024003487080335617, 
        0.08060535043478012, 
        0.06986349076032639, 
        0.00426591606810689, 
        -0.3498513102531433, 
        0.028757069259881973, 
        -0.009718864224851131, 
        -0.01722467690706253, 
        -0.05556725338101387, 
        -0.026445358991622925, 
        -0.017577944323420525, 
        0.002888365648686886, 
        -0.028319071978330612, 
        -0.06343501061201096, 
        -0.0674002468585968, 
        -0.10938863456249237, 
        -0.02171849086880684, 
        -0.1280364692211151, 
        0.014596807770431042, 
        -0.011231116019189358, 
        0.04454030096530914, 
        0.060223329812288284, 
        0.02294951118528843, 
        -0.004692793358117342, 
        -0.17466267943382263, 
        -0.09239880740642548, 
        0.03575640916824341, 
        -0.0015977921430021524, 
        -0.03240888565778732, 
        -0.2200452834367752, 
        -0.22590704262256622, 
        -0.10543523728847504, 
        -0.01748843304812908, 
        0.047635436058044434, 
        -0.0489463247358799, 
        -0.2885461449623108, 
        -0.2289644181728363, 
        -0.1000002920627594, 
        0.015855498611927032, 
        0.014273800887167454, 
        -0.09594449400901794, 
        -0.15605150163173676, 
        -0.010897639207541943, 
        -0.12401650100946426, 
        0.0003648917190730572, 
        -0.25883904099464417, 
        -0.009383891709148884, 
        -0.10144810378551483, 
        -0.08958137035369873, 
        0.03112989477813244, 
        -0.05407290905714035, 
        -0.03108317404985428, 
        0.04882632941007614, 
        0.0024231646675616503, 
        -0.15473204851150513, 
        0.041474297642707825, 
        -0.010689858347177505, 
        -0.03163794055581093, 
        0.058646656572818756, 
        -0.03944738954305649, 
        0.018210118636488914, 
        -0.0265220757573843, 
        -0.0011548674665391445, 
        -0.006773713510483503, 
        -0.07678653299808502, 
        -0.08760961890220642, 
        0.021789448335766792, 
        -0.13161872327327728, 
        0.020605748519301414, 
        0.004574110731482506, 
        -0.049744024872779846, 
        0.025333043187856674, 
        0.03172051161527634, 
        -0.08977168798446655, 
        -0.12985490262508392, 
        -0.06602844595909119, 
        0.04097483679652214, 
        -0.023376984521746635, 
        0.043269671499729156, 
        -0.15742690861225128, 
        -0.16891801357269287, 
        -0.11593962460756302, 
        0.01670367270708084, 
        -0.022895248606801033, 
        0.00686598289757967, 
        -0.08458317071199417, 
        -0.136701762676239, 
        0.17177702486515045, 
        -0.07752611488103867, 
        -0.05984936282038689, 
        -0.11273343861103058, 
        -0.05785311385989189, 
        -0.07833699136972427, 
        -0.15594382584095, 
        -0.022720085456967354, 
        -0.28010547161102295, 
        0.023737110197544098, 
        -0.07165666669607162, 
        -0.007331782020628452, 
        -0.0017349577974528074, 
        -0.03034401871263981, 
        -0.0043030595406889915, 
        0.014512792229652405, 
        -0.055601876229047775, 
        -0.1726572960615158, 
        -0.007189441472291946, 
        0.24564653635025024, 
        0.17152069509029388, 
        0.034712452441453934, 
        0.03714555874466896, 
        0.15346233546733856, 
        -0.11335373669862747, 
        0.23499387502670288, 
        0.002804673509672284, 
        0.15648026764392853, 
        0.3076441287994385, 
        0.009340711869299412, 
        0.2597775161266327, 
        0.01818038336932659, 
        -0.0015275395708158612, 
        -0.0703425407409668, 
        0.1769450306892395, 
        -0.0003998330212198198, 
        -0.13285502791404724, 
        0.3197696805000305, 
        0.11300314962863922, 
        0.04112813621759415, 
        0.09492210298776627, 
        -0.0045042200945317745, 
        0.6990966796875, 
        0.645683228969574, 
        0.33223316073417664, 
        -0.007363957818597555, 
        0.10948628187179565, 
        -0.016789399087429047, 
        0.1992054283618927, 
        0.2602827250957489, 
        -0.10243324190378189, 
        -0.20409932732582092, 
        -0.1561475694179535, 
        -0.5454736948013306, 
        -0.556797206401825, 
        0.2088896483182907, 
        0.24141427874565125, 
        -0.036078356206417084, 
        0.35209906101226807, 
        0.040139809250831604, 
        -0.2403048574924469, 
        -0.3168722987174988, 
        0.16576191782951355, 
        0.2397661656141281, 
        0.049630437046289444, 
        0.08190835267305374, 
        -0.008959596045315266, 
        0.5096856951713562, 
        0.2107912003993988, 
        -0.05723842233419418, 
        -0.04115564003586769, 
        0.018029896542429924, 
        0.043285876512527466, 
        0.050125736743211746, 
        -0.06502064317464828, 
        -0.08822520822286606, 
        -0.018138812854886055, 
        0.0007769074873067439, 
        -0.216697096824646, 
        0.03126153349876404, 
        -0.30941063165664673, 
        -0.07368599623441696, 
        0.028867917135357857, 
        -0.02305431105196476, 
        -0.0024684041272848845, 
        0.07160579413175583, 
        -0.0339551642537117, 
        -0.3283275365829468, 
        -0.04391311854124069, 
        -0.02611672133207321, 
        0.039693620055913925, 
        0.024992424994707108, 
        -0.7033750414848328, 
        -0.6476912498474121, 
        -0.2393825799226761, 
        -0.025403371080756187, 
        0.05068415403366089, 
        0.055889543145895004, 
        -0.25158923864364624, 
        -0.38581985235214233, 
        0.13640710711479187, 
        0.028664590790867805, 
        -0.010357643477618694, 
        -0.02340809628367424, 
        -0.004477748181670904, 
        -0.04008132219314575, 
        -0.33804890513420105, 
        0.04545394331216812, 
        -0.4356227517127991, 
        0.04784819111227989, 
        0.13326504826545715, 
        0.12483716011047363, 
        -0.0073746563866734505, 
        -0.054892342537641525, 
        0.07474425435066223, 
        0.12740428745746613, 
        -0.0119057921692729, 
        -0.4043717384338379, 
        -0.06765936315059662, 
        -0.1013602763414383, 
        -0.046449627727270126, 
        -0.011635296046733856, 
        0.009504641406238079, 
        0.10417193919420242, 
        0.015543700195848942, 
        -0.05274875462055206, 
        0.028290703892707825, 
        -0.00176137313246727, 
        -0.03831462934613228, 
        -0.014343859627842903, 
        -0.08563379943370819, 
        -0.0047559658996760845, 
        -0.09242929518222809, 
        0.025798343122005463, 
        -0.030728481709957123, 
        -0.008538652211427689, 
        0.07535353302955627, 
        -0.12043068557977676, 
        -0.06195012480020523, 
        0.03672498092055321, 
        -0.03913593664765358, 
        -0.03382708877325058, 
        -0.04401165992021561, 
        -0.06303631514310837, 
        -0.018788442015647888, 
        0.016352344304323196, 
        -0.011288615874946117, 
        0.015815453603863716, 
        -0.06115080416202545, 
        -0.07116503268480301, 
        0.07756210118532181, 
        -0.03371867537498474, 
        -0.08485331386327744, 
        -0.08077199012041092, 
        -0.03778013586997986, 
        -0.09195645898580551, 
        -0.133531853556633, 
        -0.002222280250862241, 
        -0.13980358839035034, 
        -0.10771849006414413, 
        -0.08878020197153091, 
        -0.0345865823328495, 
        -0.04972105845808983, 
        -0.10306607931852341, 
        -0.07682442665100098, 
        -0.02840382233262062, 
        -0.0778597965836525, 
        -0.1164214238524437, 
        -0.052608851343393326, 
        0.004161218646913767, 
        0.05972012132406235, 
        -0.04005751758813858, 
        0.007932566106319427, 
        -0.06740576028823853, 
        0.0005067606689408422, 
        0.057325735688209534, 
        0.0087806461378932, 
        -0.00609068525955081, 
        -0.0037550644483417273, 
        -0.05594544857740402, 
        0.05992918089032173, 
        -0.0014684557681903243, 
        -0.0033009457401931286, 
        -0.010430186986923218, 
        0.024035464972257614, 
        0.02584480121731758, 
        0.038756247609853745, 
        0.09754804521799088, 
        -0.006657789461314678, 
        0.056386128067970276, 
        -0.005077095702290535, 
        0.028663085773587227, 
        0.20580163598060608, 
        0.24093522131443024, 
        0.11764157563447952, 
        0.009053965099155903, 
        -0.002010273514315486, 
        0.049049586057662964, 
        0.20257063210010529, 
        0.1664966344833374, 
        0.014611677266657352, 
        -0.14662545919418335, 
        -0.10534588992595673, 
        -0.04279973730444908, 
        -0.11537358164787292, 
        0.07606961578130722, 
        -0.029675928875803947, 
        -0.02413439005613327, 
        0.005383006762713194, 
        -0.10058791935443878, 
        -0.15320658683776855, 
        -0.1692763715982437, 
        0.007954615168273449, 
        0.06855272501707077, 
        -0.022705618292093277, 
        -0.028691468760371208, 
        0.03209804743528366, 
        0.08955790102481842, 
        -0.045192789286375046, 
        0.13854451477527618, 
        0.14345163106918335, 
        0.0557740293443203, 
        -0.07596495002508163, 
        -0.11027182638645172, 
        -0.005076944828033447, 
        0.1384778767824173, 
        -0.01566401869058609, 
        -0.1299520879983902, 
        0.23682212829589844, 
        0.025272861123085022, 
        0.23567482829093933, 
        0.017574578523635864, 
        -0.01873474009335041, 
        0.023639922961592674, 
        -0.02168177254498005, 
        -0.029452992603182793, 
        -0.05001872777938843, 
        0.445353627204895, 
        0.17038452625274658, 
        -0.028200119733810425, 
        -0.0011497833766043186, 
        -0.039363469928503036, 
        0.508060097694397, 
        0.5625435709953308, 
        0.287099689245224, 
        -0.008950206451117992, 
        -0.031913138926029205, 
        0.0020878782961517572, 
        0.19355393946170807, 
        0.2094348520040512, 
        -0.15003706514835358, 
        -0.13166052103042603, 
        -0.15951068699359894, 
        0.03647703304886818, 
        0.03751402348279953, 
        0.06980100274085999, 
        0.17342758178710938, 
        -0.12377546727657318, 
        0.4295662045478821, 
        -0.04026710242033005, 
        -0.0380660817027092, 
        -0.03606966882944107, 
        0.11903181672096252, 
        0.13287849724292755, 
        0.04445326700806618, 
        0.027418334037065506, 
        0.018458865582942963, 
        0.4404275119304657, 
        0.018403515219688416, 
        -0.04174933210015297, 
        -0.050113558769226074, 
        0.016972500830888748, 
        -0.02424640953540802, 
        0.025540461763739586, 
        0.029317401349544525, 
        -0.06273911148309708, 
        0.01958353817462921, 
        0.002090811962261796, 
        -0.12020760029554367, 
        0.05474115163087845, 
        -0.20460562407970428, 
        -0.022282041609287262, 
        -0.002616285113617778, 
        -0.02970409207046032, 
        0.027458446100354195, 
        -0.03388670086860657, 
        -0.06088082492351532, 
        -0.22704455256462097, 
        -0.07279203832149506, 
        0.0006197019247338176, 
        0.05186327546834946, 
        -0.0006595129962079227, 
        -0.40499448776245117, 
        -0.40402951836586, 
        -0.28472352027893066, 
        -0.03086427040398121, 
        -0.019346166402101517, 
        0.02121688984334469, 
        -0.21229521930217743, 
        -0.21621106564998627, 
        0.07785138487815857, 
        -0.06212086230516434, 
        -0.019871503114700317, 
        -0.14634516835212708, 
        -0.15010350942611694, 
        -0.015162982046604156, 
        -0.24836966395378113, 
        0.022821668535470963, 
        -0.36906373500823975, 
        0.0005584607133641839, 
        -0.015288596041500568, 
        -0.007727748714387417, 
        0.03038860484957695, 
        0.017097895964980125, 
        0.04999542608857155, 
        0.05360230803489685, 
        0.05059906095266342, 
        -0.2688854932785034, 
        -0.005418851971626282, 
        0.03240214288234711, 
        0.011039508506655693, 
        0.009541434235870838, 
        -0.051070403307676315, 
        -0.062207721173763275, 
        0.0435657873749733, 
        0.06876801699399948, 
        -0.04118932783603668, 
        0.011975981295108795, 
        -0.01174668688327074, 
        -0.07732480019330978, 
        0.016883062198758125, 
        0.0026308149099349976, 
        0.03724712133407593, 
        -0.024683423340320587, 
        -0.04704209044575691, 
        0.0070609706453979015, 
        -0.0019480908522382379, 
        0.03949544578790665, 
        -0.04987982660531998, 
        -0.043133027851581573, 
        -0.06606468558311462, 
        -0.050087373703718185, 
        0.20220933854579926, 
        0.11454019695520401, 
        0.02479434944689274, 
        -0.0003504485357552767, 
        -0.05219855159521103, 
        0.004625238012522459, 
        0.07649709284305573, 
        -0.001801796955987811, 
        0.13725127279758453, 
        -0.032972365617752075, 
        -0.04790404066443443, 
        -0.13099093735218048, 
        -0.12419436126947403, 
        -0.010842190124094486, 
        0.0834260806441307, 
        0.02887660078704357, 
        0.04027920961380005, 
        -0.008728871122002602, 
        -0.05022673308849335, 
        -0.07183515280485153, 
        0.05021900683641434, 
        0.0024563143961131573, 
        0.01791159249842167, 
        0.0681501254439354, 
        -0.04751450568437576, 
        0.00280692963860929, 
        -0.0705893337726593, 
        0.024119645357131958, 
        -0.003350404789671302, 
        0.02121325396001339, 
        0.08159046620130539, 
        0.001574941910803318, 
        -0.026347683742642403, 
        -0.06512680649757385, 
        -0.021981453523039818, 
        0.029055241495370865, 
        -0.17454193532466888, 
        0.04122181609272957, 
        -0.15212051570415497, 
        0.08791331946849823, 
        0.05853408947587013, 
        -0.01812320202589035, 
        0.025397425517439842, 
        0.028818828985095024, 
        -0.07131733000278473, 
        -0.2860199511051178, 
        0.002266455441713333, 
        0.08235771954059601, 
        0.10091850906610489, 
        -0.02842121385037899, 
        -0.8378016352653503, 
        -0.8529714345932007, 
        -0.33844053745269775, 
        0.026412786915898323, 
        0.07960539311170578, 
        -0.039952121675014496, 
        -0.4047618508338928, 
        -0.37821251153945923, 
        0.030973510816693306, 
        0.16204960644245148, 
        0.16398166120052338, 
        0.22951433062553406, 
        0.18082471191883087, 
        -0.04258428514003754, 
        -0.14766433835029602, 
        0.10479981452226639, 
        -0.19850245118141174, 
        0.1497415155172348, 
        0.2726287543773651, 
        0.23000574111938477, 
        0.0037918067537248135, 
        0.01638828217983246, 
        0.05102843791246414, 
        0.04400290176272392, 
        0.04881929233670235, 
        -0.40238156914711, 
        -0.001704740570858121, 
        -0.04362819343805313, 
        -0.032422974705696106, 
        -0.010414077900350094, 
        0.04222749173641205, 
        -0.00930830743163824, 
        -0.07264789193868637, 
        0.024521201848983765, 
        0.06540941447019577, 
        -0.007271239999681711, 
        -0.036987826228141785, 
        -0.011140413582324982, 
        -0.11171434819698334, 
        0.04002922773361206, 
        0.05484896898269653, 
        0.07841676473617554, 
        0.008719215169548988, 
        -0.0002194884291384369, 
        -0.05887118726968765, 
        -0.16433964669704437, 
        0.0120197469368577, 
        -0.02342803031206131, 
        0.06898671388626099, 
        -0.021728569641709328, 
        -0.3043699562549591, 
        -0.23759792745113373, 
        -0.06471971422433853, 
        0.0553429014980793, 
        0.02183575928211212, 
        -0.017744146287441254, 
        -0.1698545515537262, 
        -0.15233951807022095, 
        0.07867799699306488, 
        -0.04074345529079437, 
        0.018085232004523277, 
        -0.045652348548173904, 
        -0.02568768709897995, 
        0.03246308118104935, 
        -0.17852918803691864, 
        0.01620287261903286, 
        -0.22157570719718933, 
        -0.08929042518138885, 
        -0.06272377818822861, 
        0.03931017220020294, 
        0.008457762189209461, 
        -0.027238309383392334, 
        0.07590638846158981, 
        0.019650258123874664, 
        0.014683753252029419, 
        -0.16342364251613617, 
        0.020106865093111992, 
        -0.007439970504492521, 
        -0.045173194259405136, 
        -0.0185321643948555, 
        -0.01701977103948593, 
        0.028110330924391747, 
        -0.020266668871045113, 
        -0.007846450433135033, 
        -0.025232497602701187, 
        -0.03146256133913994, 
        -0.17646008729934692, 
        0.014650513418018818, 
        -0.24080204963684082, 
        0.025237103924155235, 
        0.010170760564506054, 
        0.03500635176897049, 
        -0.014929135330021381, 
        -0.0035403999499976635, 
        -0.03457163646817207, 
        -0.23466476798057556, 
        -0.046458642929792404, 
        -0.007971045561134815, 
        -0.004644766915589571, 
        0.0036542960442602634, 
        -0.5905203819274902, 
        -0.5400146842002869, 
        -0.3102751076221466, 
        0.07230610400438309, 
        0.028831999748945236, 
        0.01222095638513565, 
        -0.21864528954029083, 
        -0.2303985357284546, 
        0.06120491400361061, 
        0.0033278644550591707, 
        0.016487032175064087, 
        -0.01391681283712387, 
        -0.03538191318511963, 
        -0.02944883704185486, 
        -0.24325136840343475, 
        0.0033866262529045343, 
        -0.3157535195350647, 
        0.0022451409604400396, 
        0.08864552527666092, 
        0.0898820087313652, 
        -0.0035458779893815517, 
        -0.03257911279797554, 
        0.08260293304920197, 
        0.11038462817668915, 
        0.04115866497159004, 
        -0.3278450071811676, 
        -0.06189984455704689, 
        0.06909958273172379, 
        0.03289211913943291, 
        -0.006412927061319351, 
        0.0088573656976223, 
        0.020621610805392265, 
        -0.05957195535302162, 
        0.07179158926010132, 
        0.042282406240701675, 
        0.05132371559739113, 
        0.01337988581508398, 
        0.024340098723769188, 
        0.04879922792315483, 
        0.0015622511273249984, 
        -0.011282739229500294, 
        0.0020269027445465326, 
        0.011677329428493977, 
        -0.002948805456981063, 
        -0.0008253101841546595, 
        0.13017533719539642, 
        0.02845422551035881, 
        0.05325111746788025, 
        0.0309198759496212, 
        0.05619789659976959, 
        0.11523015052080154, 
        0.11748206615447998, 
        0.07258458435535431, 
        0.03460187092423439, 
        0.04839826002717018, 
        0.02999325655400753, 
        0.011278265155851841, 
        0.018334755674004555, 
        -0.27333781123161316, 
        -0.16477887332439423, 
        -0.14391186833381653, 
        -0.04944203794002533, 
        -0.04066358506679535, 
        0.06265678256750107, 
        -0.08484753966331482, 
        -0.1336788386106491, 
        -0.05976378172636032, 
        -0.07716421037912369, 
        -0.10350498557090759, 
        -0.015293866395950317, 
        0.038138408213853836, 
        -0.024263132363557816, 
        -0.010109605267643929, 
        -0.04804450273513794, 
        0.011879237368702888, 
        0.02572573907673359, 
        -0.009004056453704834, 
        0.10326012969017029, 
        0.09881196916103363, 
        0.053943000733852386, 
        0.005828839261084795, 
        0.28162136673927307, 
        -0.08032597601413727, 
        0.14501945674419403, 
        -0.0018764360575005412, 
        0.13574469089508057, 
        0.38836807012557983, 
        -0.03744553029537201, 
        0.4465612769126892, 
        -0.039032936096191406, 
        -0.0005627665086649358, 
        0.33049067854881287, 
        0.031753964722156525, 
        0.01952984556555748, 
        0.12129638344049454, 
        0.4977755546569824, 
        0.031491611152887344, 
        0.050129082053899765, 
        0.07915546745061874, 
        -0.031327251344919205, 
        0.7158161401748657, 
        0.69526207447052, 
        0.330705463886261, 
        0.031431928277015686, 
        0.057794906198978424, 
        0.012497243471443653, 
        0.25774478912353516, 
        0.31287306547164917, 
        -0.06154317036271095, 
        0.09306775033473969, 
        -0.018172098323702812, 
        0.005593954585492611, 
        0.03563039377331734, 
        0.16734956204891205, 
        0.49865323305130005, 
        -0.14002470672130585, 
        0.9455830454826355, 
        0.020940538495779037, 
        0.029850970953702927, 
        0.018420545384287834, 
        0.1234077736735344, 
        0.09325005114078522, 
        0.031036391854286194, 
        -0.0041327825747430325, 
        -0.01797044277191162, 
        0.7707367539405823, 
        -0.08999648690223694, 
        -0.001315748319029808, 
        0.022681275382637978, 
        -0.046431172639131546, 
        0.0033391076140105724, 
        0.07426440715789795, 
        0.07479759305715561, 
        -0.048164743930101395, 
        -0.0009678971255198121, 
        -0.009329759515821934, 
        -0.06525496393442154, 
        -0.021016139537096024, 
        -0.0026386776007711887, 
        0.032401010394096375, 
        -0.027810946106910706, 
        0.06147272512316704, 
        0.0629030242562294, 
        0.0035993994679301977, 
        -0.05559900030493736, 
        -0.06973690539598465, 
        -0.030948838219046593, 
        0.014294548891484737, 
        0.012716582976281643, 
        -0.0423860065639019, 
        -0.023782551288604736, 
        -0.0923466682434082, 
        -0.06653261184692383, 
        0.02741461619734764, 
        0.0466080978512764, 
        -0.005280002020299435, 
        -0.12061852961778641, 
        -0.05765431001782417, 
        -0.023180929943919182, 
        -0.05188487470149994, 
        -0.09027935564517975, 
        -0.06970925629138947, 
        -0.036003489047288895, 
        -0.012876346707344055, 
        -0.0791180282831192, 
        0.005771805997937918, 
        -0.1710943877696991, 
        -0.05310092493891716, 
        -0.1312149167060852, 
        -0.07002510875463486, 
        0.028878098353743553, 
        0.035748716443777084, 
        0.02235354296863079, 
        0.04035383090376854, 
        -0.008309186436235905, 
        -0.09783059358596802, 
        -0.006609323900192976, 
        0.24041345715522766, 
        0.23633034527301788, 
        0.01320094708353281, 
        -0.03377632424235344, 
        0.18812060356140137, 
        0.04248647391796112, 
        0.22017061710357666, 
        -0.008900939486920834, 
        -0.014746998436748981, 
        0.18486052751541138, 
        -0.21795272827148438, 
        0.3515584170818329, 
        -0.08674059808254242, 
        0.032638076692819595, 
        0.06409840285778046, 
        -0.002011165488511324, 
        0.015643086284399033, 
        0.046703506261110306, 
        0.31060296297073364, 
        -0.031533196568489075, 
        0.11697854101657867, 
        0.054372865706682205, 
        -0.02325752191245556, 
        0.6741185784339905, 
        0.6320325136184692, 
        0.31289270520210266, 
        0.18696780502796173, 
        0.0806572437286377, 
        -0.01665920950472355, 
        0.4727407693862915, 
        0.6491835713386536, 
        0.11110258847475052, 
        0.03389808535575867, 
        -0.00833890587091446, 
        -0.2446812391281128, 
        -0.29827624559402466, 
        0.16820208728313446, 
        0.2805964946746826, 
        0.05419253557920456, 
        0.2852775454521179, 
        -0.004283012356609106, 
        -0.09043584764003754, 
        -0.1480521261692047, 
        0.1727420538663864, 
        0.21767883002758026, 
        0.09655515104532242, 
        0.024503910914063454, 
        0.03400060907006264, 
        0.6778337359428406, 
        -0.26351916790008545, 
        0.14772306382656097, 
        0.13819672167301178, 
        0.00722085265442729, 
        -0.0034050040412694216, 
        0.047159239649772644, 
        -0.0634693130850792, 
        0.16153913736343384, 
        -0.022305907681584358, 
        0.06248948350548744, 
        0.23609621822834015, 
        -0.004962287377566099, 
        0.23161008954048157, 
        -0.002498529851436615, 
        0.004024106077849865, 
        -0.21629129350185394, 
        0.033958204090595245, 
        0.055401936173439026, 
        -0.011484691873192787, 
        0.2915092706680298, 
        0.009297795593738556, 
        0.026847034692764282, 
        0.021304607391357422, 
        -0.04078088328242302, 
        0.7147374153137207, 
        0.6626346111297607, 
        0.286081463098526, 
        0.09420977532863617, 
        -0.0035811348352581263, 
        0.02344628982245922, 
        0.081426240503788, 
        0.19829601049423218, 
        -0.022858206182718277, 
        -0.03165924549102783, 
        -0.09012570232152939, 
        -0.7414810061454773, 
        -0.7271040081977844, 
        0.2185589224100113, 
        0.1934848129749298, 
        0.03459539636969566, 
        0.24906624853610992, 
        -0.04164250195026398, 
        -0.26552173495292664, 
        -0.2754073739051819, 
        0.11931264400482178, 
        0.18782541155815125, 
        0.07327692955732346, 
        0.042141143232584, 
        0.007845214568078518, 
        0.4525033235549927, 
        0.09622636437416077, 
        0.025999337434768677, 
        0.027202337980270386, 
        -0.018050985410809517, 
        -0.06527353078126907, 
        -0.01207952294498682, 
        0.04335208982229233, 
        0.06135870888829231, 
        -0.02917647920548916, 
        -0.00584211852401495, 
        0.05700087919831276, 
        -0.01259724609553814, 
        0.019811974838376045, 
        0.013630405999720097, 
        -0.05686650797724724, 
        0.12365876883268356, 
        0.07805243134498596, 
        -0.004843839909881353, 
        -0.037757065147161484, 
        0.06304790824651718, 
        -0.017703847959637642, 
        -0.046101417392492294, 
        0.013609596528112888, 
        -0.02653215080499649, 
        0.14968708157539368, 
        0.1354348361492157, 
        0.05499593913555145, 
        0.013781814835965633, 
        0.05217919871211052, 
        0.008718245662748814, 
        0.10659264028072357, 
        0.04461005702614784, 
        -0.013376015238463879, 
        -0.04204515367746353, 
        -0.08245481550693512, 
        0.012250971049070358, 
        0.05001799389719963, 
        0.06648798286914825, 
        0.048946235328912735, 
        -0.06429320573806763, 
        0.1011883094906807, 
        0.009546604007482529, 
        -0.04569445177912712, 
        0.01876702718436718, 
        0.05396333709359169, 
        0.03488026559352875, 
        0.06785962730646133, 
        -0.0005951612256467342, 
        -0.02444963902235031, 
        0.0822090208530426, 
        -0.024814236909151077, 
        0.06254635751247406, 
        0.0681268572807312, 
        -0.02539074420928955, 
        -0.031656425446271896, 
        0.07478965073823929, 
        0.05253740772604942, 
        -0.008250144310295582, 
        0.01852133683860302, 
        -0.02487017773091793, 
        0.008739790879189968, 
        -0.027195191010832787, 
        -0.008178725838661194, 
        0.027154216542840004, 
        -0.03638351708650589, 
        0.0634974017739296, 
        -0.09434076398611069, 
        -0.03401469066739082, 
        0.03344173729419708, 
        0.0396222248673439, 
        -0.010197681374847889, 
        -0.03199297562241554, 
        0.056739699095487595, 
        0.009999006055295467, 
        0.12425697594881058, 
        0.08302965015172958, 
        0.020958686247467995, 
        -0.03477257117629051, 
        0.019976560026407242, 
        -0.0201460849493742, 
        0.061868004500865936, 
        0.11107292026281357, 
        0.09413093328475952, 
        -0.08011494576931, 
        -0.12065216898918152, 
        -0.06419939547777176, 
        -0.03252160921692848, 
        0.013105941005051136, 
        0.013425937853753567, 
        -0.04714147001504898, 
        -0.03613929823040962, 
        -0.051015179604291916, 
        -0.0506550669670105, 
        -0.0876152515411377, 
        0.04137910157442093, 
        0.009237261489033699, 
        -0.02339627780020237, 
        0.021779760718345642, 
        -0.02123210020363331, 
        0.09159321337938309, 
        -0.021660979837179184, 
        0.018939651548862457, 
        0.0504063181579113, 
        0.022767655551433563, 
        0.007381398230791092, 
        -0.016407731920480728, 
        0.03618697077035904, 
        -0.01459487434476614, 
        0.013085702434182167, 
        0.01971898041665554, 
        -0.04447787627577782, 
        0.01130963396281004, 
        -0.055538468062877655, 
        -0.03587329015135765, 
        -0.0887259840965271, 
        0.0769168809056282, 
        -0.07540525496006012, 
        -0.017587540671229362, 
        -0.057444311678409576, 
        -0.0030053365044295788, 
        -0.02408231794834137, 
        0.029746852815151215, 
        0.048715800046920776, 
        -0.03661163151264191, 
        0.03839815780520439, 
        0.03236408904194832, 
        0.008811316452920437, 
        -0.037037547677755356, 
        -0.02897769957780838, 
        0.003242576727643609, 
        0.005939222406595945, 
        0.056511539965867996, 
        -0.010794142261147499, 
        -0.06638641655445099, 
        -0.15176068246364594, 
        -0.10266575962305069, 
        -0.043847884982824326, 
        -0.03990929201245308, 
        -0.07204820960760117, 
        -0.030252620577812195, 
        -0.04465126618742943, 
        -0.09453364461660385, 
        -0.09433969110250473, 
        -0.1269616335630417, 
        0.05051848292350769, 
        -0.03722325712442398, 
        -0.05812246352434158, 
        0.016860825940966606, 
        0.008062601089477539, 
        -0.030292320996522903, 
        0.021477799862623215, 
        0.11979315429925919, 
        0.10096544772386551, 
        0.016982292756438255, 
        0.00473143020644784, 
        -0.05783626064658165, 
        -0.04774709418416023, 
        0.13990972936153412, 
        -0.04740563780069351, 
        -0.0007190675241872668, 
        0.31456831097602844, 
        0.054247401654720306, 
        0.3273140788078308, 
        -0.01436010655015707, 
        -0.025138119235634804, 
        -0.006119976751506329, 
        -0.029287436977028847, 
        0.0019109100103378296, 
        -0.032848648726940155, 
        0.4132143557071686, 
        0.12001064419746399, 
        -0.020764974877238274, 
        0.021629702299833298, 
        0.013480237685143948, 
        0.5347877144813538, 
        0.5227277278900146, 
        0.3499177396297455, 
        -0.03483308106660843, 
        0.015555458143353462, 
        -0.04217192530632019, 
        0.031835585832595825, 
        0.027168774977326393, 
        -0.4652765393257141, 
        -0.07079159468412399, 
        -0.1517457216978073, 
        0.06152939423918724, 
        0.03475527465343475, 
        0.16158853471279144, 
        -0.08093645423650742, 
        -0.2610416114330292, 
        0.13249705731868744, 
        -0.11244305223226547, 
        -0.07547327131032944, 
        -0.0862753838300705, 
        0.0812249481678009, 
        0.08597925305366516, 
        0.023319058120250702, 
        -0.0016331804217770696, 
        0.026490282267332077, 
        0.5910459756851196, 
        0.09999948740005493, 
        -0.053820110857486725, 
        -0.05649920180439949, 
        0.032506830990314484, 
        -0.0056843445636332035, 
        -0.10883531719446182, 
        -0.012152650393545628, 
        -0.05820085480809212, 
        0.010881990194320679, 
        -0.06463497877120972, 
        -0.07717065513134003, 
        -0.043689753860235214, 
        -0.05904307961463928, 
        0.03429668769240379, 
        -0.022900547832250595, 
        -0.14303763210773468, 
        0.004298713989555836, 
        0.06245375797152519, 
        -0.08890441805124283, 
        -0.09797962754964828, 
        -0.027567042037844658, 
        0.03614971786737442, 
        0.0489775687456131, 
        0.007932793349027634, 
        -0.09203436225652695, 
        -0.0427260659635067, 
        -0.011163407936692238, 
        -0.012423875741660595, 
        -0.020573148503899574, 
        0.01789374276995659, 
        -0.13992148637771606, 
        -0.14518684148788452, 
        0.029936645179986954, 
        0.0011662651086226106, 
        0.049082934856414795, 
        -0.09521082043647766, 
        -0.040693249553442, 
        -0.014254185371100903, 
        -0.10441573709249496, 
        0.009060724638402462, 
        -0.18609125912189484, 
        -0.008288208395242691, 
        -0.08016346395015717, 
        -0.08586905896663666, 
        -0.05478512868285179, 
        0.01501382328569889, 
        -0.05745172128081322, 
        -0.031179675832390785, 
        -0.043108467012643814, 
        -0.09674374014139175, 
        0.023859713226556778, 
        0.040137603878974915, 
        0.0801367238163948, 
        -0.028887946158647537, 
        0.0026037462521344423, 
        0.06651663035154343, 
        -0.04073747992515564, 
        0.05442417412996292, 
        0.04844734072685242, 
        0.011482859961688519, 
        0.04115444794297218, 
        -0.016192443668842316, 
        0.01289853174239397, 
        0.023601025342941284, 
        -0.09399782121181488, 
        0.05575821176171303, 
        -0.06499052047729492, 
        -0.037438906729221344, 
        0.02263675071299076, 
        0.1410856693983078, 
        -0.008578768000006676, 
        0.053226288408041, 
        0.007833749987185001, 
        0.005352748557925224, 
        0.20573577284812927, 
        0.16847966611385345, 
        0.07832778990268707, 
        0.004146388731896877, 
        0.025131916627287865, 
        -0.014021690003573895, 
        0.29556193947792053, 
        0.28377750515937805, 
        0.17506271600723267, 
        -0.041403982788324356, 
        -0.12382267415523529, 
        -0.0661410465836525, 
        -0.12197345495223999, 
        0.01816355064511299, 
        0.03906259313225746, 
        -0.04168224334716797, 
        0.08923382312059402, 
        -0.004281722940504551, 
        -0.18304583430290222, 
        -0.14252902567386627, 
        0.06713893264532089, 
        0.0410587377846241, 
        0.02333107776939869, 
        -0.031220246106386185, 
        0.021275704726576805, 
        0.16027937829494476, 
        -0.0027872456703335047, 
        0.0033552334643900394, 
        0.0567813403904438, 
        0.01239621452987194, 
        -0.04375211149454117, 
        -0.0017047416185960174, 
        -0.03971710428595543, 
        0.037142831832170486, 
        -0.031578365713357925, 
        -0.08683890849351883, 
        -0.142361581325531, 
        0.06253816932439804, 
        -0.19069689512252808, 
        -0.028048934414982796, 
        -0.0001115258492063731, 
        -0.02580576390028, 
        -0.04668641462922096, 
        0.019058799371123314, 
        0.0021655859891325235, 
        -0.22700762748718262, 
        -0.11602042615413666, 
        -0.021524013951420784, 
        0.06091366335749626, 
        -0.04924079403281212, 
        -0.37480631470680237, 
        -0.3792104423046112, 
        -0.131282776594162, 
        -0.017559530213475227, 
        0.05021354928612709, 
        -0.053192105144262314, 
        -0.3649989366531372, 
        -0.22920122742652893, 
        -0.07502693682909012, 
        0.06266354769468307, 
        0.07957431674003601, 
        -0.1722809076309204, 
        -0.14787524938583374, 
        -0.019153639674186707, 
        -0.18371908366680145, 
        0.04922137409448624, 
        -0.4161803424358368, 
        0.017912548035383224, 
        -0.048468269407749176, 
        -0.03109145350754261, 
        -0.03128429874777794, 
        -0.024115463718771935, 
        0.03887084871530533, 
        0.07972069084644318, 
        -0.014527034945786, 
        -0.15472187101840973, 
        0.054975204169750214, 
        0.2138015329837799, 
        0.18618376553058624, 
        -0.06772925704717636, 
        0.0019130135187879205, 
        -0.06395740061998367, 
        -0.06803349405527115, 
        0.24276889860630035, 
        -0.0055035557597875595, 
        0.10241635143756866, 
        0.2834353744983673, 
        -0.07870008796453476, 
        0.28839585185050964, 
        -0.03782391920685768, 
        -0.13607046008110046, 
        0.02041707932949066, 
        0.13954301178455353, 
        0.0026241757441312075, 
        -0.0182757917791605, 
        0.31003645062446594, 
        0.005854789633303881, 
        0.1398424655199051, 
        0.14610819518566132, 
        0.016961397603154182, 
        0.3527621030807495, 
        0.4260072112083435, 
        0.2864943742752075, 
        0.16954544186592102, 
        0.13173748552799225, 
        -0.0008881716639734805, 
        0.1097048744559288, 
        0.09367463737726212, 
        -0.03674139827489853, 
        0.1065887063741684, 
        -0.07452217489480972, 
        -0.3133338391780853, 
        -0.3385657072067261, 
        0.21753937005996704, 
        0.04239514470100403, 
        -0.1368863880634308, 
        0.15153862535953522, 
        -0.08196552097797394, 
        -0.12684421241283417, 
        -0.07139934599399567, 
        0.15074141323566437, 
        0.185078427195549, 
        0.034011922776699066, 
        0.10658053308725357, 
        -0.04069479554891586, 
        0.5395554304122925, 
        -0.015644999220967293, 
        0.05612407252192497, 
        0.06519105285406113, 
        0.01036866009235382, 
        -0.08476260304450989, 
        -0.0543021522462368, 
        -0.04086919128894806, 
        0.10596948862075806, 
        -0.050932805985212326, 
        0.06581638753414154, 
        0.09248389303684235, 
        -0.054710503667593, 
        0.1450616419315338, 
        0.018682090565562248, 
        -0.027334637939929962, 
        -0.12983031570911407, 
        -0.054868072271347046, 
        -0.06162645295262337, 
        0.07836785912513733, 
        0.23854929208755493, 
        0.022503282874822617, 
        0.032598674297332764, 
        -0.009433651342988014, 
        -0.053539812564849854, 
        0.47834762930870056, 
        0.40655186772346497, 
        0.24146273732185364, 
        0.0535593181848526, 
        0.0507214181125164, 
        -0.019543003290891647, 
        0.22186356782913208, 
        0.2656513452529907, 
        0.2148846834897995, 
        -0.012060494162142277, 
        -0.07069402933120728, 
        0.10492593050003052, 
        0.04803004860877991, 
        0.11463036388158798, 
        0.20280788838863373, 
        -0.01448097825050354, 
        0.28029507398605347, 
        -0.01766914874315262, 
        -0.035016268491744995, 
        0.02493380941450596, 
        0.07531943917274475, 
        0.06432484835386276, 
        0.06455808877944946, 
        0.007847584784030914, 
        -0.026829298585653305, 
        0.23340913653373718, 
        -0.0706804171204567, 
        0.04049618914723396, 
        0.030481595546007156, 
        0.03496619686484337, 
        0.006699034012854099, 
        0.027156377211213112, 
        -0.033212654292583466, 
        0.0009291282622143626, 
        0.023561470210552216, 
        -0.011389341205358505, 
        -0.03865402191877365, 
        -0.055651288479566574, 
        -0.013134537264704704, 
        0.0211502555757761, 
        -0.05552339181303978, 
        -0.05852522701025009, 
        -0.018283529207110405, 
        0.06789649277925491, 
        -0.011060602031648159, 
        0.02586895041167736, 
        0.018483784049749374, 
        -0.008343121036887169, 
        0.03406983241438866, 
        0.01947101578116417, 
        0.1726282387971878, 
        0.1317089945077896, 
        0.08338497579097748, 
        -0.0007099743816070259, 
        0.04472983255982399, 
        0.06029847636818886, 
        0.07485072314739227, 
        0.06490147113800049, 
        -0.09726577997207642, 
        -0.05974606052041054, 
        -0.09116138517856598, 
        -0.07245154678821564, 
        -0.03519727662205696, 
        -0.02290552482008934, 
        -0.071683369576931, 
        -0.05272959917783737, 
        -0.0522337332367897, 
        -0.122170090675354, 
        -0.13279315829277039, 
        -0.068596750497818, 
        0.021416781470179558, 
        -0.025424454361200333, 
        0.010634342208504677, 
        -0.05842088907957077, 
        0.013948909938335419, 
        0.04416898638010025, 
        -0.0027885683812201023, 
        0.0774519294500351, 
        0.08619727194309235, 
        -0.03462011739611626, 
        -0.05951689928770065, 
        0.05055135861039162, 
        -0.057100698351860046, 
        0.01513433177024126, 
        -0.01149140764027834, 
        0.0017898116493597627, 
        0.09010124206542969, 
        0.02934265322983265, 
        0.021734558045864105, 
        0.0028110002167522907, 
        -0.034800395369529724, 
        0.036631785333156586, 
        0.0027931882068514824, 
        -0.0036080360878258944, 
        -0.047160182148218155, 
        0.1653672605752945, 
        0.09980497509241104, 
        0.055156536400318146, 
        0.024248016998171806, 
        -0.05360160768032074, 
        0.22850674390792847, 
        0.17410656809806824, 
        0.09869255125522614, 
        0.0602327361702919, 
        0.043941326439380646, 
        -0.0581214614212513, 
        0.001994549063965678, 
        0.09244821965694427, 
        -0.17473556101322174, 
        -0.028565984219312668, 
        -0.06292957067489624, 
        0.04137388989329338, 
        0.03282776474952698, 
        0.07417299598455429, 
        0.004795929882675409, 
        -0.05772112309932709, 
        -0.003273282665759325, 
        -0.05140876770019531, 
        -0.07059043645858765, 
        -0.05460398644208908, 
        0.021968526765704155, 
        0.011242380365729332, 
        0.01847233809530735, 
        0.01260853186249733, 
        0.046104080975055695, 
        0.054234810173511505, 
        0.007919132709503174, 
        0.06695599108934402, 
        0.052841462194919586, 
        -0.0016110454453155398, 
        -0.052603092044591904, 
        -0.07002434879541397, 
        0.08883468061685562, 
        0.06344129890203476, 
        0.008459018543362617, 
        0.02243490144610405, 
        0.03968037664890289, 
        -0.11957819759845734, 
        0.05084196850657463, 
        -0.09375689923763275, 
        -0.014541437849402428, 
        -0.04320012405514717, 
        0.0318344421684742, 
        0.03451018035411835, 
        -0.020714007318019867, 
        0.12461770325899124, 
        -0.03736548498272896, 
        0.0284287016838789, 
        0.023738397285342216, 
        -0.03444785997271538, 
        0.19212380051612854, 
        0.17316438257694244, 
        0.11849979311227798, 
        -0.003430674085393548, 
        0.023292802274227142, 
        -0.04053439944982529, 
        0.13993127644062042, 
        0.07876777648925781, 
        0.05301174148917198, 
        -0.08773456513881683, 
        -0.17695803940296173, 
        -0.22700828313827515, 
        -0.23698686063289642, 
        0.061932940036058426, 
        0.0751618817448616, 
        -0.0053883385844528675, 
        0.06774360686540604, 
        -0.012408536858856678, 
        -0.14922742545604706, 
        -0.14791595935821533, 
        0.024296598508954048, 
        0.07966361194849014, 
        -0.019391510635614395, 
        0.059633519500494, 
        -0.020461242645978928, 
        0.15205974876880646, 
        -0.1058945506811142, 
        0.18812960386276245, 
        0.19926920533180237, 
        0.021970706060528755, 
        -0.020592259243130684, 
        0.13315419852733612, 
        -0.07821398973464966, 
        0.17316484451293945, 
        0.029637694358825684, 
        0.19705702364444733, 
        0.1145029366016388, 
        -0.07242968678474426, 
        0.1358494758605957, 
        -0.03518752008676529, 
        0.007253259886056185, 
        0.07480581104755402, 
        0.10184073448181152, 
        0.027643268927931786, 
        -0.09366738051176071, 
        0.21071897447109222, 
        0.016220273450016975, 
        0.1574510782957077, 
        0.17716053128242493, 
        -0.027574721723794937, 
        0.44248026609420776, 
        0.4015135169029236, 
        0.24912366271018982, 
        0.166868656873703, 
        0.1694152057170868, 
        -0.028552260249853134, 
        0.15241464972496033, 
        0.19148394465446472, 
        -0.0482192188501358, 
        -0.0041289981454610825, 
        -0.1495792120695114, 
        -0.471779465675354, 
        -0.47231757640838623, 
        0.19255100190639496, 
        0.005356803070753813, 
        -0.07011398673057556, 
        0.15481561422348022, 
        0.004011095967143774, 
        -0.16914281249046326, 
        -0.21026071906089783, 
        0.16475144028663635, 
        0.2126876711845398, 
        0.10718461126089096, 
        0.055893078446388245, 
        0.01951119862496853, 
        0.32239052653312683, 
        -0.07259363681077957, 
        0.05612106993794441, 
        0.10975509136915207, 
        -0.04790104180574417, 
        -0.06556431204080582, 
        -0.07189926505088806, 
        0.1425178200006485, 
        0.03599342331290245, 
        0.008524003438651562, 
        0.013288110494613647, 
        0.0179454293102026, 
        -0.0558895468711853, 
        0.109965980052948, 
        -0.10599976032972336, 
        -0.008260976523160934, 
        -0.11425283551216125, 
        -0.044401347637176514, 
        -0.0032015228644013405, 
        -0.028271112591028214, 
        0.14996016025543213, 
        -0.010939473286271095, 
        0.017616547644138336, 
        0.06977681815624237, 
        -0.0336669497191906, 
        0.21630050241947174, 
        0.19217151403427124, 
        0.09863056242465973, 
        0.03968048468232155, 
        0.050641901791095734, 
        0.014788947999477386, 
        0.1523330807685852, 
        0.14512185752391815, 
        0.08885259181261063, 
        -0.1170632392168045, 
        -0.19069814682006836, 
        -0.3067443072795868, 
        -0.25415557622909546, 
        0.07409931719303131, 
        0.13024920225143433, 
        0.007503566797822714, 
        0.08234751224517822, 
        -0.011010208167135715, 
        -0.2972694933414459, 
        -0.2074975073337555, 
        0.08906568586826324, 
        0.045322831720113754, 
        0.04935190826654434, 
        -0.011629377491772175, 
        0.0071986643597483635, 
        0.19933553040027618, 
        -0.09381046146154404, 
        0.1350538283586502, 
        0.14447051286697388, 
        0.03287941589951515, 
        0.015383530408143997, 
        -0.08247087150812149, 
        0.0552724152803421, 
        0.16022805869579315, 
        0.016389770433306694, 
        0.0020145345479249954, 
        0.25571975111961365, 
        0.03346754610538483, 
        0.24111974239349365, 
        -0.03676443174481392, 
        -0.03072275035083294, 
        0.17748798429965973, 
        0.025334734469652176, 
        0.03287472203373909, 
        0.0049119992181658745, 
        0.2953839898109436, 
        0.009525828063488007, 
        -0.04729850962758064, 
        -0.014637740328907967, 
        -0.05460623279213905, 
        0.5338066220283508, 
        0.5401413440704346, 
        0.33146312832832336, 
        -0.010128958150744438, 
        -0.06821499764919281, 
        -0.01272149570286274, 
        0.2365947812795639, 
        0.27487310767173767, 
        0.0321599543094635, 
        -0.053330402821302414, 
        -0.12166095525026321, 
        -0.2694051265716553, 
        -0.23099562525749207, 
        0.14847354590892792, 
        0.17858897149562836, 
        -0.008472456596791744, 
        0.2672755718231201, 
        -0.03222046047449112, 
        -0.21971051394939423, 
        -0.21375110745429993, 
        0.15236201882362366, 
        0.1201811209321022, 
        -0.00137425831053406, 
        -0.018163049593567848, 
        0.02860609069466591, 
        0.4731222093105316, 
        0.07079149782657623, 
        -0.02012537606060505, 
        -0.03829282149672508, 
        -0.015964126214385033, 
        -0.017422327771782875, 
        0.0019636848010122776, 
        0.052350740879774094, 
        -0.0503484308719635, 
        0.023198556154966354, 
        -0.014665831811726093, 
        0.019218025729060173, 
        0.03001639060676098, 
        -0.025463933125138283, 
        -0.04035700112581253, 
        -0.06213613972067833, 
        0.04152243584394455, 
        -0.06145443022251129, 
        0.01837100274860859, 
        -0.036652129143476486, 
        -0.042528651654720306, 
        -0.05689408630132675, 
        0.016519159078598022, 
        -0.03612849488854408, 
        -0.017400482669472694, 
        -0.017268598079681396, 
        -0.05500129610300064, 
        -0.06766791641712189, 
        0.0405423529446125, 
        0.006446595303714275, 
        0.010967614129185677, 
        -0.012198315933346748, 
        -0.04212212562561035, 
        -0.053059980273246765, 
        -0.004241709131747484, 
        -0.08197640627622604, 
        -0.09967900812625885, 
        -0.10510572046041489, 
        -0.04192710667848587, 
        -0.05571966990828514, 
        -0.038759250193834305, 
        -0.08859141916036606, 
        -0.0025040165055543184, 
        -0.08392011374235153, 
        -0.06205976754426956, 
        -0.02664736658334732, 
        0.025266803801059723, 
        -0.049600254744291306, 
        -0.007898157462477684, 
        -0.006355429533869028, 
        -0.0463520810008049, 
        -0.008920551277697086, 
        0.03763709217309952, 
        -0.0234281774610281, 
        0.037213873118162155, 
        -0.018082158640027046, 
        -0.017241641879081726, 
        0.04113069176673889, 
        -0.017851831391453743, 
        0.038664814084768295, 
        0.01788811758160591, 
        -0.018605394288897514, 
        -0.029429947957396507, 
        0.0618431456387043, 
        0.0034168241545557976, 
        0.014622068032622337, 
        0.025196103379130363, 
        0.06776795536279678, 
        -0.008297530934214592, 
        0.01641080528497696, 
        0.05244714021682739, 
        -0.0034222817048430443, 
        -0.017835451290011406, 
        0.06276540458202362, 
        0.0037122457288205624, 
        0.1561659574508667, 
        0.12633344531059265, 
        0.11758243292570114, 
        0.03969445824623108, 
        0.04831463471055031, 
        -0.04510176554322243, 
        0.007238712627440691, 
        -0.0029801810160279274, 
        -0.16608451306819916, 
        -0.08885179460048676, 
        -0.08473093062639236, 
        -0.02212388627231121, 
        0.0039159986190497875, 
        0.05993042141199112, 
        -0.1330370455980301, 
        -0.0839521512389183, 
        -0.1128433421254158, 
        -0.06582160294055939, 
        -0.10258080065250397, 
        -0.10498187690973282, 
        -0.0021902918815612793, 
        0.028351720422506332, 
        0.0705706998705864, 
        0.03275446221232414, 
        0.022203171625733376, 
        0.0576787143945694, 
        -0.002913102973252535, 
        0.040626417845487595, 
        0.033013854175806046, 
        0.04656924679875374, 
        0.020173292607069016, 
        -0.06111592426896095, 
        -0.1346891075372696, 
        0.09639431536197662, 
        -0.007582348305732012, 
        -0.06667152792215347, 
        0.13143332302570343, 
        0.04267743229866028, 
        0.13953843712806702, 
        0.012218271382153034, 
        -0.047249648720026016, 
        -0.05230718478560448, 
        0.10219108313322067, 
        -0.0017710230313241482, 
        -0.09718285501003265, 
        0.21047891676425934, 
        0.0012106937356293201, 
        0.02768939919769764, 
        -0.015101606957614422, 
        -0.01686023361980915, 
        0.24116484820842743, 
        0.1445189118385315, 
        0.10487396270036697, 
        0.011997919529676437, 
        -0.00601579062640667, 
        0.03866899386048317, 
        -0.003896799637004733, 
        0.0017637546407058835, 
        -0.35896095633506775, 
        -0.05284472182393074, 
        -0.14497743546962738, 
        -0.037197090685367584, 
        -0.0627456083893776, 
        0.10520514845848083, 
        -0.027852946892380714, 
        -0.11360706388950348, 
        0.029547546058893204, 
        -0.10311482101678848, 
        -0.10584723204374313, 
        -0.14091715216636658, 
        0.0639905035495758, 
        0.0655466839671135, 
        0.0021814098581671715, 
        -0.03628699854016304, 
        0.0009974518325179815, 
        0.19241216778755188, 
        0.08908452093601227, 
        0.1585911363363266, 
        0.19483759999275208, 
        -0.04311039298772812, 
        -0.019941912963986397, 
        0.22097012400627136, 
        -0.02402593567967415, 
        0.19696514308452606, 
        0.02782934159040451, 
        0.035185959190130234, 
        0.32075753808021545, 
        -0.012839769944548607, 
        0.36275625228881836, 
        0.012770716100931168, 
        -0.0005303217913024127, 
        0.2870585024356842, 
        0.0006271777674555779, 
        0.04082098230719566, 
        0.013267695903778076, 
        0.3133309483528137, 
        0.048976071178913116, 
        0.0973079726099968, 
        0.13488849997520447, 
        0.016174236312508583, 
        0.6126173734664917, 
        0.5797824859619141, 
        0.3625127375125885, 
        0.022527450695633888, 
        0.09361176192760468, 
        -0.05286477506160736, 
        0.09757427871227264, 
        0.17906852066516876, 
        -0.045140959322452545, 
        0.03259916603565216, 
        -0.14720262587070465, 
        -0.3755153715610504, 
        -0.38879290223121643, 
        0.16662949323654175, 
        0.12287478148937225, 
        -0.11859406530857086, 
        0.22514255344867706, 
        -0.05499599501490593, 
        -0.2629221975803375, 
        -0.18359147012233734, 
        0.15611417591571808, 
        0.1729544699192047, 
        0.05773548036813736, 
        0.03931238874793053, 
        0.01257267501205206, 
        0.7208468317985535, 
        0.1130838394165039, 
        0.02239999920129776, 
        -0.04448865354061127, 
        0.005449522752314806, 
        0.002787940204143524, 
        -0.022415783256292343, 
        0.05106544494628906, 
        -0.024061108008027077, 
        -0.0066179512068629265, 
        -0.017123321071267128, 
        -0.07203572988510132, 
        -0.015857050195336342, 
        -0.11521914601325989, 
        0.027617868036031723, 
        -0.07493818551301956, 
        -0.11898373067378998, 
        -0.021349318325519562, 
        -0.03162612393498421, 
        0.006367181893438101, 
        -0.14168858528137207, 
        -0.09201142936944962, 
        0.0418158657848835, 
        -0.017867114394903183, 
        -0.052231308072805405, 
        -0.15230736136436462, 
        -0.09997759759426117, 
        -0.09604181349277496, 
        -0.03542469069361687, 
        0.014327717944979668, 
        0.03119814582169056, 
        0.028902564197778702, 
        0.01861921325325966, 
        0.047237690538167953, 
        -0.05567922443151474, 
        -0.06733033061027527, 
        -0.15765655040740967, 
        -0.13728907704353333, 
        -0.01047291699796915, 
        -0.10128628462553024, 
        -0.03495985269546509, 
        -0.17101135849952698, 
        -0.05409993603825569, 
        -0.044919855892658234, 
        -0.09594430029392242, 
        -0.009570584632456303, 
        0.03810235857963562, 
        0.025036491453647614, 
        0.0836300402879715, 
        -0.030940042808651924, 
        -0.13313114643096924, 
        -0.0655139908194542, 
        0.19011306762695312, 
        0.15035037696361542, 
        -0.0035705803893506527, 
        0.008397076278924942, 
        -0.06507128477096558, 
        0.08881829679012299, 
        0.18677428364753723, 
        -0.010647625662386417, 
        -0.10370543599128723, 
        0.5369797348976135, 
        0.010271378792822361, 
        0.6599927544593811, 
        0.0030809794552624226, 
        -0.031261373311281204, 
        0.37203526496887207, 
        -0.007645226549357176, 
        -0.000868486356921494, 
        -0.023063914850354195, 
        0.643216073513031, 
        0.20488938689231873, 
        0.12897326052188873, 
        0.004220562521368265, 
        0.017587833106517792, 
        0.49436816573143005, 
        0.5859330892562866, 
        0.40496569871902466, 
        0.04719253256917, 
        0.000503530609421432, 
        0.011308453045785427, 
        -0.02858106605708599, 
        -0.012237869203090668, 
        -0.14872822165489197, 
        -0.09343534708023071, 
        -0.05841979384422302, 
        -0.04883608594536781, 
        -0.05268094688653946, 
        0.23420530557632446, 
        0.029361216351389885, 
        -0.2774040997028351, 
        0.23420867323875427, 
        -0.13172723352909088, 
        -0.1873273402452469, 
        -0.16506947576999664, 
        0.1110008955001831, 
        0.13726872205734253, 
        0.024117272347211838, 
        0.02660944312810898, 
        -0.02800111472606659, 
        0.8662047386169434, 
        0.2728220522403717, 
        0.16786806285381317, 
        0.11430617421865463, 
        -4.746199192595668e-05, 
        0.0032972763292491436, 
        -0.08694599568843842, 
        -0.03894013911485672, 
        0.16070304811000824, 
        -0.057014718651771545, 
        0.021759044378995895, 
        0.21973375976085663, 
        0.020860448479652405, 
        0.20287266373634338, 
        -0.005460534244775772, 
        -0.11495177447795868, 
        -0.11977430433034897, 
        0.10918588936328888, 
        -0.061916280537843704, 
        -0.033924221992492676, 
        0.2710789442062378, 
        0.038116659969091415, 
        0.041846826672554016, 
        0.010443237610161304, 
        0.009405147284269333, 
        0.35970911383628845, 
        0.42083388566970825, 
        0.2858313322067261, 
        -0.0062919617630541325, 
        0.08043104410171509, 
        0.02437821589410305, 
        0.04236263409256935, 
        0.0977170467376709, 
        0.031361814588308334, 
        -0.03269239515066147, 
        -0.10108170658349991, 
        -0.3201286494731903, 
        -0.3992813527584076, 
        0.09704336524009705, 
        -0.0011750711128115654, 
        -0.13157860934734344, 
        0.08491329103708267, 
        -0.0814724788069725, 
        -0.2678948938846588, 
        -0.2535801827907562, 
        0.06968341767787933, 
        0.12294697016477585, 
        0.015907002612948418, 
        -0.012319701723754406, 
        0.020278220996260643, 
        0.44287553429603577, 
        0.1642269641160965, 
        -0.014504499733448029, 
        -0.025808481499552727, 
        -0.003879768308252096, 
        -0.004000334534794092, 
        0.0008147021289914846, 
        0.07142718136310577, 
        0.02974115125834942, 
        0.02090902253985405, 
        -0.02071523666381836, 
        -0.0286384429782629, 
        -0.04850275069475174, 
        -0.013962402008473873, 
        -0.004210557322949171, 
        -0.07798575609922409, 
        0.0189631637185812, 
        -0.06981924921274185, 
        -0.020174041390419006, 
        0.037050869315862656, 
        -0.05363837629556656, 
        -0.01969209872186184, 
        0.04982621222734451, 
        0.012536732479929924, 
        -0.007565027568489313, 
        -0.04964977502822876, 
        -0.05042119696736336, 
        -0.04360784590244293, 
        0.03116382472217083, 
        0.041972219944000244, 
        -0.005459920968860388, 
        0.10943584144115448, 
        0.05299771949648857, 
        0.042033400386571884, 
        -0.10471193492412567, 
        -0.17447789013385773, 
        -0.11580140143632889, 
        -0.06742280721664429, 
        -0.025263849645853043, 
        -0.034552399069070816, 
        -0.008404918015003204, 
        -0.1000681072473526, 
        -0.0803469568490982, 
        -0.14317922294139862, 
        -0.13665246963500977, 
        -0.0004462531069293618, 
        -0.02053646929562092, 
        -0.011205194517970085, 
        0.04429228603839874, 
        -0.007055537775158882, 
        -0.016094917431473732, 
        -0.034288663417100906, 
        0.19323639571666718, 
        0.13469235599040985, 
        0.000995414680801332, 
        0.011247985064983368, 
        0.0711374282836914, 
        -0.04162156209349632, 
        0.1461457908153534, 
        0.017918074503540993, 
        0.01720147393643856, 
        0.28818434476852417, 
        -0.0026468057185411453, 
        0.33828413486480713, 
        0.028222547844052315, 
        -0.005465296562761068, 
        -0.04235618934035301, 
        -0.04499828815460205, 
        0.013341336511075497, 
        -0.01706370897591114, 
        0.28296351432800293, 
        -0.03125752508640289, 
        0.0675245150923729, 
        0.11553754657506943, 
        -0.044469673186540604, 
        0.634610652923584, 
        0.5764967203140259, 
        0.26991957426071167, 
        0.04805648699402809, 
        0.07878950238227844, 
        0.015246482565999031, 
        0.20122922956943512, 
        0.2771266996860504, 
        -0.013173751533031464, 
        -0.05420784279704094, 
        -0.1467416137456894, 
        -0.5232495069503784, 
        -0.5114084482192993, 
        0.19340135157108307, 
        0.2735753059387207, 
        0.0026550053153187037, 
        0.2863761782646179, 
        -0.004322551656514406, 
        -0.3382560610771179, 
        -0.2724636197090149, 
        0.13714396953582764, 
        0.12580879032611847, 
        0.006362817250192165, 
        0.044818900525569916, 
        0.004474582150578499, 
        0.5221590995788574, 
        0.17240723967552185, 
        -0.0013191842008382082, 
        -0.04089999198913574, 
        0.09189128130674362, 
        0.03810887411236763, 
        -0.008177890442311764, 
        -0.09150905162096024, 
        0.0015717390924692154, 
        0.005677621811628342, 
        -0.06016538292169571, 
        -0.1290881633758545, 
        0.055798888206481934, 
        -0.1554659754037857, 
        -0.04058479145169258, 
        0.041556160897016525, 
        -0.05654415115714073, 
        -0.02616579458117485, 
        0.018321366980671883, 
        -0.10012202709913254, 
        -0.16479970514774323, 
        -0.04397803544998169, 
        0.009043002501130104, 
        0.008209430612623692, 
        0.017250308766961098, 
        -0.3450123965740204, 
        -0.26124051213264465, 
        -0.09573731571435928, 
        0.03208748623728752, 
        -0.004359389189630747, 
        0.026438869535923004, 
        -0.11098742485046387, 
        -0.26241040229797363, 
        0.14259643852710724, 
        0.031203746795654297, 
        0.007418536115437746, 
        -0.12382928282022476, 
        -0.11739983409643173, 
        0.008890075609087944, 
        -0.18821310997009277, 
        0.00681636156514287, 
        -0.3396320343017578, 
        0.014715617522597313, 
        -0.06590194255113602, 
        -0.01436644233763218, 
        -0.005302464123815298, 
        -0.03044578805565834, 
        -0.001951116370037198, 
        0.05464394390583038, 
        0.0006185355596244335, 
        -0.10490615665912628, 
        -0.0375974178314209, 
        -0.010746576823294163, 
        -0.0008779156487435102, 
        -0.03664436936378479, 
        -0.06600961834192276, 
        0.0008824978722259402, 
        -0.07283784449100494, 
        0.03376200422644615, 
        0.017431162297725677, 
        0.0027263048104941845, 
        -0.09930051118135452, 
        -0.023266492411494255, 
        -0.05141965672373772, 
        0.03476487472653389, 
        -0.05591272935271263, 
        0.07094012200832367, 
        -0.04225609824061394, 
        0.0016709966585040092, 
        -0.042637456208467484, 
        -0.08941588550806046, 
        -0.05357762798666954, 
        -0.033549726009368896, 
        0.03424684330821037, 
        -0.03581581637263298, 
        -0.30421170592308044, 
        -0.2112569808959961, 
        -0.10294121503829956, 
        0.024403085932135582, 
        -0.0056556593626737595, 
        0.022792208939790726, 
        -0.17754337191581726, 
        -0.07825130224227905, 
        -0.05575749650597572, 
        -0.023265130817890167, 
        -0.049520354717969894, 
        -0.032551009207963943, 
        -0.011152333579957485, 
        0.00859117042273283, 
        -0.18389585614204407, 
        0.01676892302930355, 
        -0.24598541855812073, 
        -0.08038464188575745, 
        0.015426167286932468, 
        -0.013132847845554352, 
        -0.031579382717609406, 
        -0.03136070445179939, 
        0.03680165857076645, 
        0.0843210369348526, 
        0.019223786890506744, 
        -0.11029458045959473, 
        -0.010999011807143688, 
        0.018781909719109535, 
        0.025101805105805397, 
        -0.005223255138844252, 
        0.002492777071893215, 
        0.018869534134864807, 
        -0.0396181121468544, 
        -0.04378616437315941, 
        -0.05430300161242485, 
        -0.03991396725177765, 
        -0.08759661763906479, 
        0.0361776240170002, 
        -0.1608700156211853, 
        0.027927687391638756, 
        -0.0204095970839262, 
        0.0032242191955447197, 
        0.07232242077589035, 
        0.002369575435295701, 
        -0.10335054993629456, 
        -0.23288176953792572, 
        0.008062891662120819, 
        0.019941212609410286, 
        0.04124918207526207, 
        -0.04577319696545601, 
        -0.5081695914268494, 
        -0.5216889381408691, 
        -0.19566576182842255, 
        0.02445095032453537, 
        0.08038933575153351, 
        0.016719795763492584, 
        -0.24414391815662384, 
        -0.25744712352752686, 
        -0.06542308628559113, 
        0.06037784367799759, 
        0.057946305721998215, 
        -0.051445093005895615, 
        -0.1036682203412056, 
        -0.04402341693639755, 
        -0.27082252502441406, 
        0.05719151347875595, 
        -0.42137008905410767, 
        0.033127717673778534, 
        0.04051351174712181, 
        0.036430723965168, 
        0.06552503257989883, 
        0.04849047586321831, 
        0.06608203798532486, 
        0.034138504415750504, 
        0.06074804812669754, 
        -0.2693950831890106, 
        0.05782511085271835, 
        0.052260685712099075, 
        0.04330595210194588, 
        -0.00673276511952281, 
        0.04659334570169449, 
        -0.12097997218370438, 
        -0.004169632215052843, 
        0.09843766689300537, 
        0.0005340584903024137, 
        0.036276575177907944, 
        0.14467281103134155, 
        0.044913094490766525, 
        0.050745509564876556, 
        -0.004481710959225893, 
        -0.0191404577344656, 
        0.12985150516033173, 
        0.04890761896967888, 
        -0.0006981948972679675, 
        -0.022046836093068123, 
        0.1315993368625641, 
        -0.048348568379879, 
        -0.0280877947807312, 
        -0.09200696647167206, 
        0.012391156516969204, 
        0.31523528695106506, 
        0.20363381505012512, 
        0.13244548439979553, 
        -0.06306324899196625, 
        -0.008336670696735382, 
        0.020801831036806107, 
        0.08803144097328186, 
        0.18552915751934052, 
        -0.1105644628405571, 
        0.01198690477758646, 
        -0.07946833223104477, 
        -0.21553882956504822, 
        -0.2959621846675873, 
        0.08910466730594635, 
        0.10909459739923477, 
        -0.014181911945343018, 
        0.22505362331867218, 
        -0.058170121163129807, 
        -0.16943110525608063, 
        -0.16684959828853607, 
        0.04185730963945389, 
        0.009536568075418472, 
        -0.030808109790086746, 
        -0.06104937940835953, 
        0.013029839843511581, 
        0.1769237369298935, 
        0.09107664227485657, 
        0.22961163520812988, 
        0.20188245177268982, 
        -0.03895924985408783, 
        0.02298578992486, 
        -0.0694904699921608, 
        0.06092089042067528, 
        0.2506732940673828, 
        0.011877133511006832, 
        -0.00030363796395249665, 
        0.2868990898132324, 
        -0.008594132028520107, 
        0.3437908887863159, 
        0.0032091611064970493, 
        -0.07488629221916199, 
        -0.07585839182138443, 
        -0.10064947605133057, 
        0.030608687549829483, 
        0.05241738259792328, 
        0.3238074779510498, 
        0.044597070664167404, 
        0.13026656210422516, 
        0.06398031860589981, 
        0.04896976053714752, 
        0.5589965581893921, 
        0.5478509068489075, 
        0.3832158148288727, 
        0.1436999887228012, 
        0.09455271810293198, 
        0.021939709782600403, 
        0.08642427623271942, 
        0.082244873046875, 
        -0.11888664960861206, 
        0.12441655248403549, 
        -0.008189999498426914, 
        -0.5785810947418213, 
        -0.5113050937652588, 
        0.2571598291397095, 
        0.037261202931404114, 
        -0.21406038105487823, 
        0.1920015513896942, 
        -0.08966930210590363, 
        -0.22139392793178558, 
        -0.14369462430477142, 
        0.14677254855632782, 
        0.1790257841348648, 
        0.048083674162626266, 
        0.12716935575008392, 
        -0.0006771754706278443, 
        0.6064215898513794, 
        0.1129947230219841, 
        -0.01726430095732212, 
        0.016845805570483208, 
        0.02129308506846428, 
        -0.03740948438644409, 
        0.04085070639848709, 
        0.006675354670733213, 
        0.0028324048034846783, 
        0.012143523432314396, 
        0.006496891379356384, 
        0.03657062351703644, 
        -0.025817226618528366, 
        0.03419062867760658, 
        0.0006283994880504906, 
        -0.012263883836567402, 
        0.07337377220392227, 
        0.04794136434793472, 
        -0.0014046232681721449, 
        0.004967519547790289, 
        0.07059860974550247, 
        -0.021173866465687752, 
        0.05200706049799919, 
        -0.03420056402683258, 
        -0.01795104891061783, 
        0.10841061919927597, 
        0.13646987080574036, 
        0.0499219074845314, 
        0.0426332987844944, 
        0.04415396973490715, 
        0.0335707888007164, 
        0.1131318062543869, 
        0.23480506241321564, 
        -0.031564753502607346, 
        -0.08421830087900162, 
        -0.06804733723402023, 
        -0.053116243332624435, 
        -0.09530782699584961, 
        -0.0038735889829695225, 
        0.03756161779165268, 
        -0.006146961823105812, 
        -0.006172651890665293, 
        -0.07850240916013718, 
        -0.10029791295528412, 
        -0.17253205180168152, 
        0.04302128031849861, 
        0.0049761938862502575, 
        -0.03855482116341591, 
        -0.04398206248879433, 
        0.02960573323071003, 
        0.06045949086546898, 
        0.03317205235362053, 
        -0.02554227039217949, 
        0.025152862071990967, 
        0.013625376857817173, 
        0.005061400588601828, 
        -0.05094264820218086, 
        -0.036647502332925797, 
        0.047312330454587936, 
        -0.026348186656832695, 
        -0.026366323232650757, 
        -0.04448487237095833, 
        0.0038116504438221455, 
        0.011110367253422737, 
        -0.04543040692806244, 
        -0.054824311286211014, 
        -0.024251872673630714, 
        -0.002968286396935582, 
        -0.008828723803162575, 
        -0.07229015231132507, 
        -0.043682556599378586, 
        -0.04417052119970322, 
        0.024466684088110924, 
        0.00479360856115818, 
        0.03571707755327225, 
        0.0031431419774889946, 
        -0.012711740098893642, 
        0.006362816318869591, 
        0.03715332970023155, 
        0.025262078270316124, 
        0.026540976017713547, 
        0.05145907774567604, 
        0.031507834792137146, 
        -0.035351257771253586, 
        -0.10363297909498215, 
        -0.02870715968310833, 
        -0.06747447699308395, 
        -0.08946528285741806, 
        0.03028154745697975, 
        -0.06326562911272049, 
        -0.00641222670674324, 
        -0.07456991076469421, 
        -0.0625421479344368, 
        -0.13090915977954865, 
        -0.08354973047971725, 
        -0.025669319555163383, 
        0.040603477507829666, 
        0.054872896522283554, 
        -0.021938610821962357, 
        0.03273886442184448, 
        0.026805870234966278, 
        0.023732561618089676, 
        0.020349804311990738, 
        0.043134793639183044, 
        0.03806737810373306, 
        -0.032409895211458206, 
        0.017361721023917198, 
        -0.017117375507950783, 
        -0.0431542843580246, 
        -0.046757668256759644, 
        0.024493519216775894, 
        -0.008747984655201435, 
        -0.04950579255819321, 
        0.04709573835134506, 
        -0.023903822526335716, 
        -0.038842275738716125, 
        0.042943257838487625, 
        0.0028468219097703695, 
        0.02055612951517105, 
        -0.03337135910987854, 
        -0.03261825069785118, 
        -0.019840212538838387, 
        -0.04189034551382065, 
        0.041915588080883026, 
        -0.024262521415948868, 
        -0.04621865600347519, 
        -0.023517746478319168, 
        -0.047335777431726456, 
        0.04256896302103996, 
        0.044842738658189774, 
        0.012978293932974339, 
        -0.017359523102641106, 
        -0.009431539103388786, 
        0.039631009101867676, 
        0.0060704848729074, 
        -0.04615823179483414, 
        -0.013295670971274376, 
        -0.048004310578107834, 
        0.04722970724105835, 
        0.030680643394589424, 
        0.007020497228950262, 
        0.031258828938007355, 
        -0.012670879252254963, 
        0.02521977573633194, 
        -0.010948561131954193, 
        -0.01476765051484108, 
        -0.0014534520450979471, 
        -0.043227147310972214, 
        -0.044177573174238205, 
        -0.004504239186644554, 
        0.03342340886592865, 
        0.03381245955824852, 
        0.194877490401268, 
        0.2426600158214569, 
        -0.004831007216125727, 
        0.0015420416602864861, 
        -0.03634333238005638, 
        -0.1271989792585373, 
        0.18799753487110138, 
        -0.0034907220397144556, 
        0.09936700016260147, 
        0.17486423254013062, 
        -0.1631486564874649, 
        0.2569066286087036, 
        -0.04236666485667229, 
        0.01661311276257038, 
        -0.07243702560663223, 
        0.07959949970245361, 
        -0.006191694177687168, 
        0.04607041925191879, 
        0.13991141319274902, 
        -0.07687044143676758, 
        0.08827513456344604, 
        0.13646575808525085, 
        0.03257253021001816, 
        0.543196439743042, 
        0.463510662317276, 
        0.2964365482330322, 
        0.12000638991594315, 
        0.1608261615037918, 
        -0.011937345378100872, 
        0.044923413544893265, 
        0.14832578599452972, 
        -0.08587386459112167, 
        0.07401888817548752, 
        0.011197341606020927, 
        -0.4325264096260071, 
        -0.43362149596214294, 
        0.17189279198646545, 
        0.15965089201927185, 
        0.0164606012403965, 
        0.1571674942970276, 
        -0.01823224313557148, 
        -0.16823071241378784, 
        -0.09581287950277328, 
        0.16812404990196228, 
        0.1912304311990738, 
        0.041580650955438614, 
        0.11003711819648743, 
        -0.013571394607424736, 
        0.4450817108154297, 
        -0.19557151198387146, 
        0.21044105291366577, 
        0.16588710248470306, 
        -0.015151526778936386, 
        0.03487570211291313, 
        -0.16616787016391754, 
        0.062284380197525024, 
        0.19899676740169525, 
        0.03369973972439766, 
        0.04233483597636223, 
        0.23956669867038727, 
        0.04623657837510109, 
        0.259234219789505, 
        0.03661813214421272, 
        -0.004693940281867981, 
        0.13451209664344788, 
        -0.003382937517017126, 
        -0.0029940030071884394, 
        -0.02929106540977955, 
        0.3565533459186554, 
        0.13144253194332123, 
        0.029457077383995056, 
        0.1133611798286438, 
        -0.013826263137161732, 
        0.680904746055603, 
        0.5631452798843384, 
        0.3242129683494568, 
        -0.014879058115184307, 
        0.12168271094560623, 
        -0.006570387631654739, 
        0.22876907885074615, 
        0.3670984208583832, 
        -0.1259467452764511, 
        -0.06412553787231445, 
        -0.1774173229932785, 
        -0.4606398344039917, 
        -0.544729471206665, 
        0.23833975195884705, 
        0.11621750891208649, 
        -0.05926090478897095, 
        0.30615442991256714, 
        0.034771665930747986, 
        -0.3423527479171753, 
        -0.3191853165626526, 
        0.17722918093204498, 
        0.19088023900985718, 
        0.020870434120297432, 
        0.024736100807785988, 
        0.0005701869376935065, 
        0.47742003202438354, 
        0.18668976426124573, 
        0.20264945924282074, 
        0.1098364070057869, 
        0.037585850805044174, 
        0.01834174059331417, 
        -0.08193045854568481, 
