{
  "defaults": {}, 
  "inputs": [
    {
      "name": "variable_name0", 
      "offset": "0", 
      "scale": "1"
    }, 
    {
      "name": "variable_name1", 
      "offset": "0", 
      "scale": "1"
    }, 
    {
      "name": "variable_name2", 
      "offset": "0", 
      "scale": "1"
    }, 
    {
      "name": "variable_name3", 
      "offset": "0", 
      "scale": "1"
    }, 
    {
      "name": "variable_name4", 
      "offset": "0", 
      "scale": "1"
    }, 
    {
      "name": "variable_name5", 
      "offset": "0", 
      "scale": "1"
    }, 
    {
      "name": "variable_name6", 
      "offset": "0", 
      "scale": "1"
    }, 
    {
      "name": "variable_name7", 
      "offset": "0", 
      "scale": "1"
    }, 
    {
      "name": "variable_name8", 
      "offset": "0", 
      "scale": "1"
    }, 
    {
      "name": "variable_name9", 
      "offset": "0", 
      "scale": "1"
    }, 
    {
      "name": "variable_name10", 
      "offset": "0", 
      "scale": "1"
    }, 
    {
      "name": "variable_name11", 
      "offset": "0", 
      "scale": "1"
    }, 
    {
      "name": "variable_name12", 
      "offset": "0", 
      "scale": "1"
    }, 
    {
      "name": "variable_name13", 
      "offset": "0", 
      "scale": "1"
    }, 
    {
      "name": "variable_name14", 
      "offset": "0", 
      "scale": "1"
    }, 
    {
      "name": "variable_name15", 
      "offset": "0", 
      "scale": "1"
    }, 
    {
      "name": "variable_name16", 
      "offset": "0", 
      "scale": "1"
    }, 
    {
      "name": "variable_name17", 
      "offset": "0", 
      "scale": "1"
    }, 
    {
      "name": "variable_name18", 
      "offset": "0", 
      "scale": "1"
    }, 
    {
      "name": "variable_name19", 
      "offset": "0", 
      "scale": "1"
    }, 
    {
      "name": "variable_name20", 
      "offset": "0", 
      "scale": "1"
    }, 
    {
      "name": "variable_name21", 
      "offset": "0", 
      "scale": "1"
    }, 
    {
      "name": "variable_name22", 
      "offset": "0", 
      "scale": "1"
    }, 
    {
      "name": "variable_name23", 
      "offset": "0", 
      "scale": "1"
    }, 
    {
      "name": "variable_name24", 
      "offset": "0", 
      "scale": "1"
    }, 
    {
      "name": "variable_name25", 
      "offset": "0", 
      "scale": "1"
    }, 
    {
      "name": "variable_name26", 
      "offset": "0", 
      "scale": "1"
    }, 
    {
      "name": "variable_name27", 
      "offset": "0", 
      "scale": "1"
    }, 
    {
      "name": "variable_name28", 
      "offset": "0", 
      "scale": "1"
    }, 
    {
      "name": "variable_name29", 
      "offset": "0", 
      "scale": "1"
    }, 
    {
      "name": "variable_name30", 
      "offset": "0", 
      "scale": "1"
    }, 
    {
      "name": "variable_name31", 
      "offset": "0", 
      "scale": "1"
    }, 
    {
      "name": "variable_name32", 
      "offset": "0", 
      "scale": "1"
    }, 
    {
      "name": "variable_name33", 
      "offset": "0", 
      "scale": "1"
    }, 
    {
      "name": "variable_name34", 
      "offset": "0", 
      "scale": "1"
    }, 
    {
      "name": "variable_name35", 
      "offset": "0", 
      "scale": "1"
    }, 
    {
      "name": "variable_name36", 
      "offset": "0", 
      "scale": "1"
    }, 
    {
      "name": "variable_name37", 
      "offset": "0", 
      "scale": "1"
    }, 
    {
      "name": "variable_name38", 
      "offset": "0", 
      "scale": "1"
    }, 
    {
      "name": "variable_name39", 
      "offset": "0", 
      "scale": "1"
    }, 
    {
      "name": "variable_name40", 
      "offset": "0", 
      "scale": "1"
    }, 
    {
      "name": "variable_name41", 
      "offset": "0", 
      "scale": "1"
    }, 
    {
      "name": "variable_name42", 
      "offset": "0", 
      "scale": "1"
    }, 
    {
      "name": "variable_name43", 
      "offset": "0", 
      "scale": "1"
    }, 
    {
      "name": "variable_name44", 
      "offset": "0", 
      "scale": "1"
    }, 
    {
      "name": "variable_name45", 
      "offset": "0", 
      "scale": "1"
    }, 
    {
      "name": "variable_name46", 
      "offset": "0", 
      "scale": "1"
    }, 
    {
      "name": "variable_name47", 
      "offset": "0", 
      "scale": "1"
    }, 
    {
      "name": "variable_name48", 
      "offset": "0", 
      "scale": "1"
    }, 
    {
      "name": "variable_name49", 
      "offset": "0", 
      "scale": "1"
    }
  ], 
  "layers": [
    {
      "activation": "rectified", 
      "architecture": "dense", 
      "bias": [
        0.07193542271852493, 
        0.12909162044525146, 
        0.11416514962911606, 
        -0.0737653598189354, 
        -0.07693379372358322, 
        -0.05963258817791939, 
        0.05384565517306328, 
        0.1157006025314331, 
        -0.06652147322893143, 
        -0.050669655203819275, 
        -0.05269050598144531, 
        0.12952686846256256, 
        -0.060328830033540726, 
        -0.05059016868472099, 
        0.07329369336366653, 
        0.07844047248363495, 
        -0.06571280211210251, 
        -0.05067753419280052, 
        -0.08275067806243896, 
        -0.06958802789449692, 
        -0.07255576550960541, 
        0.05628500506281853, 
        0.1469353437423706, 
        -0.0741269513964653, 
        -0.03851417824625969, 
        -0.06902091205120087, 
        -0.07012979686260223, 
        0.14366796612739563, 
        0.08911566436290741, 
        0.1280161589384079, 
        -0.0468473844230175, 
        0.07500887662172318, 
        -0.05792000889778137, 
        0.2553715109825134, 
        0.11130484193563461, 
        -0.05708003789186478, 
        -0.08039959520101547, 
        0.07254379242658615, 
        -0.04655519127845764, 
        0.06313291192054749, 
        0.09651318937540054, 
        -0.0687650516629219, 
        0.04013906791806221, 
        0.05893729627132416, 
        0.11321687698364258, 
        0.03375779837369919, 
        0.09902051091194153, 
        0.11514374613761902, 
        0.07685676962137222, 
        -0.05386055260896683, 
        -0.06460398435592651, 
        -0.0820862278342247, 
        -0.07227782905101776, 
        -0.06314612925052643, 
        0.11252324283123016, 
        0.07086355239152908, 
        0.1317361444234848, 
        0.11379199475049973, 
        -0.04894334077835083, 
        0.1066446378827095, 
        0.0676877424120903, 
        0.11613903939723969, 
        -0.05225038900971413, 
        -0.0649632140994072, 
        -0.0818372368812561, 
        0.08413421362638474, 
        0.12112681567668915, 
        0.12448238581418991, 
        -0.010262169875204563, 
        0.037593428045511246, 
        0.07827096432447433, 
        -0.05348506197333336, 
        0.20735402405261993, 
        -0.08008632063865662, 
        0.13992834091186523, 
        -0.04165602847933769, 
        -0.050654105842113495, 
        0.08987237513065338, 
        0.06057383120059967, 
        -0.0552520714700222, 
        0.16205716133117676, 
        -0.07226258516311646, 
        0.12146880477666855, 
        0.1097104623913765, 
        -0.11349417269229889, 
        0.1870451122522354, 
        -0.06347665935754776, 
        0.0525854118168354, 
        0.0057801962830126286, 
        -0.07241714745759964, 
        -0.07731520384550095, 
        0.051310937851667404, 
        0.07810214906930923, 
        0.04793563485145569, 
        -0.05248377472162247, 
        0.09118014574050903, 
        -0.06740201264619827, 
        0.061781495809555054, 
        0.10975322127342224, 
        0.1179405003786087
      ], 
      "weights": [
        0.025049015879631042, 
        0.02512536011636257, 
        0.012439623475074768, 
        0.022077225148677826, 
        0.05771390721201897, 
        0.09238918870687485, 
        0.10011587291955948, 
        -0.05207144841551781, 
        -0.03891570866107941, 
        0.1207084059715271, 
        -0.033971820026636124, 
        0.14345335960388184, 
        0.0255770031362772, 
        0.0352151095867157, 
        -0.04624811187386513, 
        -0.02704036235809326, 
        -0.0264878012239933, 
        0.005118783563375473, 
        0.0857064351439476, 
        0.029635129496455193, 
        0.014785178937017918, 
        -0.015237477608025074, 
        -0.051346685737371445, 
        0.36532244086265564, 
        0.3244790732860565, 
        0.20251648128032684, 
        -0.0006749525782652199, 
        -0.00011861478560604155, 
        0.0346931591629982, 
        -0.04815617948770523, 
        -0.036647066473960876, 
        -0.08717266470193863, 
        -0.0894983634352684, 
        -0.07973964512348175, 
        -0.263345867395401, 
        -0.2974764108657837, 
        0.057106368243694305, 
        0.025101415812969208, 
        0.01593414694070816, 
        0.08490433543920517, 
        0.07538308203220367, 
        -0.24689221382141113, 
        -0.17959584295749664, 
        0.048598065972328186, 
        0.018076809123158455, 
        0.0049340734258294106, 
        -0.0405401773750782, 
        0.029252491891384125, 
        0.2509857416152954, 
        0.0643596202135086, 
        0.15420281887054443, 
        0.1134771853685379, 
        -0.07016675174236298, 
        -0.07037404924631119, 
        -0.3743412494659424, 
        -0.06112642213702202, 
        0.09987346827983856, 
        0.011911941692233086, 
        -0.014792243018746376, 
        -0.050430573523044586, 
        -0.12769576907157898, 
        0.004828534554690123, 
        -0.06809601932764053, 
        -0.005630639381706715, 
        -0.49723923206329346, 
        -0.007955798879265785, 
        -0.011047586798667908, 
        0.03807883337140083, 
        -0.00524706207215786, 
        -0.033606939017772675, 
        0.16365253925323486, 
        0.034416768699884415, 
        -0.005905681289732456, 
        0.4321046769618988, 
        0.4249366223812103, 
        0.1325109750032425, 
        0.16343818604946136, 
        0.022931694984436035, 
        0.005160808563232422, 
        0.36181512475013733, 
        0.16719867289066315, 
        0.1664089858531952, 
        0.11194298416376114, 
        0.07998238503932953, 
        -0.05833768472075462, 
        -0.026913652196526527, 
        0.15850785374641418, 
        0.08441968262195587, 
        -0.0028455290012061596, 
        0.09039270877838135, 
        -0.010107932612299919, 
        -0.0805983915925026, 
        -0.04832959547638893, 
        0.10366672277450562, 
        0.09686897695064545, 
        0.07143542170524597, 
        0.08714570105075836, 
        0.011786721646785736, 
        0.2413320243358612, 
        -0.10997913032770157, 
        0.10183078050613403, 
        0.14053604006767273, 
        0.013979368843138218, 
        -0.04344690218567848, 
        0.01565811038017273, 
        0.014434716664254665, 
        0.11130405217409134, 
        -0.042530182749032974, 
        0.01660051755607128, 
        0.07323043793439865, 
        -0.1535525768995285, 
        0.06321776658296585, 
        -0.112740658223629, 
        -0.018219534307718277, 
        0.055121760815382004, 
        -0.03028850257396698, 
        -0.015968821942806244, 
        0.05397745221853256, 
        0.03134056180715561, 
        -0.07186807692050934, 
        0.09915107488632202, 
        0.058740533888339996, 
        -0.05357595160603523, 
        0.4284308850765228, 
        0.4498897194862366, 
        0.3755394518375397, 
        0.05532567575573921, 
        0.08798132836818695, 
        -0.01546504907310009, 
        0.17843925952911377, 
        0.14183060824871063, 
        0.06851380318403244, 
        0.06367581337690353, 
        -0.0030649842228740454, 
        -0.5550486445426941, 
        -0.5593857765197754, 
        0.08481420576572418, 
        0.1016966924071312, 
        -0.003949959296733141, 
        0.1367563158273697, 
        -0.02579505741596222, 
        -0.13427111506462097, 
        -0.15570464730262756, 
        0.079441137611866, 
        0.14639443159103394, 
        -0.010869508609175682, 
        0.03987443447113037, 
        -0.011864310130476952, 
        0.43805694580078125, 
        -0.16910411417484283, 
        -0.0539272278547287, 
        -0.08340432494878769, 
        0.045580219477415085, 
        0.049487750977277756, 
        -0.04228661209344864, 
        0.0225252453237772, 
        -0.07664113491773605, 
        -0.00013308488996699452, 
        0.021525263786315918, 
        -0.18525725603103638, 
        0.04246361926198006, 
        -0.25636202096939087, 
        0.032137181609869, 
        -0.009985459968447685, 
        0.0002875640639103949, 
        0.004633924923837185, 
        0.032910000532865524, 
        0.015350517816841602, 
        -0.2374221384525299, 
        -0.011059468612074852, 
        0.015523861162364483, 
        0.026090845465660095, 
        0.03234409540891647, 
        -0.7529120445251465, 
        -0.7408869862556458, 
        -0.2745908498764038, 
        0.009476125240325928, 
        -0.042116209864616394, 
        -0.02325180359184742, 
        -0.25023508071899414, 
        -0.40145981311798096, 
        -0.042922358959913254, 
        0.14261804521083832, 
        0.20037895441055298, 
        -0.08411181718111038, 
        -0.17288553714752197, 
        -0.08200254291296005, 
        -0.07606414705514908, 
        -0.014791155233979225, 
        -0.15773022174835205, 
        0.05699487030506134, 
        0.22133228182792664, 
        0.21435272693634033, 
        -0.08262144029140472, 
        -0.09948059916496277, 
        -0.03748046234250069, 
        0.02544322796165943, 
        0.054289162158966064, 
        -0.503290057182312, 
        -0.1245197132229805, 
        -0.02920783869922161, 
        -0.06686871498823166, 
        0.020237887278199196, 
        -0.02342393435537815, 
        0.031066128984093666, 
        -0.05478546768426895, 
        -0.04565843567252159, 
        0.005737253464758396, 
        0.05458429083228111, 
        -0.11542662978172302, 
        0.008069141767919064, 
        -0.15467968583106995, 
        0.013398557901382446, 
        0.0394732691347599, 
        -0.03084651380777359, 
        -0.011985684745013714, 
        -0.017365116626024246, 
        0.038187384605407715, 
        -0.21145488321781158, 
        -0.024036552757024765, 
        0.0028440402820706367, 
        -0.024726571515202522, 
        0.044841278344392776, 
        -0.6593904495239258, 
        -0.6206008791923523, 
        -0.23866282403469086, 
        -0.016855936497449875, 
        -0.00766715919598937, 
        -0.023517632856965065, 
        -0.20865771174430847, 
        -0.28503385186195374, 
        -0.039638493210077286, 
        0.03383314236998558, 
        0.12192770838737488, 
        0.10389341413974762, 
        0.1267233043909073, 
        -0.06021728366613388, 
        0.014172857627272606, 
        0.01883421465754509, 
        -0.04001466557383537, 
        0.061474546790122986, 
        0.17380568385124207, 
        0.18914273381233215, 
        -0.07189104706048965, 
        -0.08165243268013, 
        0.0120493583381176, 
        -0.010578429326415062, 
        0.04309847578406334, 
        -0.34662631154060364, 
        -0.03630371019244194, 
        -0.057602666318416595, 
        -0.037863124161958694, 
        0.004406441003084183, 
        0.02226952277123928, 
        -0.0045494139194488525, 
        0.0003511344257276505, 
        -0.09689798206090927, 
        0.05385192856192589, 
        -0.02234623022377491, 
        -0.11553111672401428, 
        -0.009323107078671455, 
        -0.17303113639354706, 
        -0.04204745218157768, 
        0.017181716859340668, 
        0.030467765405774117, 
        0.008348564617335796, 
        -0.015111342072486877, 
        0.014032939448952675, 
        -0.09056969732046127, 
        -0.02258988283574581, 
        -0.01615096628665924, 
        -0.03687558323144913, 
        0.02345581352710724, 
        -0.3605726659297943, 
        -0.3734652101993561, 
        -0.11875638365745544, 
        -0.03701498731970787, 
        0.030944008380174637, 
        -0.019879361614584923, 
        -0.04238806292414665, 
        -0.14949890971183777, 
        0.07526066154241562, 
        0.01417556218802929, 
        0.03292664512991905, 
        0.09028950333595276, 
        0.13847461342811584, 
        -0.08776512742042542, 
        -0.06229002773761749, 
        0.028676189482212067, 
        -0.12585404515266418, 
        -0.028928644955158234, 
        0.16186802089214325, 
        0.09073244780302048, 
        -0.0631302148103714, 
        -0.034235239028930664, 
        -0.0012834736844524741, 
        -0.01923416368663311, 
        0.002828640164807439, 
        -0.2903227210044861, 
        -0.07397805899381638, 
        0.053101420402526855, 
        0.08529262989759445, 
        0.0033970228396356106, 
        -0.03678281605243683, 
        0.07000471651554108, 
        0.0015140729956328869, 
        0.007973247207701206, 
        -0.020342815667390823, 
        0.05403926223516464, 
        0.08001609891653061, 
        -0.05910668894648552, 
        -0.0008019380620680749, 
        0.00980355218052864, 
        -0.004491127096116543, 
        -0.00977336335927248, 
        0.0098329558968544, 
        -0.057453639805316925, 
        -0.002939879195764661, 
        -0.005888005252927542, 
        -0.11101310700178146, 
        0.022578585892915726, 
        0.026689453050494194, 
        0.03505084291100502, 
        0.18954908847808838, 
        0.23916266858577728, 
        0.06641999632120132, 
        0.020789019763469696, 
        0.02599971368908882, 
        -0.04023633897304535, 
        -0.02277599833905697, 
        -0.12443117052316666, 
        -0.1510300487279892, 
        0.04524554684758186, 
        0.02145700342953205, 
        -0.26279380917549133, 
        -0.29841622710227966, 
        0.08924102783203125, 
        0.013203976675868034, 
        0.022140318527817726, 
        -0.012356366962194443, 
        0.058583855628967285, 
        -0.14231513440608978, 
        -0.19406113028526306, 
        0.02739112824201584, 
        0.08696006238460541, 
        0.012891598977148533, 
        -0.027426227927207947, 
        -0.009707638062536716, 
        0.12269113212823868, 
        -0.03025982342660427, 
        0.0731913298368454, 
        0.14222410321235657, 
        0.03966376930475235, 
        0.013744459487497807, 
        0.047866977751255035, 
        -0.005774999503046274, 
        0.11990782618522644, 
        -0.01596258021891117, 
        -0.0005005246493965387, 
        0.1454789787530899, 
        0.0006202615331858397, 
        0.10680468380451202, 
        -0.009848598390817642, 
        0.05076313763856888, 
        -0.08088736981153488, 
        -0.030743584036827087, 
        -0.012465886771678925, 
        -0.06485182791948318, 
        0.15898503363132477, 
        0.017283204942941666, 
        -0.004265526309609413, 
        0.020068833604454994, 
        0.012391136027872562, 
        0.605617880821228, 
        0.5838037133216858, 
        0.21252109110355377, 
        0.011266415007412434, 
        0.07134337723255157, 
        0.014839469455182552, 
        -0.024059489369392395, 
        0.060601238161325455, 
        -0.2285453975200653, 
        0.03164933621883392, 
        -0.03691329434514046, 
        -0.3853565454483032, 
        -0.3708745837211609, 
        0.16358475387096405, 
        0.06896921992301941, 
        0.02374197356402874, 
        0.10030198097229004, 
        0.008275472559034824, 
        -0.18437372148036957, 
        -0.21260099112987518, 
        0.07225891947746277, 
        0.14935140311717987, 
        0.032835058867931366, 
        0.0020268287044018507, 
        0.03174719586968422, 
        0.33641472458839417, 
        -0.03607156127691269, 
        -0.09196625649929047, 
        -0.11774177104234695, 
        0.03538498282432556, 
        0.06697764247655869, 
        -0.036811958998441696, 
        -0.028923753648996353, 
        -0.08580123633146286, 
        0.002549730474129319, 
        0.03437419980764389, 
        -0.156498521566391, 
        0.08158574998378754, 
        -0.1645520031452179, 
        0.01870412938296795, 
        -0.021060790866613388, 
        -0.03032171167433262, 
        -0.024456003680825233, 
        -0.027507804334163666, 
        0.04553850740194321, 
        -0.1303415298461914, 
        -0.00539413932710886, 
        -0.01803874783217907, 
        0.014464091509580612, 
        0.02429240383207798, 
        -0.6337491273880005, 
        -0.5428679585456848, 
        -0.20450563728809357, 
        0.004848461598157883, 
        -0.006275107618421316, 
        0.020046446472406387, 
        -0.08214282244443893, 
        -0.1695137619972229, 
        0.05257784575223923, 
        0.07488851994276047, 
        0.15526480972766876, 
        0.19645178318023682, 
        0.16911888122558594, 
        -0.09300089627504349, 
        -0.03082606941461563, 
        0.05863894894719124, 
        -0.09558043628931046, 
        0.04993287846446037, 
        0.17390674352645874, 
        0.2388666421175003, 
        0.012119414284825325, 
        -0.03964244946837425, 
        0.04920203611254692, 
        0.01252173725515604, 
        0.01722295768558979, 
        -0.3739030957221985, 
        -0.03916212171316147, 
        -0.05617924779653549, 
        -0.0627429261803627, 
        -0.023431522771716118, 
        -0.04005816578865051, 
        -0.010466465726494789, 
        0.02263256534934044, 
        -0.07588046789169312, 
        -0.03506823256611824, 
        -0.04226088896393776, 
        -0.13100193440914154, 
        -0.051801763474941254, 
        -0.17991499602794647, 
        -0.03583270311355591, 
        -0.01808730699121952, 
        0.03888358920812607, 
        0.04244505241513252, 
        0.051107779145240784, 
        0.047100771218538284, 
        -0.2216290533542633, 
        -0.15502630174160004, 
        -0.011751053854823112, 
        -0.05265267938375473, 
        -0.004765665158629417, 
        -0.3302660584449768, 
        -0.32706141471862793, 
        -0.09387654066085815, 
        -0.0643182173371315, 
        -0.003311417531222105, 
        -0.021331671625375748, 
        -0.2776872217655182, 
        -0.2502174973487854, 
        -0.12047949433326721, 
        0.12709636986255646, 
        0.15030309557914734, 
        -0.19475942850112915, 
        -0.2540093660354614, 
        -0.05621238425374031, 
        -0.05317414551973343, 
        0.03712144121527672, 
        -0.1266089230775833, 
        0.023699015378952026, 
        0.007511971052736044, 
        -0.00484341848641634, 
        -0.0005916954833082855, 
        -0.09251409024000168, 
        -0.0666012167930603, 
        -0.0023507443256676197, 
        -0.022123338654637337, 
        -0.2720838785171509, 
        -0.11235852539539337, 
        -0.041228245943784714, 
        -0.06144161894917488, 
        0.04832077771425247, 
        0.02805071882903576, 
        -0.014024660922586918, 
        -0.06954625248908997, 
        -0.033838510513305664, 
        -0.02453506924211979, 
        -0.030058816075325012, 
        -0.13186506927013397, 
        0.060051701962947845, 
        -0.19449454545974731, 
        0.04710150882601738, 
        0.055376067757606506, 
        -0.0359376035630703, 
        -0.021903743967413902, 
        0.012819145806133747, 
        -0.012327990494668484, 
        -0.1268472969532013, 
        -0.03233581781387329, 
        0.0536065511405468, 
        -0.033645302057266235, 
        0.03296816721558571, 
        -0.5701284408569336, 
        -0.5860823392868042, 
        -0.25802040100097656, 
        0.028709154576063156, 
        -0.032806310802698135, 
        -0.0034295814111828804, 
        -0.08559670299291611, 
        -0.2225732058286667, 
        0.04342487454414368, 
        0.03400329127907753, 
        0.07508252561092377, 
        0.12595175206661224, 
        0.18180808424949646, 
        -0.11009444296360016, 
        -0.06918256729841232, 
        0.016951948404312134, 
        -0.1321648359298706, 
        0.06542356312274933, 
        0.17776969075202942, 
        0.22840812802314758, 
        -0.0026250507216900587, 
        -0.04646850377321243, 
        0.025406695902347565, 
        0.030109833925962448, 
        0.006810398306697607, 
        -0.38802722096443176, 
        -0.039664093405008316, 
        0.15368163585662842, 
        0.08024447411298752, 
        0.04143298789858818, 
        0.046173859387636185, 
        0.07838887721300125, 
        -0.056101325899362564, 
        0.14490345120429993, 
        0.011956441216170788, 
        0.031975023448467255, 
        0.19231058657169342, 
        0.007291470188647509, 
        0.1500922590494156, 
        0.01833179220557213, 
        -0.0033865924924612045, 
        -0.13332049548625946, 
        -0.009306618012487888, 
        0.008545685559511185, 
        -0.04014008119702339, 
        0.16029362380504608, 
        0.07342761754989624, 
        0.031254444271326065, 
        0.06444389373064041, 
        0.0016917691100388765, 
        0.7051687240600586, 
        0.6624438762664795, 
        0.2189185470342636, 
        -0.01804720051586628, 
        0.07880428433418274, 
        -0.0106151532381773, 
        -0.07294580340385437, 
        0.03864585980772972, 
        -0.07564777135848999, 
        -0.05907876044511795, 
        -0.025306230410933495, 
        -0.3396892547607422, 
        -0.3506805896759033, 
        0.11796059459447861, 
        0.07819419354200363, 
        -0.04883285239338875, 
        0.16650938987731934, 
        0.05112370848655701, 
        -0.1642133891582489, 
        -0.24310247600078583, 
        0.08680577576160431, 
        0.15710626542568207, 
        0.01600857637822628, 
        0.06157631799578667, 
        0.016223061829805374, 
        0.37495487928390503, 
        0.11968906968832016, 
        -0.07648219913244247, 
        -0.05929597467184067, 
        -0.0017623677849769592, 
        0.06742552667856216, 
        0.020369915291666985, 
        -0.04017792269587517, 
        -0.10821329057216644, 
        -0.044277746230363846, 
        0.02885608747601509, 
        -0.10759158432483673, 
        0.0629340261220932, 
        -0.16857671737670898, 
        -0.03471769392490387, 
        0.022682752460241318, 
        -0.000706537626683712, 
        -0.009634059853851795, 
        0.04354920610785484, 
        0.023407233878970146, 
        -0.16512244939804077, 
        -0.0386078804731369, 
        -0.03613707423210144, 
        0.013546542264521122, 
        0.006131604313850403, 
        -0.6577984690666199, 
        -0.657085657119751, 
        -0.23689836263656616, 
        -0.035672493278980255, 
        0.024264948442578316, 
        0.03704562038183212, 
        -0.148530513048172, 
        -0.240613654255867, 
        0.0015637822216376662, 
        0.10820486396551132, 
        0.0758667141199112, 
        0.1498846709728241, 
        0.1689460724592209, 
        -0.057473354041576385, 
        -0.06552307307720184, 
        0.04594678804278374, 
        -0.11000726372003555, 
        0.043013088405132294, 
        0.2385617047548294, 
        0.2294282764196396, 
        -0.024078795686364174, 
        -0.06747915595769882, 
        0.042502932250499725, 
        0.07523875683546066, 
        0.0027421098202466965, 
        -0.31235238909721375, 
        -0.08511888235807419, 
        -0.09752413630485535, 
        -0.04271496459841728, 
        0.0015938525320962071, 
        0.07133675366640091, 
        0.011629722081124783, 
        0.006643950939178467, 
        -0.051770128309726715, 
        0.03555599972605705, 
        0.01048874668776989, 
        -0.11796903610229492, 
        0.034408967941999435, 
        -0.19328051805496216, 
        0.028731785714626312, 
        -0.01445559598505497, 
        -0.0015800839755684137, 
        0.011075831949710846, 
        -0.0021339510567486286, 
        0.029563939198851585, 
        -0.16540907323360443, 
        -0.019129345193505287, 
        0.05186368152499199, 
        -0.025825515389442444, 
        -0.014848570339381695, 
        -0.6144338846206665, 
        -0.6329647302627563, 
        -0.24204379320144653, 
        0.03064298816025257, 
        0.002312571043148637, 
        0.03482545167207718, 
        -0.12452707439661026, 
        -0.24729053676128387, 
        0.053304918110370636, 
        0.12714600563049316, 
        0.11123445630073547, 
        0.14001639187335968, 
        0.1838776022195816, 
        -0.09133777022361755, 
        -0.05972731485962868, 
        0.060447994619607925, 
        -0.06139674782752991, 
        -0.027525492012500763, 
        0.22098776698112488, 
        0.25947335362434387, 
        -0.022383766248822212, 
        -0.08760400116443634, 
        -0.019795333966612816, 
        0.03226799517869949, 
        0.016939425840973854, 
        -0.39152786135673523, 
        -0.08472604304552078, 
        0.04635411128401756, 
        0.10135652124881744, 
        -0.06458856910467148, 
        0.006324262823909521, 
        -0.015195333398878574, 
        0.078375443816185, 
        0.10100504755973816, 
        -0.01005540695041418, 
        -0.015473305247724056, 
        0.07744218409061432, 
        -0.03488689288496971, 
        0.1370415985584259, 
        0.01611563377082348, 
        0.021276084706187248, 
        -0.005811736918985844, 
        0.0706222727894783, 
        0.007763821631669998, 
        0.03894602879881859, 
        0.07185820490121841, 
        -0.002589053940027952, 
        0.059159863740205765, 
        -0.003994006663560867, 
        0.006370156072080135, 
        0.43753790855407715, 
        0.4524475038051605, 
        0.21321673691272736, 
        0.012889187783002853, 
        -0.0013164191041141748, 
        0.026744484901428223, 
        0.00737463403493166, 
        -0.06409578770399094, 
        -0.06124899536371231, 
        -0.09321922808885574, 
        -0.06461063027381897, 
        -0.3006376028060913, 
        -0.37300193309783936, 
        0.1189970150589943, 
        0.0030157987494021654, 
        0.03898805379867554, 
        0.030144628137350082, 
        -0.027801092714071274, 
        -0.22133634984493256, 
        -0.2700953781604767, 
        0.034479375928640366, 
        0.10497160255908966, 
        -0.03235560655593872, 
        -0.03318599984049797, 
        0.020749811083078384, 
        0.2641463577747345, 
        -0.013536755926907063, 
        0.11555980890989304, 
        0.11921679228544235, 
        0.05161570757627487, 
        -0.03473638370633125, 
        -0.0640590712428093, 
        0.027602272108197212, 
        0.1182941347360611, 
        -0.015330127440392971, 
        -0.05691458284854889, 
        0.06957589089870453, 
        0.023431576788425446, 
        0.06659739464521408, 
        0.01450587622821331, 
        0.047215934842824936, 
        0.017325179651379585, 
        0.004355567507445812, 
        -0.029065852984786034, 
        0.023150214925408363, 
        0.11172511428594589, 
        0.023381587117910385, 
        0.00331372139044106, 
        0.01342382375150919, 
        -0.03918975964188576, 
        0.24423104524612427, 
        0.28193971514701843, 
        0.11528462916612625, 
        0.02226978726685047, 
        -0.018271157518029213, 
        0.002269802615046501, 
        -0.07222506403923035, 
        -0.1298641562461853, 
        -0.14053326845169067, 
        -0.004601203836500645, 
        -0.040977589786052704, 
        -0.2219744771718979, 
        -0.22080393135547638, 
        0.04470866546034813, 
        0.0764128714799881, 
        0.0404013954102993, 
        0.12601685523986816, 
        0.05342279374599457, 
        -0.15496915578842163, 
        -0.1758567839860916, 
        0.09643610566854477, 
        0.10998132824897766, 
        -0.007270828355103731, 
        0.01284715998917818, 
        -0.01758526638150215, 
        0.16426895558834076, 
        0.049940645694732666, 
        -0.09544593095779419, 
        -0.10405784100294113, 
        0.03013656474649906, 
        -0.01066156942397356, 
        -0.023128284141421318, 
        0.02989371307194233, 
        -0.11850349605083466, 
        0.02547990158200264, 
        0.049158547073602676, 
        -0.18864257633686066, 
        0.054756131023168564, 
        -0.2931026220321655, 
        -0.03144049644470215, 
        0.01714680902659893, 
        -0.05153515562415123, 
        -0.005324032157659531, 
        -0.030035369098186493, 
        0.0036056290846318007, 
        -0.2544676661491394, 
        -0.08998270332813263, 
        -0.0007152649923227727, 
        0.034673117101192474, 
        0.01088962983340025, 
        -0.7031276822090149, 
        -0.7383660078048706, 
        -0.314005970954895, 
        -0.03287374600768089, 
        -0.035954270511865616, 
        0.03277674317359924, 
        -0.3587449789047241, 
        -0.40717899799346924, 
        -0.05572960525751114, 
        0.1374683678150177, 
        0.20814865827560425, 
        -0.15211690962314606, 
        -0.15441443026065826, 
        -0.07008306682109833, 
        -0.12855485081672668, 
        0.031954437494277954, 
        -0.11924737691879272, 
        0.04279829189181328, 
        0.2293231040239334, 
        0.22632750868797302, 
        -0.0044798338785767555, 
        -0.029125479981303215, 
        0.03014606237411499, 
        0.009786034002900124, 
        0.057948559522628784, 
        -0.5035426616668701, 
        -0.1569700390100479, 
        -0.055893365293741226, 
        -0.07741522789001465, 
        -0.003575162962079048, 
        0.04403780773282051, 
        0.0552840456366539, 
        0.0472833588719368, 
        -0.0226561538875103, 
        -0.0545414574444294, 
        0.09356367588043213, 
        -0.12068546563386917, 
        -0.011521684005856514, 
        -0.12780696153640747, 
        0.033960625529289246, 
        -0.015000450424849987, 
        0.0548587441444397, 
        0.034876368939876556, 
        -0.006470854859799147, 
        0.060744281858205795, 
        -0.16075308620929718, 
        -0.0841246023774147, 
        -0.0012349009048193693, 
        -0.005426663439720869, 
        -0.05935574322938919, 
        -0.5345914363861084, 
        -0.6166563630104065, 
        -0.21245114505290985, 
        0.0412147231400013, 
        0.009509854018688202, 
        -0.004596665967255831, 
        -0.06706690788269043, 
        -0.25152865052223206, 
        -0.026295047253370285, 
        0.08175459504127502, 
        0.09454108029603958, 
        0.06901437789201736, 
        0.07659167796373367, 
        -0.10207009315490723, 
        -0.010351241566240788, 
        0.00510410126298666, 
        -0.10423874855041504, 
        0.0035751350224018097, 
        0.18013764917850494, 
        0.1612776219844818, 
        -0.004973376169800758, 
        -0.07421763241291046, 
        0.0314338356256485, 
        0.06417674571275711, 
        -0.02485932968556881, 
        -0.3966071307659149, 
        -0.08391362428665161, 
        -0.04299549758434296, 
        -0.06932355463504791, 
        -0.020042194053530693, 
        -0.025040278211236, 
        0.06326612085103989, 
        0.09851599484682083, 
        -0.13322825729846954, 
        -0.06611349433660507, 
        0.05306026712059975, 
        -0.173326313495636, 
        -0.00935348216444254, 
        -0.14551205933094025, 
        0.04271579533815384, 
        -0.0794462189078331, 
        0.025828121230006218, 
        0.11007195711135864, 
        -0.015183423645794392, 
        -0.03172476589679718, 
        -0.23779845237731934, 
        -0.08789099007844925, 
        0.007854235358536243, 
        0.027925776317715645, 
        -0.06848355382680893, 
        -0.6209608912467957, 
        -0.6725910305976868, 
        -0.1651882529258728, 
        -0.0484069362282753, 
        0.006567140109837055, 
        -0.07999282330274582, 
        -0.14531897008419037, 
        -0.19235773384571075, 
        -0.034122686833143234, 
        0.06087331101298332, 
        0.0585857518017292, 
        0.00205898005515337, 
        -0.04660458490252495, 
        -0.10891521722078323, 
        -0.0997472032904625, 
        0.029846638441085815, 
        -0.11438688635826111, 
        0.07686827331781387, 
        0.1771279275417328, 
        0.16920965909957886, 
        -0.06625170260667801, 
        -0.0491657480597496, 
        -0.03399438038468361, 
        -0.06831435859203339, 
        -0.023048071190714836, 
        -0.4309181272983551, 
        -0.06381713598966599, 
        -0.11983055621385574, 
        -0.1084703803062439, 
        -0.0019476052839308977, 
        0.05786560848355293, 
        -0.04278307408094406, 
        -0.0619317851960659, 
        -0.05652865767478943, 
        0.0669202208518982, 
        0.04477205500006676, 
        -0.09752777218818665, 
        0.004623184911906719, 
        -0.17341157793998718, 
        0.05099187418818474, 
        0.041303981095552444, 
        0.02527659386396408, 
        -0.015217195264995098, 
        0.0011441190727055073, 
        0.006373302079737186, 
        -0.17969131469726562, 
        0.003612240543588996, 
        -0.03352266922593117, 
        0.04084448888897896, 
        -0.017060523852705956, 
        -0.6273884177207947, 
        -0.5791411399841309, 
        -0.20268985629081726, 
        0.04441440850496292, 
        -0.00617161113768816, 
        -0.013059627264738083, 
        -0.1386529952287674, 
        -0.27107876539230347, 
        0.04759851470589638, 
        0.06888741999864578, 
        0.15245839953422546, 
        0.11456757038831711, 
        0.13599121570587158, 
        -0.04497925937175751, 
        -0.053290560841560364, 
        0.06988916546106339, 
        -0.05471467226743698, 
        -0.016681566834449768, 
        0.13351261615753174, 
        0.2295951545238495, 
        -0.047642841935157776, 
        -0.09402702748775482, 
        0.04457016661763191, 
        -0.012196097522974014, 
        0.0223812498152256, 
        -0.3826640844345093, 
        -0.04196477308869362, 
        -0.060347750782966614, 
        -0.0982513427734375, 
        0.0003742823319043964, 
        0.013377395458519459, 
        -0.009736018255352974, 
        -0.018649445846676826, 
        -0.06367634981870651, 
        -0.012046990916132927, 
        0.009439877234399319, 
        -0.13672222197055817, 
        0.03784927353262901, 
        -0.19530710577964783, 
        0.05141536891460419, 
        0.017160702496767044, 
        0.011824368499219418, 
        -0.03158994019031525, 
        0.008657357655465603, 
        0.027206748723983765, 
        -0.17619206011295319, 
        -0.05209989473223686, 
        -0.03157813847064972, 
        -0.05508948117494583, 
        0.021944936364889145, 
        -0.6073388457298279, 
        -0.5908599495887756, 
        -0.2998047173023224, 
        0.04811599478125572, 
        -0.021805476397275925, 
        0.03052961453795433, 
        -0.08189631998538971, 
        -0.1932287961244583, 
        0.062428638339042664, 
        0.10944005101919174, 
        0.1360703557729721, 
        0.215341255068779, 
        0.19476531445980072, 
        -0.08325731754302979, 
        -0.04490992799401283, 
        0.02638797089457512, 
        -0.04609695449471474, 
        0.034216590225696564, 
        0.2517003118991852, 
        0.25126945972442627, 
        -0.054456233978271484, 
        -0.0843629539012909, 
        0.03555432707071304, 
        0.0444001667201519, 
        0.03677332401275635, 
        -0.3394686281681061, 
        -0.06532812863588333, 
        0.09730477631092072, 
        0.060194578021764755, 
        -0.025513511151075363, 
        -0.03922126814723015, 
        0.020212749019265175, 
        0.02562863565981388, 
        0.1004934087395668, 
        0.024599609896540642, 
        0.030990099534392357, 
        0.01726567931473255, 
        0.013929799199104309, 
        0.03643547743558884, 
        -0.026676109060645103, 
        0.018138568848371506, 
        -0.010458366014063358, 
        0.01854996755719185, 
        -0.0205548033118248, 
        -0.021284088492393494, 
        0.028905993327498436, 
        -0.052031829953193665, 
        0.04036499932408333, 
        0.023148586973547935, 
        0.04361703619360924, 
        0.11599330604076385, 
        0.11029554903507233, 
        0.034859031438827515, 
        0.021669726818799973, 
        0.03969096764922142, 
        0.017404653131961823, 
        -0.07328246533870697, 
        -0.11170917004346848, 
        -0.11476144194602966, 
        -0.013964508660137653, 
        -0.0037846954073756933, 
        -0.2729472219944, 
        -0.2637615203857422, 
        0.09016900509595871, 
        0.03517230227589607, 
        0.012631605379283428, 
        0.06037252023816109, 
        0.053334880620241165, 
        -0.15490302443504333, 
        -0.08885860443115234, 
        0.06014520302414894, 
        0.0023781824856996536, 
        -0.06022743508219719, 
        -0.05216708034276962, 
        -0.004489424172788858, 
        0.07446953654289246, 
        -0.03335573896765709, 
        0.11377860605716705, 
        0.10973759740591049, 
        0.035709477961063385, 
        0.02321547642350197, 
        0.07910968363285065, 
        -0.0808129832148552, 
        0.15778686106204987, 
        -0.01535428874194622, 
        -0.015458231791853905, 
        0.2294987589120865, 
        0.06216419115662575, 
        0.2576873004436493, 
        0.006970118265599012, 
        -0.014166787266731262, 
        0.04886570945382118, 
        -0.04839259758591652, 
        0.007937073707580566, 
        0.0002527946198824793, 
        0.2936064600944519, 
        0.07441715151071548, 
        0.019888566806912422, 
        0.06498920917510986, 
        -0.0063956864178180695, 
        0.666458010673523, 
        0.6791553497314453, 
        0.20772235095500946, 
        0.0007294968818314373, 
        0.044732749462127686, 
        0.03745309263467789, 
        0.037984129041433334, 
        0.08405864238739014, 
        0.0003701075038406998, 
        0.019333135336637497, 
        -0.1077522337436676, 
        -0.1875423789024353, 
        -0.1582716852426529, 
        0.17664285004138947, 
        -0.027009597048163414, 
        -0.12657572329044342, 
        0.17725616693496704, 
        -0.09748055040836334, 
        -0.15348149836063385, 
        -0.18614226579666138, 
        0.13970308005809784, 
        0.10614141821861267, 
        0.05649428069591522, 
        0.07106947898864746, 
        0.02729066275060177, 
        0.4521354138851166, 
        0.13604477047920227, 
        -0.06915624439716339, 
        -0.046035148203372955, 
        -0.022252019494771957, 
        0.03807060047984123, 
        0.01701875403523445, 
        0.02221963368356228, 
        -0.11902116239070892, 
        0.015368159860372543, 
        0.023459499701857567, 
        -0.2153654247522354, 
        0.0009096507565118372, 
        -0.18874774873256683, 
        0.03179305046796799, 
        0.018025487661361694, 
        0.023670775815844536, 
        0.009267290122807026, 
        0.018942801281809807, 
        -0.013244926929473877, 
        -0.23008032143115997, 
        -0.060901593416929245, 
        -0.0018324553966522217, 
        -0.004606926813721657, 
        -0.01924177259206772, 
        -0.6781827807426453, 
        -0.755047619342804, 
        -0.29346251487731934, 
        0.01052676048129797, 
        0.029517436400055885, 
        0.01788250170648098, 
        -0.20169700682163239, 
        -0.32160499691963196, 
        -0.04171932116150856, 
        0.15925481915473938, 
        0.15647368133068085, 
        -0.11049193888902664, 
        -0.07535529136657715, 
        -0.08439541608095169, 
        -0.035165634006261826, 
        0.07356161624193192, 
        -0.11989347636699677, 
        0.016941595822572708, 
        0.14259713888168335, 
        0.19456666707992554, 
        -0.00885400827974081, 
        -0.021255383267998695, 
        0.00781123386695981, 
        0.031065329909324646, 
        0.016182057559490204, 
        -0.4914899468421936, 
        -0.11852449178695679, 
        -0.001616692985408008, 
        -0.006202350370585918, 
        0.03587987646460533, 
        0.02544892020523548, 
        0.009445138275623322, 
        0.02165675163269043, 
        -0.027727827429771423, 
        0.007187726907432079, 
        -0.006165824830532074, 
        -0.1377905160188675, 
        0.0039652567356824875, 
        -0.11151868849992752, 
        0.009398996829986572, 
        -0.015276153571903706, 
        -0.02465934120118618, 
        0.03395615890622139, 
        0.032496366649866104, 
        0.00834906380623579, 
        -0.12856100499629974, 
        -0.010783175937831402, 
        0.0014051159378141165, 
        -0.002244185656309128, 
        -0.0012069037184119225, 
        -0.5954177975654602, 
        -0.5671128034591675, 
        -0.25530457496643066, 
        0.06970248371362686, 
        0.024405864998698235, 
        0.005431448109447956, 
        -0.15342015027999878, 
        -0.2114202082157135, 
        -0.012628680095076561, 
        0.1311555802822113, 
        0.13854357600212097, 
        0.14078998565673828, 
        0.08857661485671997, 
        -0.0794653445482254, 
        -0.013776394538581371, 
        0.05594229698181152, 
        -0.06988285481929779, 
        0.03281395882368088, 
        0.23208294808864594, 
        0.1534959226846695, 
        -0.005786921363323927, 
        -0.0034143966622650623, 
        0.06587690114974976, 
        0.0040212213061749935, 
        0.025269486010074615, 
        -0.28451812267303467, 
        -0.028706533834338188, 
        -0.1078011766076088, 
        -0.11720938980579376, 
        0.023182477802038193, 
        0.01857028901576996, 
        0.009852065704762936, 
        -0.02795387990772724, 
        -0.09831076115369797, 
        -0.006007122341543436, 
        0.008584071882069111, 
        -0.11925969272851944, 
        0.01319961715489626, 
        -0.13499848544597626, 
        0.013508365489542484, 
        0.018277695402503014, 
        0.0007136283675208688, 
        0.010253279469907284, 
        0.06971579790115356, 
        -0.031999774277210236, 
        -0.09978894144296646, 
        -0.0008438772056251764, 
        -0.04297666996717453, 
        -0.013598940335214138, 
        -0.020945945754647255, 
        -0.5567721724510193, 
        -0.5309534668922424, 
        -0.237291619181633, 
        0.023545728996396065, 
        -0.03731926530599594, 
        0.04329339787364006, 
        -0.0760323777794838, 
        -0.1104901060461998, 
        0.08951050788164139, 
        0.06970010697841644, 
        0.10985247045755386, 
        0.17085810005664825, 
        0.18773555755615234, 
        -0.04316472262144089, 
        -0.02126748114824295, 
        0.03412683680653572, 
        -0.08534050732851028, 
        -0.040372464805841446, 
        0.20993337035179138, 
        0.18283309042453766, 
        -0.06132939085364342, 
        -0.039761003106832504, 
        0.032250478863716125, 
        0.00514080049470067, 
        0.000975499046035111, 
        -0.3330538868904114, 
        0.005295171868056059, 
        -0.07233675569295883, 
        -0.07085563242435455, 
        0.02178509533405304, 
        -0.05047427490353584, 
        -0.011999321170151234, 
        -0.024015596136450768, 
        -0.04361668974161148, 
        0.00402191374450922, 
        0.04220253974199295, 
        -0.1223844513297081, 
        0.027461711317300797, 
        -0.18403324484825134, 
        0.03735482320189476, 
        -0.06791401654481888, 
        0.0182636771351099, 
        0.01112277526408434, 
        0.02631031535565853, 
        0.022688543424010277, 
        -0.18356971442699432, 
        -0.07084353268146515, 
        -0.04302109405398369, 
        -0.005971692968159914, 
        0.012195429764688015, 
        -0.5863433480262756, 
        -0.585732102394104, 
        -0.2555390000343323, 
        0.01526621077209711, 
        0.03247150033712387, 
        0.04750366508960724, 
        -0.34531253576278687, 
        -0.35740047693252563, 
        -0.044271018356084824, 
        0.14089292287826538, 
        0.14996039867401123, 
        0.13420264422893524, 
        0.17312875390052795, 
        -0.03498472645878792, 
        0.010926141403615475, 
        -0.011011461727321148, 
        -0.04821237921714783, 
        0.047359365969896317, 
        0.1492435336112976, 
        0.20469212532043457, 
        -0.014479483477771282, 
        -0.04894954711198807, 
        0.0451166033744812, 
        0.012170983478426933, 
        0.013197695836424828, 
        -0.3232138752937317, 
        -0.10727684944868088, 
        0.1669304370880127, 
        0.17275384068489075, 
        -0.0006662196246907115, 
        -0.010843484662473202, 
        0.06568222492933273, 
        0.0368347242474556, 
        0.0994115099310875, 
        0.045343056321144104, 
        -0.04450893774628639, 
        0.16504022479057312, 
        -0.03536994010210037, 
        0.15080656111240387, 
        0.02112378366291523, 
        -0.005853158421814442, 
        0.0073985755443573, 
        -0.12500843405723572, 
        -0.005680398549884558, 
        0.06592825800180435, 
        0.16298212110996246, 
        0.005021515302360058, 
        0.031344007700681686, 
        0.1610846370458603, 
        0.03029249794781208, 
        0.5272167921066284, 
        0.494332492351532, 
        0.3005504906177521, 
        0.02789023146033287, 
        0.12460346519947052, 
        0.0001374384155496955, 
        0.009596380405128002, 
        -0.013801313936710358, 
        -0.0906023383140564, 
        0.0400405116379261, 
        -0.03645099326968193, 
        -0.412457674741745, 
        -0.38188713788986206, 
        0.1199224516749382, 
        0.03439975902438164, 
        -0.06578171998262405, 
        0.07401420921087265, 
        -0.04818137735128403, 
        -0.10803462564945221, 
        -0.16534966230392456, 
        0.1247224360704422, 
        0.10264928638935089, 
        0.030048588290810585, 
        0.07960224151611328, 
        0.022839505225419998, 
        0.44829437136650085, 
        0.03457815572619438, 
        0.09917786717414856, 
        0.13198114931583405, 
        0.023792000487446785, 
        0.04304792732000351, 
        0.025512689724564552, 
        0.13180223107337952, 
        0.06990984082221985, 
        0.015074114315211773, 
        0.06995676457881927, 
        0.21728308498859406, 
        0.07235058397054672, 
        0.22658343613147736, 
        0.021951954811811447, 
        -0.07902257889509201, 
        0.13048690557479858, 
        -0.060620423406362534, 
        -0.01624833606183529, 
        0.061763495206832886, 
        0.16804687678813934, 
        -0.00868899468332529, 
        0.022112993523478508, 
        0.05607211962342262, 
        -0.03936045244336128, 
        0.42925000190734863, 
        0.4267798364162445, 
        0.29519104957580566, 
        -0.0439620316028595, 
        -0.02130262553691864, 
        0.0004791280662175268, 
        -0.03897392004728317, 
        -0.03295178338885307, 
        -0.07218118757009506, 
        0.019402209669351578, 
        -0.09624266624450684, 
        -0.38186606764793396, 
        -0.3236798048019409, 
        0.0444319024682045, 
        0.020632633939385414, 
        -0.015058452263474464, 
        0.16910381615161896, 
        -0.03259013220667839, 
        -0.14344148337841034, 
        -0.22353103756904602, 
        0.10388285666704178, 
        0.035646483302116394, 
        -0.04462866485118866, 
        -0.01665078103542328, 
        -0.004013623110949993, 
        0.39087414741516113, 
        0.0865866020321846, 
        0.11761197447776794, 
        0.10021262615919113, 
        0.015856344252824783, 
        0.004075361415743828, 
        -0.02346578985452652, 
        0.053035710006952286, 
        0.1436619609594345, 
        -0.04549029469490051, 
        0.021905366331338882, 
        0.24379244446754456, 
        0.04709985852241516, 
        0.32356229424476624, 
        -0.005909657571464777, 
        -0.01174320187419653, 
        -0.03358244150876999, 
        -0.01175794005393982, 
        0.006368773523718119, 
        0.006756005808711052, 
        0.21370406448841095, 
        0.009387695230543613, 
        0.06791339814662933, 
        0.1147850900888443, 
        0.02146957255899906, 
        0.5546852946281433, 
        0.5589475631713867, 
        0.31372517347335815, 
        0.0545182041823864, 
        0.10880789160728455, 
        -0.03413691744208336, 
        -0.1342296451330185, 
        -0.18389299511909485, 
        -0.23534253239631653, 
        0.028710374608635902, 
        -0.05560208484530449, 
        -0.21261082589626312, 
        -0.24021856486797333, 
        0.160573348402977, 
        -0.08115117251873016, 
        -0.21958068013191223, 
        0.03587597981095314, 
        -0.1094544529914856, 
        -0.10649147629737854, 
        -0.15237991511821747, 
        0.08003977686166763, 
        0.08957359194755554, 
        0.026976363733410835, 
        0.03142259642481804, 
        0.017974434420466423, 
        0.504776656627655, 
        0.12928515672683716, 
        -0.08073528110980988, 
        -0.08309732377529144, 
        0.032432835549116135, 
        0.0483415350317955, 
        -0.010124134831130505, 
        -0.027044076472520828, 
        -0.08686280250549316, 
        0.0070052058435976505, 
        0.00360543723218143, 
        -0.11983634531497955, 
        -0.038657594472169876, 
        -0.11708549410104752, 
        0.03097747266292572, 
        0.026949675753712654, 
        -0.036618009209632874, 
        0.00842421967536211, 
        0.05698138847947121, 
        -0.01657436229288578, 
        -0.09678798168897629, 
        -0.023819150403141975, 
        0.052885714918375015, 
        0.045959580689668655, 
        0.007316564209759235, 
        -0.36091190576553345, 
        -0.30718299746513367, 
        -0.08795085549354553, 
        0.0035798640456050634, 
        -0.023195905610919, 
        0.017285281792283058, 
        -0.0319904126226902, 
        -0.10992147028446198, 
        0.030857903882861137, 
        0.04735686630010605, 
        0.1167118176817894, 
        0.1515628546476364, 
        0.20670104026794434, 
        -0.04162617027759552, 
        -0.0280381441116333, 
        0.03821399062871933, 
        -0.06474412977695465, 
        0.022701673209667206, 
        0.10655897855758667, 
        0.10540366917848587, 
        -0.060972221195697784, 
        -0.002186134923249483, 
        -0.038777247071266174, 
        -0.01508911419659853, 
        -0.0029328372329473495, 
        -0.2410983294248581, 
        -0.02533167041838169, 
        0.06667312234640121, 
        0.10663014650344849, 
        -0.03185805305838585, 
        -0.007379597052931786, 
        0.09620007127523422, 
        0.027004480361938477, 
        0.08582007139921188, 
        0.049668487161397934, 
        -0.02338258922100067, 
        0.10292305797338486, 
        -0.01441478356719017, 
        0.08439326286315918, 
        0.026159504428505898, 
        -0.010284134186804295, 
        0.03876123204827309, 
        -0.017825694754719734, 
        -0.035221002995967865, 
        -5.6103672250173986e-05, 
        0.12710262835025787, 
        -0.018206272274255753, 
        0.048592835664749146, 
        0.0015085607301443815, 
        0.0027387107256799936, 
        0.4165398180484772, 
        0.38766562938690186, 
        0.15440212190151215, 
        0.0002926441375166178, 
        0.018725281581282616, 
        -0.01666528917849064, 
        0.043647654354572296, 
        0.04072944074869156, 
        -0.04600180312991142, 
        -0.04370963200926781, 
        -0.1328626275062561, 
        -0.31937679648399353, 
        -0.3750564754009247, 
        0.04713016003370285, 
        0.03291625902056694, 
        0.0329720601439476, 
        0.06829960644245148, 
        0.06638149172067642, 
        -0.27434277534484863, 
        -0.2553909420967102, 
        0.08502617478370667, 
        0.0667334720492363, 
        0.015306243672966957, 
        -0.03178015723824501, 
        0.01157635822892189, 
        0.2945520281791687, 
        0.004988852888345718, 
        -0.074039526283741, 
        -0.019793063402175903, 
        0.06381098181009293, 
        -0.03490694239735603, 
        -0.015518620610237122, 
        -0.04392443224787712, 
        -0.043615859001874924, 
        0.012146016582846642, 
        -0.037737634032964706, 
        -0.17145690321922302, 
        0.05528421700000763, 
        -0.20412494242191315, 
        -0.027979321777820587, 
        0.003668006043881178, 
        -0.021744778379797935, 
        -0.0315423458814621, 
        0.06186678260564804, 
        0.04339214786887169, 
        -0.1416170597076416, 
        -0.08325757831335068, 
        -0.029538685455918312, 
        0.02352803759276867, 
        -0.006696972064673901, 
        -0.6363804936408997, 
        -0.6619831323623657, 
        -0.18442890048027039, 
        -0.026450276374816895, 
        0.013705325312912464, 
        -0.010655545629560947, 
        -0.5107365250587463, 
        -0.3589857518672943, 
        -0.015250318683683872, 
        0.12101010233163834, 
        0.16454528272151947, 
        0.015046079643070698, 
        0.040469229221343994, 
        -0.09666626155376434, 
        -0.0575919970870018, 
        0.02258397452533245, 
        -0.12044498324394226, 
        0.034221798181533813, 
        0.14964334666728973, 
        0.15986953675746918, 
        -0.08110593259334564, 
        -0.08999140560626984, 
        0.046621888875961304, 
        0.05298096314072609, 
        0.004353644326329231, 
        -0.33196160197257996, 
        -0.05115322768688202, 
        0.24635663628578186, 
        0.2201809287071228, 
        -0.061175547540187836, 
        0.05029500275850296, 
        -0.08260331302881241, 
        -0.16429702937602997, 
        0.28260356187820435, 
        0.010287147015333176, 
        0.230365589261055, 
        0.34253576397895813, 
        0.06076892837882042, 
        0.24656352400779724, 
        0.05018436536192894, 
        0.010812424123287201, 
        -0.05481625348329544, 
        0.1833825558423996, 
        0.02181422896683216, 
        -0.03579719737172127, 
        0.11017173528671265, 
        -0.13009262084960938, 
        0.08859315514564514, 
        0.17791098356246948, 
        0.022542042657732964, 
        0.7229138612747192, 
        0.7042474746704102, 
        0.5403841137886047, 
        0.11890005320310593, 
        0.16376061737537384, 
        0.0046677482314407825, 
        -0.11377754807472229, 
        -0.2613089084625244, 
        -0.25690004229545593, 
        0.3067997395992279, 
        0.15856634080410004, 
        -0.6634302139282227, 
        -0.690449059009552, 
        0.2563755214214325, 
        0.1101875901222229, 
        0.07939507812261581, 
        0.14354494214057922, 
        -0.0038410888519138098, 
        -0.11936700344085693, 
        -0.14056511223316193, 
        0.1669539213180542, 
        0.214034765958786, 
        0.02842945232987404, 
        0.08016680181026459, 
        -0.041688863188028336, 
        0.5239595174789429, 
        -0.13560667634010315, 
        0.09244638681411743, 
        0.10239772498607635, 
        0.01723957620561123, 
        -0.02238355576992035, 
        -0.23188818991184235, 
        0.03561248257756233, 
        0.14676420390605927, 
        -0.043996404856443405, 
        0.08924618363380432, 
        0.10951848328113556, 
        -0.041184134781360626, 
        0.16193030774593353, 
        0.014650383964180946, 
        -0.024307899177074432, 
        -0.30521151423454285, 
        -0.03515808656811714, 
        -0.05596298351883888, 
        0.11321888118982315, 
        0.14219237864017487, 
        -0.009456406347453594, 
        0.10103975981473923, 
        0.04671112447977066, 
        -0.04644281044602394, 
        0.8144854307174683, 
        0.6944956183433533, 
        0.4108407199382782, 
        0.1225256398320198, 
        0.10686793178319931, 
        -0.012447326444089413, 
        -0.15178705751895905, 
        -0.1842910796403885, 
        -0.1855495572090149, 
        0.049366436898708344, 
        -0.034643013030290604, 
        -0.14169110357761383, 
        -0.19981220364570618, 
        0.15464670956134796, 
        0.04025685787200928, 
        -0.0872822105884552, 
        0.09042838960886002, 
        -0.0799727514386177, 
        -0.17039968073368073, 
        -0.1346217691898346, 
        0.09379081428050995, 
        0.09486016631126404, 
        0.026619192212820053, 
        -0.00954452808946371, 
        -0.03981642425060272, 
        0.3284737467765808, 
        0.03475966677069664, 
        -0.028244752436876297, 
        -0.03878425806760788, 
        0.0010269326157867908, 
        -0.010903534479439259, 
        0.03320840373635292, 
        -0.031189056113362312, 
        -0.06985656917095184, 
        -0.012456514872610569, 
        -0.016977116465568542, 
        -0.15806381404399872, 
        -0.06627356261014938, 
        -0.1688900887966156, 
        -0.018091706559062004, 
        -0.061759449541568756, 
        -0.009787815622985363, 
        -0.014913750812411308, 
        0.03156358748674393, 
        -0.017595866695046425, 
        -0.23791761696338654, 
        -0.10573845356702805, 
        -0.0493987612426281, 
        -0.021904747933149338, 
        -0.011866905726492405, 
        -0.19682523608207703, 
        -0.22072894871234894, 
        -0.09703105688095093, 
        -0.04174774885177612, 
        -0.011443325318396091, 
        0.0289789829403162, 
        -0.23491434752941132, 
        -0.2280419021844864, 
        -0.032687943428754807, 
        0.10034581273794174, 
        0.1020083874464035, 
        -0.1850799322128296, 
        -0.14657968282699585, 
        -0.09496665745973587, 
        -0.059788208454847336, 
        0.045055195689201355, 
        -0.1273220181465149, 
        -0.05042112246155739, 
        0.00012389547191560268, 
        0.03970790281891823, 
        -0.029221050441265106, 
        -0.08501699566841125, 
        -0.05590740963816643, 
        -0.07286997884511948, 
        -0.0032158682588487864, 
        -0.22291478514671326, 
        -0.11496029049158096, 
        -0.05125989764928818, 
        -0.04400404542684555, 
        0.014469235204160213, 
        -0.054946478456258774, 
        0.016190797090530396, 
        -0.03758431226015091, 
        -0.1166558489203453, 
        0.032426875084638596, 
        -0.018654530867934227, 
        -0.1588248908519745, 
        0.03822789341211319, 
        -0.24201306700706482, 
        0.001606452977284789, 
        -0.010794304311275482, 
        0.006042502820491791, 
        -0.0046399859711527824, 
        0.03923870250582695, 
        -0.057149313390254974, 
        -0.1490567922592163, 
        -0.004060021135956049, 
        0.02012714371085167, 
        -0.005933812819421291, 
        -0.004969908390194178, 
        -0.6096667647361755, 
        -0.639687716960907, 
        -0.29292720556259155, 
        0.02414446882903576, 
        0.013457602821290493, 
        -0.009459446184337139, 
        -0.28978314995765686, 
        -0.23171378672122955, 
        -0.024427173659205437, 
        0.12992796301841736, 
        0.15256142616271973, 
        0.1059211939573288, 
        0.09897919744253159, 
        -0.059989456087350845, 
        -0.006178450305014849, 
        -0.01651572808623314, 
        -0.094497911632061, 
        -0.03355000168085098, 
        0.12443602085113525, 
        0.1372053474187851, 
        -0.07291694730520248, 
        -0.10653860121965408, 
        -0.0400952510535717, 
        -0.01747037097811699, 
        0.02810489758849144, 
        -0.44601762294769287, 
        -0.09875433892011642, 
        0.05027671903371811, 
        0.035978805273771286, 
        0.008589489385485649, 
        -0.017484664916992188, 
        -0.05435384437441826, 
        0.04911820963025093, 
        0.0474526472389698, 
        0.019286757335066795, 
        0.04898069426417351, 
        0.1122114285826683, 
        -0.0319581963121891, 
        0.09264799952507019, 
        -0.017854386940598488, 
        0.0028516429010778666, 
        -0.08907588571310043, 
        0.008627073839306831, 
        0.04539105296134949, 
        -0.0016975797479972243, 
        0.1297455132007599, 
        0.018973300233483315, 
        0.03313296660780907, 
        -0.005441016051918268, 
        -0.024050099775195122, 
        0.2843702435493469, 
        0.2703845798969269, 
        0.1350085735321045, 
        0.0006382078281603754, 
        -0.006912474520504475, 
        -0.03014831431210041, 
        0.010803159326314926, 
        -0.024302171543240547, 
        -0.04105307534337044, 
        -0.031372468918561935, 
        -0.10446994006633759, 
        -0.2025255709886551, 
        -0.21253329515457153, 
        0.0466691330075264, 
        0.03593467175960541, 
        -0.0010783628094941378, 
        0.028368724510073662, 
        3.768504393519834e-05, 
        -0.124480701982975, 
        -0.13246916234493256, 
        0.004457141738384962, 
        0.06304649263620377, 
        -0.022730952128767967, 
        0.04997820779681206, 
        0.006719634402543306, 
        0.16855181753635406, 
        0.0070359837263822556, 
        -0.04323986545205116, 
        -0.03343281149864197, 
        0.013508699834346771, 
        0.013900919817388058, 
        -0.04915478825569153, 
        -0.03810804709792137, 
        -0.06384959816932678, 
        0.01724693365395069, 
        0.007443356793373823, 
        -0.13958828151226044, 
        -0.0015025199390947819, 
        -0.14800970256328583, 
        -0.005020092707127333, 
        -0.03278578817844391, 
        -0.032063137739896774, 
        -0.014524200931191444, 
        0.012095026671886444, 
        -0.015487181022763252, 
        -0.1525898575782776, 
        -0.07311836630105972, 
        0.006818558555096388, 
        0.0159202478826046, 
        -0.03728041425347328, 
        -0.5564269423484802, 
        -0.587738573551178, 
        -0.24290607869625092, 
        0.015586284920573235, 
        0.008850622922182083, 
        -0.03822517767548561, 
        -0.13295455276966095, 
        -0.20180439949035645, 
        0.013430815190076828, 
        0.11844010651111603, 
        0.08121807128190994, 
        0.0733075812458992, 
        0.07405520975589752, 
        -0.04339407756924629, 
        -0.09869609773159027, 
        -0.005859800614416599, 
        -0.08167444169521332, 
        0.04638759791851044, 
        0.19044610857963562, 
        0.1396612823009491, 
        -0.017003949731588364, 
        0.0003395040985196829, 
        0.040144115686416626, 
        0.002673835726454854, 
        0.008723518811166286, 
        -0.3559982180595398, 
        -0.02160843461751938, 
        0.035557009279727936, 
        0.08943058550357819, 
        -0.05540267378091812, 
        -0.040619101375341415, 
        -0.04820882901549339, 
        0.15565960109233856, 
        0.016651708632707596, 
        0.0031670464668422937, 
        0.005992104299366474, 
        0.05374976247549057, 
        -0.009411807172000408, 
        0.13009460270404816, 
        -0.04998263716697693, 
        0.0022365376353263855, 
        -0.11216377466917038, 
        -0.05413089320063591, 
        -0.008031412027776241, 
        -0.03290577232837677, 
        0.08894384652376175, 
        0.007860170677304268, 
        0.022490371018648148, 
        0.037616536021232605, 
        -0.04113704711198807, 
        0.3761095106601715, 
        0.3306408226490021, 
        0.20534002780914307, 
        0.04544195532798767, 
        0.017689405009150505, 
        0.007296853233128786, 
        0.02871464565396309, 
        -0.0004676313837990165, 
        0.14574982225894928, 
        -0.022749803960323334, 
        -0.07982826977968216, 
        -0.40660256147384644, 
        -0.35401996970176697, 
        0.05560603737831116, 
        0.07761980593204498, 
        0.03490930795669556, 
        0.023504817858338356, 
        0.009109492413699627, 
        -0.23764975368976593, 
        -0.18797342479228973, 
        0.0665191113948822, 
        0.026752585545182228, 
        0.021253759041428566, 
        -0.04443059861660004, 
        0.00843107607215643, 
        0.2501470446586609, 
        -0.11231312155723572, 
        0.09130240976810455, 
        0.1014896035194397, 
        0.030794888734817505, 
        0.03112046793103218, 
        -0.1759059876203537, 
        0.03220491111278534, 
        0.11930686235427856, 
        0.01726485788822174, 
        0.009522884152829647, 
        0.1829856038093567, 
        0.04261932149529457, 
        0.1779782772064209, 
        -0.014944896101951599, 
        0.004733751993626356, 
        0.07192368060350418, 
        -0.053255029022693634, 
        0.0352264940738678, 
        0.0356815941631794, 
        0.20281416177749634, 
        0.0793568342924118, 
        -0.04750421643257141, 
        0.0006075412384234369, 
        -0.044841136783361435, 
        0.5988621115684509, 
        0.590261697769165, 
        0.19058264791965485, 
        -0.009976106695830822, 
        -0.05239167809486389, 
        -0.002969778375700116, 
        -0.06179250404238701, 
        -0.060658685863018036, 
        -0.20754677057266235, 
        -0.016064025461673737, 
        -0.0685926005244255, 
        -0.3624773323535919, 
        -0.32392939925193787, 
        0.10580045729875565, 
        0.02320440486073494, 
        0.030694836750626564, 
        0.08724844455718994, 
        -0.009264495223760605, 
        -0.25608378648757935, 
        -0.27326512336730957, 
        0.11586476117372513, 
        0.07782550156116486, 
        0.01733819954097271, 
        0.006530282087624073, 
        0.0353095605969429, 
        0.3236462473869324, 
        0.12383314967155457, 
        -0.0865076556801796, 
        -0.1047099232673645, 
        -0.012292666360735893, 
        0.028820961713790894, 
        -0.007414991967380047, 
        -0.022086935117840767, 
        -0.11769463866949081, 
        0.020283324643969536, 
        0.013892022892832756, 
        -0.11115356534719467, 
        0.0598432794213295, 
        -0.17757026851177216, 
        -0.025560352951288223, 
        -0.02286313846707344, 
        0.018453605473041534, 
        -0.03864710405468941, 
        0.015310350805521011, 
        -0.01703243888914585, 
        -0.19898250699043274, 
        -0.06426475197076797, 
        0.008329475298523903, 
        -0.05300163850188255, 
        -0.00754860183224082, 
        -0.6726158857345581, 
        -0.7057510614395142, 
        -0.3111552596092224, 
        0.03172509744763374, 
        -0.00998041220009327, 
        0.020853204652667046, 
        -0.12987403571605682, 
        -0.2861233949661255, 
        -0.03213731572031975, 
        0.14654114842414856, 
        0.11695948988199234, 
        0.05522048473358154, 
        0.05141701176762581, 
        -0.11127796024084091, 
        -0.05578204616904259, 
        0.008686094544827938, 
        -0.10016678273677826, 
        0.05773216113448143, 
        0.22876927256584167, 
        0.2494439035654068, 
        -0.05647296458482742, 
        -0.026384007185697556, 
        -0.030565032735466957, 
        0.014677532017230988, 
        0.03578628972172737, 
        -0.42261266708374023, 
        -0.06804914027452469, 
        0.0523744598031044, 
        -0.009255421347916126, 
        0.004745467100292444, 
        -0.03263987973332405, 
        0.020916523411870003, 
        0.09791913628578186, 
        -0.002851934637874365, 
        0.007736319676041603, 
        -0.01742161624133587, 
        0.003638069611042738, 
        -0.017179345712065697, 
        0.04581025242805481, 
        -0.013932127505540848, 
        0.03127480670809746, 
        0.03254084289073944, 
        0.05733576416969299, 
        -0.04008747264742851, 
        -0.008786981925368309, 
        -0.08017708361148834, 
        -0.10528508573770523, 
        -0.04471305012702942, 
        0.048306334763765335, 
        -0.02541358210146427, 
        -0.022086646407842636, 
        -0.06507328897714615, 
        0.06136300414800644, 
        0.01341160386800766, 
        0.032778866589069366, 
        -0.07423294335603714, 
        -0.20478567481040955, 
        -0.3395150303840637, 
        -0.19204948842525482, 
        0.1043676808476448, 
        0.0987817570567131, 
        -0.2852143943309784, 
        -0.25881826877593994, 
        0.07562817633152008, 
        -0.04446251317858696, 
        0.034426018595695496, 
        -0.012471944093704224, 
        0.04151448234915733, 
        -0.1506952941417694, 
        -0.1809627115726471, 
        0.008359435014426708, 
        0.042187001556158066, 
        -0.009404190815985203, 
        -0.02031673677265644, 
        -0.009560970589518547, 
        0.07815244793891907, 
        -0.02618321031332016, 
        0.0462547168135643, 
        0.03745955228805542, 
        0.02666531875729561, 
        0.009381900541484356, 
        -0.10688190162181854, 
        -0.18873560428619385, 
        0.10385477542877197, 
        -0.024781253188848495, 
        0.01706916280090809, 
        0.0998125821352005, 
        0.03210319206118584, 
        0.12380406260490417, 
        0.006571551319211721, 
        0.013771404512226582, 
        -0.34370699524879456, 
        0.09131696820259094, 
        -0.018246712163090706, 
        -0.04508146271109581, 
        0.140228271484375, 
        -0.04809610918164253, 
        0.022108884528279305, 
        -0.08157661557197571, 
        -0.03515561670064926, 
        0.5103115439414978, 
        0.3761928081512451, 
        0.07897984236478806, 
        0.006016952451318502, 
        -0.07298026233911514, 
        0.020358022302389145, 
        -0.025823522359132767, 
        0.02058081142604351, 
        -0.139496847987175, 
        0.00845946092158556, 
        -0.0795087143778801, 
        -0.19153843820095062, 
        -0.21678858995437622, 
        0.11041940003633499, 
        0.08427265286445618, 
        0.047703079879283905, 
        0.059727467596530914, 
        0.0045497906394302845, 
        -0.1277642697095871, 
        -0.17274250090122223, 
        0.06454243510961533, 
        0.06705138832330704, 
        -0.03397092968225479, 
        -0.03573346138000488, 
        -0.014966359362006187, 
        0.18333452939987183, 
        0.09969509392976761, 
        0.1060895100235939, 
        0.14179210364818573, 
        -0.05622050166130066, 
        -0.0775517001748085, 
        0.10269332677125931, 
        0.04210275039076805, 
        0.14414961636066437, 
        0.021340884268283844, 
        -0.032326534390449524, 
        0.0788101851940155, 
        -0.07175841927528381, 
        0.09031844884157181, 
        -0.01303120143711567, 
        0.08218540251255035, 
        0.07445381581783295, 
        -0.012195016257464886, 
        0.03657300025224686, 
        -0.02689274027943611, 
        0.06853926926851273, 
        0.031106553971767426, 
        0.09827270358800888, 
        0.11542791873216629, 
        0.008750907145440578, 
        0.5187069177627563, 
        0.4711957275867462, 
        0.29382485151290894, 
        0.023833399638533592, 
        0.07402560114860535, 
        -0.06029936298727989, 
        0.28536972403526306, 
        0.3566097915172577, 
        0.14459502696990967, 
        0.02441699430346489, 
        -0.07616136968135834, 
        -0.36599966883659363, 
        -0.3788406252861023, 
        0.1141364723443985, 
        0.11473609507083893, 
        0.02732807956635952, 
        0.06263771653175354, 
        0.009444999508559704, 
        -0.2041769027709961, 
        -0.14206890761852264, 
        0.11556117236614227, 
        0.12408939003944397, 
        0.05155252665281296, 
        0.027683891355991364, 
        -0.011062130331993103, 
        0.3783164918422699, 
        -0.11921558529138565, 
        0.051102228462696075, 
        -0.015661116689443588, 
        0.01975478231906891, 
        -0.02784518338739872, 
        0.04816974326968193, 
        0.05409998819231987, 
        0.007399511523544788, 
        0.007870438508689404, 
        0.025603706017136574, 
        0.0026943900156766176, 
        -0.031169334426522255, 
        -0.09124698489904404, 
        -0.022677453234791756, 
        -0.0256562028080225, 
        -0.02142634242773056, 
        0.02745579183101654, 
        -0.01739042066037655, 
        0.04559191316366196, 
        -0.1840207427740097, 
        -0.14327402412891388, 
        0.02170838601887226, 
        -0.03186783939599991, 
        -0.03817753866314888, 
        -0.13525758683681488, 
        -0.0873669683933258, 
        0.008717567659914494, 
        -0.05525900796055794, 
        -3.8463982491521165e-05, 
        0.045222148299217224, 
        -0.09914347529411316, 
        -0.16999176144599915, 
        -0.17780472338199615, 
        0.14446644484996796, 
        0.1288505643606186, 
        -0.2251758873462677, 
        -0.2034786492586136, 
        0.021404927596449852, 
        -0.048090189695358276, 
        0.03806541860103607, 
        -0.07204631716012955, 
        0.017273250967264175, 
        -0.016156937927007675, 
        -0.10760876536369324, 
        0.00537066487595439, 
        0.06351085007190704, 
        -0.020245641469955444, 
        0.03184004873037338, 
        -0.051748938858509064, 
        -0.027602490037679672, 
        -0.17682328820228577, 
        0.08363904058933258, 
        0.044790856540203094, 
        -0.033185508102178574, 
        0.059390004724264145, 
        -0.09957822412252426, 
        0.04072663560509682, 
        0.0799182802438736, 
        -0.033382877707481384, 
        -0.01796058565378189, 
        0.23074957728385925, 
        0.030300015583634377, 
        0.2632851004600525, 
        0.00432989839464426, 
        -0.018831156194210052, 
        0.046861592680215836, 
        0.017933307215571404, 
        -0.021044384688138962, 
        0.019995365291833878, 
        0.2551526427268982, 
        0.08564404398202896, 
        0.04182327538728714, 
        0.030797066166996956, 
        -0.007640928961336613, 
        0.44893258810043335, 
        0.5142718553543091, 
        0.2918250858783722, 
        -0.03926394507288933, 
        0.0271238274872303, 
        -0.013923516497015953, 
        -0.06482978165149689, 
        -0.022339824587106705, 
        -0.045026667416095734, 
        -0.09257815778255463, 
        -0.05838604271411896, 
        -0.14036667346954346, 
        -0.14405754208564758, 
        0.1263333112001419, 
        0.021845649927854538, 
        -0.16909700632095337, 
        0.11739103496074677, 
        -0.0935308113694191, 
        -0.16352203488349915, 
        -0.16377191245555878, 
        0.03179989755153656, 
        0.04296768084168434, 
        0.012745046056807041, 
        0.01580069400370121, 
        -0.009710929356515408, 
        0.37235531210899353, 
        0.15534470975399017, 
        0.149249866604805, 
        0.09639264643192291, 
        0.016120698302984238, 
        0.014451520517468452, 
        -0.16090621054172516, 
        -0.008862507529556751, 
        0.1459454745054245, 
        -0.034803830087184906, 
        -0.04192373901605606, 
        0.18900921940803528, 
        0.02191248908638954, 
        0.19226326048374176, 
        -0.00707101309671998, 
        -0.027751469984650612, 
        -0.2014036327600479, 
        0.08845780789852142, 
        -0.03891129791736603, 
        -0.056886401027441025, 
        0.21374380588531494, 
        0.0046983566135168076, 
        0.04517354071140289, 
        0.002016244689002633, 
        0.022822508588433266, 
        0.49691706895828247, 
        0.5461894869804382, 
        0.2787127196788788, 
        -0.0012947814539074898, 
        0.07313200831413269, 
        0.03773459047079086, 
        -0.11485668271780014, 
        -0.1585511416196823, 
        -0.3208743929862976, 
        0.032818131148815155, 
        -0.00377765204757452, 
        -0.2648053467273712, 
        -0.343555212020874, 
        0.08029421418905258, 
        -0.0429186187684536, 
        -0.12589608132839203, 
        0.06875351071357727, 
        -0.07080704718828201, 
        -0.1838598996400833, 
        -0.21566328406333923, 
        0.05559916794300079, 
        0.10857600718736649, 
        0.021592268720269203, 
        -0.016611523926258087, 
        0.011916213668882847, 
        0.44074833393096924, 
        0.144171342253685, 
        0.03950188681483269, 
        0.02909272536635399, 
        -0.020248038694262505, 
        -0.0008524128934368491, 
        -0.06031019613146782, 
        0.1375274807214737, 
        0.08661408722400665, 
        0.006058863364160061, 
        -0.0487949512898922, 
        0.1280827820301056, 
        -0.017037440091371536, 
        0.13440436124801636, 
        0.020295368507504463, 
        -0.006107227876782417, 
        -0.03977588936686516, 
        -0.07482744753360748, 
        -0.03712741285562515, 
        0.058915309607982635, 
        0.030185669660568237, 
        0.005074746441096067, 
        0.06767632812261581, 
        0.028259575366973877, 
        -0.01440773718059063, 
        0.3868201673030853, 
        0.35264915227890015, 
        0.20271077752113342, 
        0.050865426659584045, 
        0.05747872591018677, 
        -0.01233744528144598, 
        0.042042672634124756, 
        -0.04294367507100105, 
        -0.12069027125835419, 
        -0.03151712194085121, 
        -0.10419584065675735, 
        -0.42354559898376465, 
        -0.3753684461116791, 
        0.03171004354953766, 
        0.08919590711593628, 
        0.03884555771946907, 
        0.08365601301193237, 
        -0.01586010679602623, 
        -0.1913941204547882, 
        -0.22085070610046387, 
        0.025732863694429398, 
        0.024836745113134384, 
        -0.016968034207820892, 
        0.018658356741070747, 
        -0.0018622553907334805, 
        0.27606862783432007, 
        -0.020853767171502113, 
        -0.030739957466721535, 
        -0.08986278623342514, 
        -0.0236587543040514, 
        0.06003575026988983, 
        -0.05235213041305542, 
        -0.04171082004904747, 
        -0.08240401744842529, 
        -0.013041187077760696, 
        -0.11183091253042221, 
        -0.11495223641395569, 
        0.02729731611907482, 
        -0.0923248752951622, 
        0.06631230562925339, 
        0.06665737181901932, 
        -0.04917353019118309, 
        -0.013280622661113739, 
        -0.01838347688317299, 
        -0.1388683319091797, 
        -0.05793381854891777, 
        0.09531903266906738, 
        0.02925044484436512, 
        -0.030265627428889275, 
        -0.07194873690605164, 
        -0.5561989545822144, 
        -0.5634745359420776, 
        -0.28036510944366455, 
        0.008877313695847988, 
        -0.0662529394030571, 
        -0.01221268717199564, 
        0.0407806895673275, 
        0.011067546904087067, 
        0.0727778822183609, 
        0.014837700873613358, 
        0.03236938267946243, 
        0.3512415587902069, 
        0.3654032349586487, 
        -0.03814327344298363, 
        0.0010580067755654454, 
        0.022051671519875526, 
        -0.11170889437198639, 
        0.013934215530753136, 
        0.195065438747406, 
        0.2433890402317047, 
        -0.018918022513389587, 
        -0.07535272091627121, 
        -0.00027970439987257123, 
        0.055779311805963516, 
        0.041355833411216736, 
        -0.29692280292510986, 
        0.0693548172712326, 
        -0.07615947723388672, 
        -0.11532673984766006, 
        0.07593730837106705, 
        0.03739126771688461, 
        -0.01973683014512062, 
        -0.05672731250524521, 
        -0.07532329112291336, 
        -0.01231591310352087, 
        -0.013913682661950588, 
        -0.1934589147567749, 
        0.0700601115822792, 
        -0.20862847566604614, 
        -0.0339113287627697, 
        0.021839763969182968, 
        -0.041471660137176514, 
        -0.014412684366106987, 
        -0.0007040208438411355, 
        -0.03736630454659462, 
        -0.1727273166179657, 
        -0.04696350172162056, 
        0.0005695158615708351, 
        -0.010461746715009212, 
        -0.00667377607896924, 
        -0.6970024108886719, 
        -0.6356966495513916, 
        -0.20828665792942047, 
        0.02283667027950287, 
        -0.02241557464003563, 
        0.0025304844602942467, 
        -0.12886038422584534, 
        -0.3389500677585602, 
        0.026266036555171013, 
        0.15081281960010529, 
        0.15417981147766113, 
        -0.006934335920959711, 
        0.0012171404669061303, 
        -0.06668425351381302, 
        -0.08084218204021454, 
        0.006105436943471432, 
        -0.09241774678230286, 
        0.05479968711733818, 
        0.15681494772434235, 
        0.1871972680091858, 
        -0.06449561566114426, 
        -0.09709308296442032, 
        -0.024154800921678543, 
        0.01890433393418789, 
        0.0034341297578066587, 
        -0.3571287989616394, 
        -0.12747275829315186, 
        -0.09178599715232849, 
        -0.08155830949544907, 
        -0.009072392247617245, 
        -0.04423012211918831, 
        -0.042645860463380814, 
        -0.07063305377960205, 
        -0.05156681686639786, 
        0.03869108855724335, 
        0.04213178530335426, 
        -0.1555199921131134, 
        0.005756358616054058, 
        -0.11993759870529175, 
        0.056758757680654526, 
        -0.04951925203204155, 
        0.0173964723944664, 
        -0.05314840376377106, 
        0.02228393591940403, 
        0.006609809119254351, 
        -0.1358143389225006, 
        -0.06355863064527512, 
        -0.05125969648361206, 
        0.002962457714602351, 
        -0.009857832454144955, 
        -0.6681717038154602, 
        -0.6011512875556946, 
        -0.27979812026023865, 
        0.005959213245660067, 
        -0.03716789186000824, 
        0.04876970127224922, 
        -0.2715796232223511, 
        -0.2459953874349594, 
        -0.044308003038167953, 
        0.09788525849580765, 
        0.10159579664468765, 
        0.2140846848487854, 
        0.23664608597755432, 
        -0.07423999160528183, 
        -0.07910549640655518, 
        0.04954319819808006, 
        -0.11005168408155441, 
        -0.03588230535387993, 
        0.22680948674678802, 
        0.19733324646949768, 
        -0.0935928151011467, 
        -0.10185671597719193, 
        0.006076275836676359, 
        0.05050812289118767, 
        0.03846888989210129, 
        -0.31910210847854614, 
        -0.04012477025389671, 
        -0.05674133822321892, 
        -0.050849609076976776, 
        0.01933450438082218, 
        0.0355449840426445, 
        -0.034693311899900436, 
        -0.04354868829250336, 
        -0.12299598008394241, 
        -0.03754151985049248, 
        0.009565931744873524, 
        -0.09077942371368408, 
        0.03563513606786728, 
        -0.14787983894348145, 
        0.03472617268562317, 
        -0.01164897158741951, 
        -0.014451718889176846, 
        0.021289782598614693, 
        0.017613818868994713, 
        -0.030370371416211128, 
        -0.14793625473976135, 
        0.023909127339720726, 
        0.005513831507414579, 
        -0.008104506880044937, 
        -0.022584741935133934, 
        -0.6138997077941895, 
        -0.6633986234664917, 
        -0.2352730631828308, 
        0.00921725295484066, 
        0.031238123774528503, 
        0.03991716355085373, 
        -0.06933269649744034, 
        -0.2346484661102295, 
        -0.0063893962651491165, 
        0.13901086151599884, 
        0.15604592859745026, 
        0.15993817150592804, 
        0.10893473029136658, 
        -0.12088483572006226, 
        -0.07639991492033005, 
        0.065413698554039, 
        -0.10119996964931488, 
        0.05662136152386665, 
        0.2374306619167328, 
        0.23328393697738647, 
        0.006741918157786131, 
        -0.021541060879826546, 
        0.02936701662838459, 
        -0.02052595093846321, 
        0.05708843097090721, 
        -0.361045241355896, 
        -0.0035939235240221024, 
        -0.06633716821670532, 
        -0.07470281422138214, 
        -0.02337576076388359, 
        -0.0008039665408432484, 
        -0.007180976215749979, 
        0.00350904930382967, 
        -0.018727844581007957, 
        -0.0175166055560112, 
        0.019296113401651382, 
        -0.1311754286289215, 
        0.04479166865348816, 
        -0.21630115807056427, 
        -0.006959452293813229, 
        0.014898921363055706, 
        0.0487973727285862, 
        0.03555711731314659, 
        -0.017940761521458626, 
        -0.023151667788624763, 
        -0.21051783859729767, 
        -0.096173495054245, 
        0.02268870547413826, 
        -0.027202008292078972, 
        -0.003342078998684883, 
        -0.48423245549201965, 
        -0.5783645510673523, 
        -0.20228974521160126, 
        -0.012590229511260986, 
        0.057944584637880325, 
        0.005103003699332476, 
        -0.17327886819839478, 
        -0.2394229918718338, 
        -0.004251664504408836, 
        0.15579628944396973, 
        0.12478020042181015, 
        -0.005164310336112976, 
        -0.08396057039499283, 
        -0.03435903042554855, 
        -0.07381631433963776, 
        0.028692126274108887, 
        -0.1265072077512741, 
        -0.0053372615948319435, 
        0.12805460393428802, 
        0.13191485404968262, 
        -0.026927271857857704, 
        -0.08590902388095856, 
        -0.056584037840366364, 
        -0.026744943112134933, 
        -0.0010812852997332811, 
        -0.4173778295516968, 
        -0.07092514634132385, 
        0.10113495588302612, 
        0.07336950302124023, 
        -0.054164547473192215, 
        0.027872664853930473, 
        0.06847406178712845, 
        0.11089679598808289, 
        0.11890807747840881, 
        0.0017488402081653476, 
        -0.11390187591314316, 
        0.16870971024036407, 
        0.016836443915963173, 
        0.179286926984787, 
        0.014949209056794643, 
        -0.0014596347464248538, 
        -0.045956626534461975, 
        -0.08523238450288773, 
        0.021380111575126648, 
        -0.04802550747990608, 
        0.15353932976722717, 
        0.014691983349621296, 
        0.044196613132953644, 
        -0.022480875253677368, 
        0.03483051061630249, 
        0.5290336012840271, 
        0.49782270193099976, 
        0.2089223563671112, 
        0.05639101564884186, 
        0.007124273106455803, 
        0.007814846001565456, 
        -0.008683005347847939, 
        -0.027073761448264122, 
        -0.0858726054430008, 
        0.044353239238262177, 
        -0.03379737213253975, 
        -0.4088132083415985, 
        -0.3409518599510193, 
        0.1292891949415207, 
        0.027814647182822227, 
        -0.0015909955836832523, 
        0.09929724782705307, 
        0.003094450570642948, 
        -0.2328914999961853, 
        -0.15491743385791779, 
        0.04086661711335182, 
        0.05518088489770889, 
        -0.005186649039387703, 
        0.09178563207387924, 
        -0.021817870438098907, 
        0.28403013944625854, 
        0.06152069941163063, 
        0.014583979733288288, 
        0.04844602942466736, 
        0.012064442969858646, 
        -0.05103454738855362, 
        0.039114125072956085, 
        0.054940421134233475, 
        0.036319538950920105, 
        0.005190879572182894, 
        -0.03797989338636398, 
        0.06610450148582458, 
        -0.03041180595755577, 
        0.047434888780117035, 
        -0.023285042494535446, 
        0.0036212727427482605, 
        0.020373255014419556, 
        0.05592226982116699, 
        -0.007873465307056904, 
        -0.05614130571484566, 
        -0.0023437251802533865, 
        -0.06654293090105057, 
        0.036105308681726456, 
        -0.029037725180387497, 
        -0.02700107917189598, 
        0.09263217449188232, 
        0.10456540435552597, 
        0.04181437939405441, 
        0.026897761970758438, 
        0.04868282750248909, 
        0.024512898176908493, 
        -0.1997007429599762, 
        -0.19531892240047455, 
        -0.1552230566740036, 
        0.045281991362571716, 
        0.058167070150375366, 
        -0.2845264971256256, 
        -0.32632172107696533, 
        0.028739064931869507, 
        0.06401662528514862, 
        0.08018668740987778, 
        0.007352896966040134, 
        0.0003333811182528734, 
        -0.11839357763528824, 
        -0.21294686198234558, 
        0.07314252108335495, 
        0.03858984634280205, 
        -0.060813385993242264, 
        -0.03261667117476463, 
        0.026481520384550095, 
        0.11101507395505905, 
        -0.00012751594476867467, 
        0.08411571383476257, 
        0.1362699568271637, 
        0.004365075379610062, 
        0.039049070328474045, 
        0.002859747502952814, 
        -0.026014575734734535, 
        0.16193823516368866, 
        -0.033948931843042374, 
        0.021550925448536873, 
        0.1729053258895874, 
        0.02602604404091835, 
        0.21250633895397186, 
        -0.013919346034526825, 
        -0.004653688985854387, 
        0.07238893210887909, 
        -0.02600277215242386, 
        -0.01914737932384014, 
        0.05001109093427658, 
        0.013607329688966274, 
        -0.117218978703022, 
        0.07729411125183105, 
        0.061099275946617126, 
        0.024877075105905533, 
        0.4633522033691406, 
        0.4471919536590576, 
        0.4978070855140686, 
        0.09088005125522614, 
        0.08213863521814346, 
        0.015688447281718254, 
        0.04639467969536781, 
        -0.08039607852697372, 
        -0.06647011637687683, 
        0.10470842570066452, 
        0.159955695271492, 
        -0.60909503698349, 
        -0.6323422789573669, 
        0.14768344163894653, 
        0.16259928047657013, 
        0.11882713437080383, 
        0.20237034559249878, 
        0.006484840530902147, 
        -0.2126425802707672, 
        -0.24015642702579498, 
        0.0509481206536293, 
        0.14283816516399384, 
        0.043203048408031464, 
        -0.0685938224196434, 
        0.014941181056201458, 
        0.4958297312259674, 
        -0.11310900747776031, 
        0.13194668292999268, 
        0.15562380850315094, 
        0.0429869145154953, 
        -0.0513610914349556, 
        0.018941449001431465, 
        -0.09160411357879639, 
        0.0718875452876091, 
        -0.04098314419388771, 
        0.08313396573066711, 
        0.094342902302742, 
        -0.053927890956401825, 
        0.18055452406406403, 
        -0.0013484801165759563, 
        0.010292621329426765, 
        0.036186493933200836, 
        0.02590121515095234, 
        0.029390037059783936, 
        -0.05895821750164032, 
        0.07270893454551697, 
        0.01297196839004755, 
        0.027736399322748184, 
        0.11764159053564072, 
        -0.02279185876250267, 
        0.4884660840034485, 
        0.49001216888427734, 
        0.19173812866210938, 
        0.11158968508243561, 
        0.12022273987531662, 
        0.014418071135878563, 
        0.40026262402534485, 
        0.4779941737651825, 
        0.27935561537742615, 
        -0.01015161257237196, 
        -0.08637025952339172, 
        -0.3960542678833008, 
        -0.43137842416763306, 
        0.162266343832016, 
        0.1501682847738266, 
        0.10238929092884064, 
        0.1677050143480301, 
        0.06864143162965775, 
        -0.17617350816726685, 
        -0.21653138101100922, 
        0.07475738227367401, 
        0.10601186752319336, 
        -0.0047194682992994785, 
        0.012766092084348202, 
        0.030641227960586548, 
        0.3470149636268616, 
        -0.06951529532670975, 
        -0.04680218547582626, 
        0.0005073223146609962, 
        0.03815320506691933, 
        0.06278518587350845, 
        -0.015100168064236641, 
        -0.08464237302541733, 
        -0.06085469573736191, 
        0.03140601888298988, 
        -0.01552547700703144, 
        -0.06929843127727509, 
        -0.04964084178209305, 
        -0.08474767208099365, 
        -0.009442157112061977, 
        0.03165814280509949, 
        -0.025577746331691742, 
        -0.034942056983709335, 
        0.028698410838842392, 
        -0.0035203592851758003, 
        -0.12716610729694366, 
        -0.04479829967021942, 
        -0.03848648443818092, 
        -0.03447001054883003, 
        0.07621979713439941, 
        -0.3994961977005005, 
        -0.3940531313419342, 
        -0.10924769937992096, 
        -0.008992234244942665, 
        -0.009961801581084728, 
        0.03171713277697563, 
        0.002132246969267726, 
        -0.10568682104349136, 
        0.05185331031680107, 
        0.07531090825796127, 
        0.08281451463699341, 
        0.19206450879573822, 
        0.19227607548236847, 
        -0.07614441961050034, 
        -0.03833648934960365, 
        0.002930952003225684, 
        -0.09522813558578491, 
        -0.0055910805240273476, 
        0.14112946391105652, 
        0.1782083362340927, 
        -0.019267648458480835, 
        -0.03394082188606262, 
        -0.0009968781378120184, 
        0.07752484083175659, 
        -0.006332430522888899, 
        -0.3263092041015625, 
        -0.03130628913640976, 
        0.1242632046341896, 
        0.07946889102458954, 
        0.00046919769374653697, 
        0.010861857794225216, 
        -0.06148826703429222, 
        -0.014602902345359325, 
        0.11482958495616913, 
        0.050603512674570084, 
        -0.043154727667570114, 
        0.15701384842395782, 
        0.03606124222278595, 
        0.17028699815273285, 
        0.017788266763091087, 
        0.0019213255727663636, 
        0.10464180260896683, 
        -0.04011782631278038, 
        0.013656435534358025, 
        -0.03260868415236473, 
        0.2185608148574829, 
        0.10046062618494034, 
        0.0455232635140419, 
        0.08135756105184555, 
        0.0022757244296371937, 
        0.6238526105880737, 
        0.6179347038269043, 
        0.2106986939907074, 
        4.957302371622063e-05, 
        0.08985979110002518, 
        0.009504249319434166, 
        0.05203741788864136, 
        0.09193826466798782, 
        -0.14482422173023224, 
        0.01861860603094101, 
        -0.08426956832408905, 
        -0.2925596237182617, 
        -0.37636396288871765, 
        0.1522752344608307, 
        -0.0335882343351841, 
        -0.03882059082388878, 
        0.11053291708230972, 
        0.03875580057501793, 
        -0.24619311094284058, 
        -0.23912490904331207, 
        0.10181788355112076, 
        0.11046766489744186, 
        -0.008310594595968723, 
        0.004209272563457489, 
        0.029650164768099785, 
        0.38434353470802307, 
        0.1022278219461441, 
        0.10770004987716675, 
        0.014187037013471127, 
        0.021758712828159332, 
        -0.017608294263482094, 
        -0.09033995121717453, 
        -0.10903357714414597, 
        0.039381131529808044, 
        0.008107023313641548, 
        0.17480705678462982, 
        0.16093489527702332, 
        0.0017086522420868278, 
