{
  "defaults": {}, 
  "inputs": [
    {
      "name": "variable_name0", 
      "offset": "0", 
      "scale": "1"
    }, 
    {
      "name": "variable_name1", 
      "offset": "0", 
      "scale": "1"
    }, 
    {
      "name": "variable_name2", 
      "offset": "0", 
      "scale": "1"
    }, 
    {
      "name": "variable_name3", 
      "offset": "0", 
      "scale": "1"
    }, 
    {
      "name": "variable_name4", 
      "offset": "0", 
      "scale": "1"
    }, 
    {
      "name": "variable_name5", 
      "offset": "0", 
      "scale": "1"
    }, 
    {
      "name": "variable_name6", 
      "offset": "0", 
      "scale": "1"
    }, 
    {
      "name": "variable_name7", 
      "offset": "0", 
      "scale": "1"
    }, 
    {
      "name": "variable_name8", 
      "offset": "0", 
      "scale": "1"
    }, 
    {
      "name": "variable_name9", 
      "offset": "0", 
      "scale": "1"
    }, 
    {
      "name": "variable_name10", 
      "offset": "0", 
      "scale": "1"
    }, 
    {
      "name": "variable_name11", 
      "offset": "0", 
      "scale": "1"
    }, 
    {
      "name": "variable_name12", 
      "offset": "0", 
      "scale": "1"
    }, 
    {
      "name": "variable_name13", 
      "offset": "0", 
      "scale": "1"
    }, 
    {
      "name": "variable_name14", 
      "offset": "0", 
      "scale": "1"
    }, 
    {
      "name": "variable_name15", 
      "offset": "0", 
      "scale": "1"
    }, 
    {
      "name": "variable_name16", 
      "offset": "0", 
      "scale": "1"
    }, 
    {
      "name": "variable_name17", 
      "offset": "0", 
      "scale": "1"
    }, 
    {
      "name": "variable_name18", 
      "offset": "0", 
      "scale": "1"
    }, 
    {
      "name": "variable_name19", 
      "offset": "0", 
      "scale": "1"
    }, 
    {
      "name": "variable_name20", 
      "offset": "0", 
      "scale": "1"
    }, 
    {
      "name": "variable_name21", 
      "offset": "0", 
      "scale": "1"
    }, 
    {
      "name": "variable_name22", 
      "offset": "0", 
      "scale": "1"
    }, 
    {
      "name": "variable_name23", 
      "offset": "0", 
      "scale": "1"
    }, 
    {
      "name": "variable_name24", 
      "offset": "0", 
      "scale": "1"
    }, 
    {
      "name": "variable_name25", 
      "offset": "0", 
      "scale": "1"
    }, 
    {
      "name": "variable_name26", 
      "offset": "0", 
      "scale": "1"
    }, 
    {
      "name": "variable_name27", 
      "offset": "0", 
      "scale": "1"
    }, 
    {
      "name": "variable_name28", 
      "offset": "0", 
      "scale": "1"
    }, 
    {
      "name": "variable_name29", 
      "offset": "0", 
      "scale": "1"
    }, 
    {
      "name": "variable_name30", 
      "offset": "0", 
      "scale": "1"
    }, 
    {
      "name": "variable_name31", 
      "offset": "0", 
      "scale": "1"
    }, 
    {
      "name": "variable_name32", 
      "offset": "0", 
      "scale": "1"
    }, 
    {
      "name": "variable_name33", 
      "offset": "0", 
      "scale": "1"
    }, 
    {
      "name": "variable_name34", 
      "offset": "0", 
      "scale": "1"
    }, 
    {
      "name": "variable_name35", 
      "offset": "0", 
      "scale": "1"
    }, 
    {
      "name": "variable_name36", 
      "offset": "0", 
      "scale": "1"
    }, 
    {
      "name": "variable_name37", 
      "offset": "0", 
      "scale": "1"
    }, 
    {
      "name": "variable_name38", 
      "offset": "0", 
      "scale": "1"
    }, 
    {
      "name": "variable_name39", 
      "offset": "0", 
      "scale": "1"
    }, 
    {
      "name": "variable_name40", 
      "offset": "0", 
      "scale": "1"
    }, 
    {
      "name": "variable_name41", 
      "offset": "0", 
      "scale": "1"
    }, 
    {
      "name": "variable_name42", 
      "offset": "0", 
      "scale": "1"
    }, 
    {
      "name": "variable_name43", 
      "offset": "0", 
      "scale": "1"
    }, 
    {
      "name": "variable_name44", 
      "offset": "0", 
      "scale": "1"
    }, 
    {
      "name": "variable_name45", 
      "offset": "0", 
      "scale": "1"
    }, 
    {
      "name": "variable_name46", 
      "offset": "0", 
      "scale": "1"
    }, 
    {
      "name": "variable_name47", 
      "offset": "0", 
      "scale": "1"
    }, 
    {
      "name": "variable_name48", 
      "offset": "0", 
      "scale": "1"
    }, 
    {
      "name": "variable_name49", 
      "offset": "0", 
      "scale": "1"
    }
  ], 
  "layers": [
    {
      "activation": "rectified", 
      "architecture": "dense", 
      "bias": [
        0.10484663397073746, 
        0.13059264421463013, 
        0.11726222187280655, 
        -0.08371517807245255, 
        0.11044418811798096, 
        0.11494212597608566, 
        0.11256864666938782, 
        0.07954674959182739, 
        -0.10435689240694046, 
        0.10527067631483078, 
        -0.03389715030789375, 
        0.10327869653701782, 
        -0.09274610877037048, 
        -0.008140902034938335, 
        0.11767108738422394, 
        0.07410955429077148, 
        0.0016619673697277904, 
        0.1545787900686264, 
        -0.08394304662942886, 
        -0.049607183784246445, 
        0.11808370798826218, 
        -0.08284489810466766, 
        -0.04984227195382118, 
        -0.02024165540933609, 
        -0.054094888269901276, 
        -0.10117663443088531, 
        0.10523964464664459, 
        0.0997072234749794, 
        -0.03475049138069153, 
        0.10014249384403229, 
        -0.07156409323215485, 
        0.07471370697021484, 
        0.0876060426235199, 
        0.13360357284545898, 
        0.09707961231470108, 
        0.11347750574350357, 
        -0.04427031800150871, 
        0.1031731367111206, 
        0.054400019347667694, 
        0.10352379083633423, 
        -0.10765929520130157, 
        0.15194568037986755, 
        0.12569162249565125, 
        -0.05728252977132797, 
        0.11788532137870789, 
        -0.008645866066217422, 
        0.09534517675638199, 
        -0.026631273329257965, 
        0.10716777294874191, 
        0.06344202905893326, 
        -0.04704977944493294, 
        0.09893961995840073, 
        0.05751945078372955, 
        -0.10312783718109131, 
        0.014955791644752026, 
        0.1146402433514595, 
        0.0859035924077034, 
        0.015736417844891548, 
        -0.012725332751870155, 
        -0.09994134306907654, 
        0.13470253348350525, 
        0.09158287197351456, 
        0.082545205950737, 
        -0.1012003943324089, 
        -0.10785339772701263, 
        0.11393009126186371, 
        0.08905912935733795, 
        0.08232318609952927, 
        0.11247432976961136, 
        -0.08339418470859528, 
        0.11317980289459229, 
        0.013084743171930313, 
        -0.03191360458731651, 
        -0.02339468151330948, 
        0.11663074046373367, 
        -0.08578314632177353, 
        -0.006355948280543089, 
        0.11919843405485153, 
        -0.04852987825870514, 
        0.08450398594141006, 
        0.10100715607404709, 
        -0.028279069811105728, 
        0.11527266353368759, 
        -0.10256078839302063, 
        0.15632256865501404, 
        0.09062361717224121, 
        -0.0935363695025444, 
        0.1072496697306633, 
        -0.007263735868036747, 
        0.05784085392951965, 
        0.11042815446853638, 
        -0.012957732193171978, 
        -0.029029928147792816, 
        0.11982182413339615, 
        -0.08813051879405975, 
        0.08947161585092545, 
        -0.003932476509362459, 
        -0.049549952149391174, 
        0.1010071262717247, 
        0.14644283056259155
      ], 
      "weights": [
        0.056671567261219025, 
        0.05732971429824829, 
        0.02792091853916645, 
        0.018467875197529793, 
        0.04931732639670372, 
        0.055539872497320175, 
        0.1421610713005066, 
        -0.04760250821709633, 
        0.008403107523918152, 
        0.10956846177577972, 
        -0.1852443963289261, 
        0.23482035100460052, 
        -0.01935695670545101, 
        0.00678002554923296, 
        -0.05038704350590706, 
        -0.022762544453144073, 
        -0.016902782022953033, 
        0.03137911856174469, 
        0.05216483771800995, 
        0.014228773303329945, 
        0.0846581682562828, 
        0.05546119809150696, 
        -0.03608934208750725, 
        0.12214837968349457, 
        0.09033464640378952, 
        0.13000386953353882, 
        0.06976693123579025, 
        0.07073280215263367, 
        0.04997085779905319, 
        -0.3236810564994812, 
        -0.13257741928100586, 
        -0.27166688442230225, 
        -0.06017576530575752, 
        -0.027233418077230453, 
        -0.0031951789278537035, 
        -0.03708133473992348, 
        0.09363984316587448, 
        -0.032958194613456726, 
        -0.11107228696346283, 
        -0.0007660883711650968, 
        0.011278057470917702, 
        -0.035842325538396835, 
        0.03914206102490425, 
        0.09373046457767487, 
        0.058666910976171494, 
        0.0249253548681736, 
        -0.02155003510415554, 
        0.0479663647711277, 
        0.4397546648979187, 
        -0.20117147266864777, 
        0.1558251529932022, 
        0.1137629896402359, 
        -0.052614741027355194, 
        0.011731433682143688, 
        0.11228884011507034, 
        0.041595447808504105, 
        0.1112431064248085, 
        0.021779770031571388, 
        -0.0748741403222084, 
        0.0023367153480648994, 
        -0.08995648473501205, 
        0.06649678945541382, 
        -0.001338524860329926, 
        0.010981819592416286, 
        -0.131508931517601, 
        0.006465572398155928, 
        -0.0020937176886945963, 
        0.06814047694206238, 
        -0.02258443459868431, 
        0.035061538219451904, 
        0.1139424592256546, 
        0.12282277643680573, 
        0.013163672760128975, 
        0.0232158824801445, 
        0.06187688186764717, 
        0.053691938519477844, 
        0.1180100068449974, 
        0.11004775017499924, 
        0.024231046438217163, 
        -0.2872517704963684, 
        -0.2155388742685318, 
        -0.2536473870277405, 
        0.13580220937728882, 
        0.020514389500021935, 
        -0.10681476444005966, 
        -0.07454883307218552, 
        0.16454944014549255, 
        0.04194056615233421, 
        -0.08636923134326935, 
        0.06966298818588257, 
        -0.004556314554065466, 
        -0.06214386597275734, 
        -0.03472883254289627, 
        0.1177804172039032, 
        0.10687977820634842, 
        0.01995607651770115, 
        0.006562451831996441, 
        -0.018010806292295456, 
        0.27949410676956177, 
        -0.22046005725860596, 
        0.10990215092897415, 
        0.14821109175682068, 
        0.03572750464081764, 
        -0.08986636996269226, 
        -0.008507679216563702, 
        0.009991818107664585, 
        0.1240716502070427, 
        -0.03065692074596882, 
        0.02666035294532776, 
        0.13194279372692108, 
        -0.08259706199169159, 
        0.1423308551311493, 
        0.012260276824235916, 
        -0.05618168041110039, 
        0.028432179242372513, 
        0.018886754289269447, 
        -0.0023209804203361273, 
        -0.0003570101107470691, 
        0.12348277121782303, 
        0.06324252486228943, 
        0.12413927912712097, 
        0.08188953250646591, 
        -0.031398676335811615, 
        0.07803467661142349, 
        0.11532790958881378, 
        0.14755667746067047, 
        0.08117599785327911, 
        0.11048956215381622, 
        0.006735890172421932, 
        -0.23683346807956696, 
        -0.06837638467550278, 
        -0.06334006786346436, 
        -0.04075762629508972, 
        -0.0461077056825161, 
        -0.03057396039366722, 
        -0.034738689661026, 
        0.09219159930944443, 
        0.0528087392449379, 
        -0.04486804082989693, 
        0.06315568834543228, 
        0.020190740004181862, 
        0.0475212037563324, 
        0.026576004922389984, 
        0.11005886644124985, 
        0.1593291312456131, 
        0.006285136565566063, 
        0.0389714241027832, 
        0.009081793017685413, 
        0.5018827319145203, 
        -0.31222420930862427, 
        -0.05857183784246445, 
        -0.08899550139904022, 
        0.03172381967306137, 
        0.0687338188290596, 
        -0.035743728280067444, 
        0.060451701283454895, 
        -0.09340393543243408, 
        0.0001385096984449774, 
        -0.020356029272079468, 
        -0.18683384358882904, 
        0.119371198117733, 
        -0.30231624841690063, 
        0.06093110889196396, 
        0.005976655520498753, 
        0.01021858211606741, 
        0.0061457096599042416, 
        0.027581319212913513, 
        0.0150133753195405, 
        -0.15682843327522278, 
        0.046313390135765076, 
        -0.0498422272503376, 
        -0.04628786817193031, 
        0.019069310277700424, 
        -0.15211796760559082, 
        -0.12944583594799042, 
        -0.11549387127161026, 
        -0.057141903787851334, 
        -0.1141790822148323, 
        -0.03655421361327171, 
        0.19886067509651184, 
        0.0016303561860695481, 
        0.08157537877559662, 
        0.04268234595656395, 
        0.04371948540210724, 
        -0.18318848311901093, 
        -0.27069514989852905, 
        -0.0902254655957222, 
        -0.003288750071078539, 
        -8.80855368450284e-05, 
        0.005932160187512636, 
        0.047742195427417755, 
        0.03762340173125267, 
        0.028396625071763992, 
        -0.11662016808986664, 
        -0.12032131105661392, 
        -0.09396236389875412, 
        0.004977251403033733, 
        0.04806914180517197, 
        -0.6490153074264526, 
        0.1397990882396698, 
        0.15383565425872803, 
        0.11698144674301147, 
        0.010605805553495884, 
        -0.03039456345140934, 
        0.09097836166620255, 
        -0.05805802717804909, 
        0.15350162982940674, 
        -0.0063497466035187244, 
        0.07661614567041397, 
        0.13933242857456207, 
        -0.13405488431453705, 
        0.2219560295343399, 
        -0.012865543365478516, 
        0.026999136433005333, 
        -0.042911943048238754, 
        0.00669860327616334, 
        -0.02173917181789875, 
        0.0349956750869751, 
        0.03204889968037605, 
        -0.00849344115704298, 
        0.08955679833889008, 
        0.07975427806377411, 
        0.0346367210149765, 
        0.08150109648704529, 
        0.10660556703805923, 
        0.09982644021511078, 
        0.07170848548412323, 
        0.09637904167175293, 
        -0.03375127539038658, 
        -0.2998231053352356, 
        -0.11269182711839676, 
        -0.30207476019859314, 
        -0.06704019010066986, 
        0.003589373780414462, 
        0.021367667242884636, 
        0.042545296251773834, 
        0.1336478590965271, 
        0.044630758464336395, 
        -0.09581612050533295, 
        0.0564919114112854, 
        0.014558958820998669, 
        -0.021022439002990723, 
        0.011383728124201298, 
        0.07183372974395752, 
        0.09000672399997711, 
        0.042503345757722855, 
        0.00013138080248609185, 
        0.04325877130031586, 
        0.4811254143714905, 
        -0.22487112879753113, 
        0.11251108348369598, 
        0.13293227553367615, 
        -0.00767652690410614, 
        0.008156356401741505, 
        0.02137279137969017, 
        0.06142449378967285, 
        0.08797112107276917, 
        0.039776623249053955, 
        -0.020250873640179634, 
        0.06233948469161987, 
        -0.12192155420780182, 
        0.10794299840927124, 
        -0.04051705822348595, 
        0.031400665640830994, 
        0.02132296748459339, 
        -0.008200655691325665, 
        -0.02549702115356922, 
        0.03970082849264145, 
        0.06786828488111496, 
        0.0021793334744870663, 
        0.07599420845508575, 
        0.07840120047330856, 
        0.011516626924276352, 
        0.10917461663484573, 
        0.0867871344089508, 
        0.10141381621360779, 
        0.05581707879900932, 
        0.1460971236228943, 
        -0.0318254716694355, 
        -0.2810975909233093, 
        -0.20049692690372467, 
        -0.2524639666080475, 
        -0.009613435715436935, 
        -0.09231632947921753, 
        -0.021932192146778107, 
        0.02519083395600319, 
        0.09237539768218994, 
        -0.05682466924190521, 
        -0.09121056646108627, 
        -0.017736507579684258, 
        -0.05854956805706024, 
        0.04750844091176987, 
        -0.0935729518532753, 
        0.07819642871618271, 
        0.1293490082025528, 
        0.02420082315802574, 
        -0.008803384378552437, 
        0.014377680607140064, 
        0.37254253029823303, 
        -0.2855977714061737, 
        0.10709016025066376, 
        0.14019423723220825, 
        0.037338413298130035, 
        -0.0010735513642430305, 
        -0.00347877643071115, 
        -0.012515638023614883, 
        0.06360598653554916, 
        -0.0011367211118340492, 
        0.005172394681721926, 
        -0.20052988827228546, 
        -0.02740047499537468, 
        -0.2654217481613159, 
        0.042122818529605865, 
        -0.08373193442821503, 
        0.012299926951527596, 
        -0.020211802795529366, 
        -0.035563867539167404, 
        -0.0236057136207819, 
        -0.14648336172103882, 
        -0.051597997546195984, 
        0.08489741384983063, 
        0.13023506104946136, 
        0.06711047887802124, 
        -0.08664348721504211, 
        -0.02071457915008068, 
        -0.0572824627161026, 
        0.0832594707608223, 
        0.1297646164894104, 
        -0.008141092956066132, 
        -0.15000957250595093, 
        -0.22344908118247986, 
        -0.10563311725854874, 
        0.0066243186593055725, 
        0.010075652971863747, 
        -0.40581634640693665, 
        -0.43749308586120605, 
        0.14377468824386597, 
        -0.029008373618125916, 
        -0.11831266433000565, 
        -0.00095824443269521, 
        -0.0021593531128019094, 
        0.002940994454547763, 
        -0.12846456468105316, 
        0.106810063123703, 
        0.152704119682312, 
        -0.03739514201879501, 
        0.02371039427816868, 
        -0.015545275062322617, 
        -0.38946279883384705, 
        -0.22727073729038239, 
        0.03157234936952591, 
        0.10156048834323883, 
        0.024614807218313217, 
        0.033308591693639755, 
        0.02327384613454342, 
        0.007923292927443981, 
        0.07095790654420853, 
        -0.040712710469961166, 
        0.0525246225297451, 
        -0.24063719809055328, 
        0.06391949951648712, 
        -0.26766154170036316, 
        0.07354895770549774, 
        0.04559694975614548, 
        -0.006472253240644932, 
        -0.013755897991359234, 
        -0.035748787224292755, 
        -0.01535803359001875, 
        -0.11848263442516327, 
        0.16507792472839355, 
        0.010016062296926975, 
        0.008353935554623604, 
        2.6928784791380167e-05, 
        -0.023755241185426712, 
        -0.041471127420663834, 
        -0.10173922032117844, 
        0.02449599839746952, 
        0.05964641273021698, 
        0.0025096796452999115, 
        -0.03495204076170921, 
        -0.07621075212955475, 
        -0.019312748685479164, 
        -0.037602491676807404, 
        -0.03961636871099472, 
        -0.36009547114372253, 
        -0.3424034118652344, 
        0.11841803044080734, 
        0.04895099997520447, 
        -0.042641423642635345, 
        0.27447983622550964, 
        0.05651206150650978, 
        -0.08453599363565445, 
        -0.15592220425605774, 
        0.06747559458017349, 
        0.12903442978858948, 
        -0.0918537825345993, 
        0.022375311702489853, 
        -0.04397570341825485, 
        -0.7181535959243774, 
        -0.07981271296739578, 
        -0.12709589302539825, 
        -0.1537272036075592, 
        0.019477609544992447, 
        0.06601066887378693, 
        -0.025191808119416237, 
        0.0147849190980196, 
        -0.1313663274049759, 
        -0.00046018470311537385, 
        -0.016569949686527252, 
        -0.17304866015911102, 
        0.1569357067346573, 
        -0.25878065824508667, 
        0.02202601172029972, 
        0.01779123768210411, 
        -0.0064631858840584755, 
        -0.011980272829532623, 
        -0.03409974277019501, 
        0.022028740495443344, 
        -0.06588659435510635, 
        0.036390241235494614, 
        -0.10550972819328308, 
        -0.0693531185388565, 
        0.007848667912185192, 
        -0.16295914351940155, 
        -0.08434367924928665, 
        -0.08199900388717651, 
        -0.0840575098991394, 
        -0.08977267891168594, 
        0.0035819585900753736, 
        0.24826966226100922, 
        0.11771730333566666, 
        0.10946689546108246, 
        0.011054101400077343, 
        0.02866354212164879, 
        -0.13836756348609924, 
        -0.16555078327655792, 
        -0.13247953355312347, 
        -0.0035359724424779415, 
        0.10368961840867996, 
        -0.0058750431053340435, 
        0.053790949285030365, 
        -0.04563937708735466, 
        0.020345263183116913, 
        -0.047393351793289185, 
        -0.08921545743942261, 
        -0.0008491447661072016, 
        -0.01832096092402935, 
        -0.0010245287558063865, 
        -0.5641207695007324, 
        0.21413414180278778, 
        0.10005991905927658, 
        0.09302058815956116, 
        -0.018675360828638077, 
        0.05002778768539429, 
        -0.028718436136841774, 
        -0.020996231585741043, 
        0.07385498285293579, 
        -0.033009424805641174, 
        -0.0015525907510891557, 
        -0.33308249711990356, 
        -0.002922719344496727, 
        -0.3318617045879364, 
        0.037229813635349274, 
        -0.008556973189115524, 
        0.035007599741220474, 
        -0.014283943921327591, 
        0.05200830474495888, 
        0.08475517481565475, 
        -0.21162636578083038, 
        0.03753940761089325, 
        0.06332942843437195, 
        0.05118388682603836, 
        0.002175151603296399, 
        -0.12289994955062866, 
        -0.14584875106811523, 
        -0.0592423714697361, 
        0.009254243224859238, 
        0.10121278464794159, 
        -0.014382980763912201, 
        -0.02649853006005287, 
        -0.15543240308761597, 
        -0.09151085466146469, 
        -0.0010417179437354207, 
        -0.013504771515727043, 
        -0.3709515631198883, 
        -0.42693933844566345, 
        0.10022514313459396, 
        -0.006189666222780943, 
        -0.04113922268152237, 
        0.17936792969703674, 
        0.06404215097427368, 
        -0.046578992158174515, 
        -0.1120280846953392, 
        0.15234708786010742, 
        0.06219035014510155, 
        -0.11411567777395248, 
        0.08878754079341888, 
        -0.022343840450048447, 
        -0.8206636905670166, 
        -0.08344943076372147, 
        -0.022678814828395844, 
        -0.04272326081991196, 
        0.03954675421118736, 
        0.017473643645644188, 
        -0.0005939564434811473, 
        -0.014492823742330074, 
        -0.02357412315905094, 
        -0.019491713494062424, 
        -0.07080072164535522, 
        -0.21729980409145355, 
        0.0631040558218956, 
        -0.28899911046028137, 
        0.04951384663581848, 
        0.034942325204610825, 
        -0.023195616900920868, 
        -0.015504000708460808, 
        0.009217003360390663, 
        -0.021903913468122482, 
        -0.13314466178417206, 
        -0.010154403746128082, 
        -0.0014394500758498907, 
        -0.07819081097841263, 
        0.023851651698350906, 
        -0.08665217459201813, 
        -0.09113629907369614, 
        -0.10479321330785751, 
        -0.027194922789931297, 
        -0.07655204087495804, 
        -0.01259195152670145, 
        0.06557665020227432, 
        -0.02054908126592636, 
        0.049123529344797134, 
        -0.021408600732684135, 
        -0.03761645779013634, 
        -0.2775394320487976, 
        -0.22007209062576294, 
        -0.09357821196317673, 
        -0.036515481770038605, 
        0.028369273990392685, 
        -0.002219422021880746, 
        0.0854557529091835, 
        -0.04410558566451073, 
        0.000325957516906783, 
        -0.00646281847730279, 
        -0.03527652099728584, 
        -0.06624900549650192, 
        0.007470415905117989, 
        -0.019880501553416252, 
        -0.6008414626121521, 
        0.053497444838285446, 
        0.12949354946613312, 
        0.05481356754899025, 
        0.031158948317170143, 
        0.0852622389793396, 
        0.09295784682035446, 
        -0.06242826581001282, 
        0.13039886951446533, 
        -0.007774378173053265, 
        0.03301044553518295, 
        0.03131670132279396, 
        -0.15530630946159363, 
        0.0918920710682869, 
        -0.07083557546138763, 
        0.03992235288023949, 
        -0.03417695313692093, 
        -0.026128794997930527, 
        -0.004042282234877348, 
        -0.0313146635890007, 
        -0.01530000101774931, 
        -0.0031920287292450666, 
        0.10054227709770203, 
        0.09852080047130585, 
        -0.007902543060481548, 
        0.09989369660615921, 
        0.10764939337968826, 
        0.051297999918460846, 
        0.0524795800447464, 
        0.11291340738534927, 
        -0.020182043313980103, 
        -0.3052820861339569, 
        -0.14863790571689606, 
        -0.38543522357940674, 
        -0.031793832778930664, 
        0.01571732945740223, 
        0.04296093434095383, 
        0.032671816647052765, 
        0.09762804955244064, 
        0.013050753623247147, 
        -0.10743345320224762, 
        0.032753895968198776, 
        -0.011167295277118683, 
        0.0022829719819128513, 
        -0.01861192286014557, 
        0.08456406742334366, 
        0.14111946523189545, 
        0.049877312034368515, 
        0.05811817944049835, 
        -0.030409466475248337, 
        0.2553822100162506, 
        -0.062140777707099915, 
        -0.09936760365962982, 
        -0.08458052575588226, 
        -0.012277818284928799, 
        0.023286141455173492, 
        0.01042429730296135, 
        -0.007606226019561291, 
        -0.14035004377365112, 
        -0.04006270319223404, 
        -0.008730309084057808, 
        -0.0535987988114357, 
        0.10558521002531052, 
        -0.1471376121044159, 
        -0.05227551981806755, 
        0.021998979151248932, 
        0.007051396183669567, 
        -0.01577875204384327, 
        0.043966129422187805, 
        0.0073102982714772224, 
        -0.057058293372392654, 
        -0.02952040359377861, 
        -0.1062917485833168, 
        -0.06571068614721298, 
        -0.00449549313634634, 
        -0.1161712259054184, 
        -0.12528842687606812, 
        -0.06299672275781631, 
        -0.1063634604215622, 
        -0.05503825470805168, 
        0.026394346728920937, 
        0.1905030757188797, 
        0.08384241908788681, 
        0.10561086982488632, 
        0.03824380040168762, 
        -0.03264624997973442, 
        -0.0547146312892437, 
        -0.03579314053058624, 
        -0.0857926607131958, 
        -0.023474106565117836, 
        0.10114247351884842, 
        -0.025079907849431038, 
        0.04083789512515068, 
        -0.016947921365499496, 
        0.017196614295244217, 
        -0.07582489401102066, 
        -0.11181306838989258, 
        0.00826638750731945, 
        0.037400808185338974, 
        -0.005091128870844841, 
        -0.33935073018074036, 
        0.1327134519815445, 
        -0.05637190118432045, 
        -0.00042359542567282915, 
        -0.0017533359350636601, 
        0.019533740356564522, 
        -0.009533999487757683, 
        0.046731602400541306, 
        -0.014807409606873989, 
        0.04419315606355667, 
        -0.02796216495335102, 
        -0.1402609795331955, 
        0.036550719290971756, 
        -0.24361877143383026, 
        0.010471278801560402, 
        -0.039409395307302475, 
        0.004719527438282967, 
        0.02565896324813366, 
        0.0006626962567679584, 
        0.004288112744688988, 
        -0.14381450414657593, 
        0.009042203426361084, 
        -0.001802388345822692, 
        -0.058782052248716354, 
        -0.018238350749015808, 
        -0.12384100258350372, 
        -0.13851889967918396, 
        -0.0656498521566391, 
        -0.02290620282292366, 
        -0.030142949894070625, 
        0.03142046555876732, 
        0.06668978929519653, 
        -0.002875415375456214, 
        -0.004478932823985815, 
        0.04279068112373352, 
        -0.02866836078464985, 
        -0.19260039925575256, 
        -0.1484753042459488, 
        -0.04850957915186882, 
        -0.014195675030350685, 
        0.030218232423067093, 
        0.05515990033745766, 
        -0.046977054327726364, 
        0.04671543091535568, 
        0.04946358501911163, 
        -0.0025341648142784834, 
        -0.053972139954566956, 
        -0.09398391842842102, 
        0.016781968995928764, 
        -0.019597163423895836, 
        -0.44017764925956726, 
        -0.017505653202533722, 
        0.09167506545782089, 
        0.14681941270828247, 
        -0.0538608580827713, 
        0.007633514702320099, 
        -0.033511653542518616, 
        0.01389983855187893, 
        0.15690948069095612, 
        -0.01113363727927208, 
        0.015181036666035652, 
        0.0692930817604065, 
        -0.17582161724567413, 
        0.22758673131465912, 
        -0.03335687518119812, 
        0.021501189097762108, 
        0.013611959293484688, 
        0.046400297433137894, 
        0.01210725773125887, 
        0.06236650422215462, 
        0.026521431282162666, 
        -0.03681774064898491, 
        0.13513757288455963, 
        0.09197022020816803, 
        0.017451604828238487, 
        0.12936948239803314, 
        0.15909451246261597, 
        0.09696348756551743, 
        0.08911841362714767, 
        0.09484758228063583, 
        0.0378471314907074, 
        -0.3035917580127716, 
        -0.2221589982509613, 
        -0.28681448101997375, 
        -0.023410547524690628, 
        0.03134908527135849, 
        0.07210171222686768, 
        -8.173268724931404e-06, 
        0.16921789944171906, 
        -0.040012553334236145, 
        -0.0733555406332016, 
        -0.04597342386841774, 
        -0.07003218680620193, 
        -0.0165740754455328, 
        -0.036430876702070236, 
        0.09463110566139221, 
        0.1593361794948578, 
        0.0006799965631216764, 
        0.0015648858388885856, 
        0.04450896009802818, 
        0.42848721146583557, 
        -0.25662216544151306, 
        0.11868271231651306, 
        0.12258491665124893, 
        0.05892857164144516, 
        -0.18466880917549133, 
        -0.29360437393188477, 
        0.0037734319921582937, 
        0.12787839770317078, 
        -0.019792186096310616, 
        -0.019434047862887383, 
        0.3638146221637726, 
        0.019071538001298904, 
        0.3712094724178314, 
        0.06674160808324814, 
        0.06325507909059525, 
        0.11623575538396835, 
        -0.08231044560670853, 
        -0.028086835518479347, 
        0.008516247384250164, 
        0.4885040521621704, 
        0.18521720170974731, 
        0.06898659467697144, 
        0.0660184845328331, 
        -0.03023838810622692, 
        0.26480329036712646, 
        0.3337901532649994, 
        0.20159220695495605, 
        0.09062538295984268, 
        0.03552999719977379, 
        0.011279371567070484, 
        -0.3437015116214752, 
        -0.033303990960121155, 
        -0.5875370502471924, 
        0.09652438014745712, 
        -0.1674683541059494, 
        0.26387155055999756, 
        0.2569429576396942, 
        0.05597270280122757, 
        0.012213683687150478, 
        -0.17103050649166107, 
        0.07961982488632202, 
        -0.07461091876029968, 
        -0.10998871177434921, 
        -0.15797848999500275, 
        0.09393338114023209, 
        0.10815081745386124, 
        0.007757866755127907, 
        -0.028576843440532684, 
        -0.015394563786685467, 
        0.8370480537414551, 
        0.030102061107754707, 
        -0.031476568430662155, 
        -0.039031732827425, 
        0.01583550125360489, 
        -0.02711012400686741, 
        -0.009988668374717236, 
        0.04371398314833641, 
        -0.056581467390060425, 
        0.015601947903633118, 
        0.05462893471121788, 
        -0.17789848148822784, 
        0.04730340838432312, 
        -0.2527354955673218, 
        -0.03914415091276169, 
        -0.04851648584008217, 
        -0.07522647827863693, 
        -0.03468525782227516, 
        -0.031090445816516876, 
        0.03375295177102089, 
        -0.10329984128475189, 
        0.016706300899386406, 
        -0.032951656728982925, 
        0.002607896225526929, 
        -0.0009053488029167056, 
        -0.01614317297935486, 
        -0.04849009960889816, 
        -0.1031070351600647, 
        -0.06480634957551956, 
        -0.0686909407377243, 
        0.02095102146267891, 
        0.011260424740612507, 
        -0.0033008295577019453, 
        0.015867717564105988, 
        -0.030137449502944946, 
        -0.05068561062216759, 
        -0.267921507358551, 
        -0.27037760615348816, 
        -0.0025501593481749296, 
        -0.13344883918762207, 
        -0.13220082223415375, 
        0.020845886319875717, 
        -0.06345244497060776, 
        -0.04504188522696495, 
        -0.04561639204621315, 
        0.03871694579720497, 
        0.02655991166830063, 
        -0.01823422871530056, 
        0.003527408931404352, 
        -0.009314954280853271, 
        -0.49975040555000305, 
        -0.04523179680109024, 
        0.14528658986091614, 
        0.12469451129436493, 
        0.03738339617848396, 
        0.036582112312316895, 
        0.12541204690933228, 
        0.06209876760840416, 
        0.19314062595367432, 
        -0.014624865725636482, 
        0.03349769115447998, 
        0.05403848737478256, 
        -0.11175129562616348, 
        0.1785150170326233, 
        0.041266266256570816, 
        -0.02682185173034668, 
        0.026462210342288017, 
        0.040236953645944595, 
        0.032766323536634445, 
        0.013950723223388195, 
        -0.010898768901824951, 
        -0.03667908161878586, 
        0.10032904148101807, 
        0.10596608370542526, 
        -0.01925508677959442, 
        0.11989351361989975, 
        0.06440653651952744, 
        0.07606475055217743, 
        0.14443650841712952, 
        0.11934945732355118, 
        0.03546280041337013, 
        -0.29093095660209656, 
        -0.2830871045589447, 
        -0.12855181097984314, 
        0.07668757438659668, 
        -0.014169696718454361, 
        -0.07123489677906036, 
        -0.06435959786176682, 
        0.10702045261859894, 
        0.04732382670044899, 
        -0.013610614463686943, 
        0.023017995059490204, 
        0.034429315477609634, 
        0.061905648559331894, 
        -0.04024054482579231, 
        0.1757279932498932, 
        0.12054576724767685, 
        0.044916871935129166, 
        0.08235582709312439, 
        -0.025188852101564407, 
        0.36853575706481934, 
        -0.35843124985694885, 
        -0.04164547100663185, 
        -0.07006476819515228, 
        0.03181600943207741, 
        0.02232675999403, 
        0.09569914638996124, 
        0.0049236733466386795, 
        -0.1275782734155655, 
        -0.004002883564680815, 
        -0.013781554065644741, 
        0.08147682249546051, 
        0.04219282045960426, 
        0.138190358877182, 
        0.07426408678293228, 
        0.006115189287811518, 
        -0.049956873059272766, 
        -0.0009747797739692032, 
        0.04159216210246086, 
        -0.053254805505275726, 
        -0.2517149746417999, 
        -0.4431263208389282, 
        -0.01401273813098669, 
        -0.02108721435070038, 
        -0.0232793390750885, 
        0.05492985621094704, 
        -0.02248014509677887, 
        0.06566670536994934, 
        -0.06963054090738297, 
        -0.04358439892530441, 
        -0.03481779620051384, 
        -0.3187393248081207, 
        -0.2494318038225174, 
        -0.22182239592075348, 
        0.2293533980846405, 
        0.3048354983329773, 
        0.4351857304573059, 
        0.38586553931236267, 
        -0.09956793487071991, 
        -0.05582055449485779, 
        0.08015424758195877, 
        -0.09589681029319763, 
        0.10504140704870224, 
        0.2910892963409424, 
        0.21054607629776, 
        -0.09367022663354874, 
        -0.059113845229148865, 
        -0.05264422670006752, 
        -0.15458813309669495, 
        -0.055415038019418716, 
        0.20449991524219513, 
        -0.005083463620394468, 
        -0.10160725563764572, 
        -0.09024186432361603, 
        -0.024023650214076042, 
        0.028942011296749115, 
        -0.020449096336960793, 
        -0.024246713146567345, 
        -0.046930234879255295, 
        0.058735184371471405, 
        -0.003726778319105506, 
        -0.22615572810173035, 
        -0.0009505156194791198, 
        -0.2979242503643036, 
        0.05550200119614601, 
        0.03604420647025108, 
        0.046293631196022034, 
        -0.02357606589794159, 
        -0.013693624176084995, 
        -0.024380063638091087, 
        -0.20668567717075348, 
        0.06102578341960907, 
        -0.07944869995117188, 
        -0.0018784196581691504, 
        -0.039064131677150726, 
        -0.11897383630275726, 
        -0.09118930250406265, 
        -0.06297910958528519, 
        -0.0026168141048401594, 
        -0.04839619621634483, 
        -0.03509042412042618, 
        0.01859966851770878, 
        -0.08147179335355759, 
        -0.01912476308643818, 
        -0.007647281978279352, 
        0.02009725198149681, 
        -0.3230835497379303, 
        -0.2996300160884857, 
        -0.03077441081404686, 
        -0.04606253653764725, 
        0.06121214106678963, 
        0.07738572359085083, 
        -0.010056628845632076, 
        -0.12382494658231735, 
        0.0046568517573177814, 
        -0.051006317138671875, 
        -0.08662369102239609, 
        -0.03556453436613083, 
        -0.01994548738002777, 
        -0.00918271392583847, 
        -0.7269666790962219, 
        0.03389759734272957, 
        0.12294231355190277, 
        0.08671382069587708, 
        -0.029372531920671463, 
        -0.000593762204516679, 
        -0.014858494512736797, 
        -0.03063371777534485, 
        0.12732525169849396, 
        -0.03994440659880638, 
        0.0003112959675490856, 
        -0.17907539010047913, 
        -0.044649574905633926, 
        -0.16419215500354767, 
        0.06119464710354805, 
        -0.04051772877573967, 
        0.017928140237927437, 
        0.018893059343099594, 
        -0.020148584619164467, 
        0.037311725318431854, 
        -0.16456128656864166, 
        -0.0020434302277863026, 
        0.04898317903280258, 
        0.05650409311056137, 
        -0.007305881008505821, 
        -0.030606061220169067, 
        -0.02390187233686447, 
        -0.03313685581088066, 
        0.12910598516464233, 
        0.08927209675312042, 
        0.0012498382711783051, 
        -0.20269931852817535, 
        -0.19349730014801025, 
        -0.1297968178987503, 
        -0.018970485776662827, 
        -0.022113200277090073, 
        -0.4493297040462494, 
        -0.468433678150177, 
        0.10635348409414291, 
        -0.006306885275989771, 
        0.019547922536730766, 
        0.09980624914169312, 
        0.056887187063694, 
        -0.03212039917707443, 
        -0.04461243376135826, 
        0.10290080308914185, 
        0.0914507582783699, 
        -0.02129589021205902, 
        0.05415676161646843, 
        -0.027326704934239388, 
        -0.24903656542301178, 
        -0.27972981333732605, 
        -0.038236502557992935, 
        -0.0761360451579094, 
        -0.03636894375085831, 
        0.03842788189649582, 
        0.01703188568353653, 
        0.0098669258877635, 
        -0.0516628734767437, 
        0.019639084115624428, 
        -1.610197068657726e-05, 
        -0.21911346912384033, 
        0.1336868703365326, 
        -0.2733522057533264, 
        0.02754492312669754, 
        0.024227840825915337, 
        0.022400259971618652, 
        0.0016139141516759992, 
        -0.03154832124710083, 
        -0.027777474373579025, 
        -0.10393274575471878, 
        0.010426781140267849, 
        -0.019173970445990562, 
        -0.05044269189238548, 
        0.0336957611143589, 
        -0.16840773820877075, 
        -0.16521093249320984, 
        -0.1500590741634369, 
        -0.040043365210294724, 
        -0.03272896632552147, 
        0.007505645975470543, 
        0.18072141706943512, 
        0.027698220685124397, 
        0.06505542248487473, 
        -0.02646227553486824, 
        -0.014863437041640282, 
        -0.21749922633171082, 
        -0.20624715089797974, 
        -0.05462396889925003, 
        -0.002514992607757449, 
        -0.018428944051265717, 
        0.0395578108727932, 
        0.01971226930618286, 
        -0.026739899069070816, 
        0.044071681797504425, 
        -0.05376719310879707, 
        -0.1281801164150238, 
        -0.09955408424139023, 
        -0.04266943782567978, 
        0.030903978273272514, 
        -0.6438853740692139, 
        0.15385746955871582, 
        -0.0814366266131401, 
        -0.08684009313583374, 
        0.0044382596388459206, 
        0.006938975304365158, 
        0.02258281409740448, 
        -0.004721338395029306, 
        -0.04717385768890381, 
        -0.04454190284013748, 
        -0.0818629339337349, 
        -0.1945292353630066, 
        0.09142743796110153, 
        -0.22402077913284302, 
        0.0019416557624936104, 
        -0.03641434386372566, 
        0.06925922632217407, 
        -0.0058584376238286495, 
        -0.027001552283763885, 
        -0.04168946295976639, 
        -0.13958120346069336, 
        -0.02425910159945488, 
        -0.041275206953287125, 
        -0.05810040235519409, 
        -0.03333790600299835, 
        -0.14164942502975464, 
        -0.15386509895324707, 
        -0.12255022674798965, 
        -0.06091625615954399, 
        -0.07835233956575394, 
        0.010522322729229927, 
        0.06739398092031479, 
        -0.041870713233947754, 
        -0.028889751061797142, 
        -0.0002567328920122236, 
        -0.0539742074906826, 
        -0.23482395708560944, 
        -0.2028660923242569, 
        -0.025401214137673378, 
        -0.06787572056055069, 
        -0.09013650566339493, 
        0.0417211689054966, 
        -0.08414386212825775, 
        -0.014663041569292545, 
        0.025944925844669342, 
        -0.0146254263818264, 
        -0.07593009620904922, 
        -0.07733313739299774, 
        0.010773980058729649, 
        -0.02665097452700138, 
        -0.4870375990867615, 
        0.01637895777821541, 
        -0.021439064294099808, 
        0.003311446402221918, 
        -0.016617948189377785, 
        0.029263481497764587, 
        0.006310163531452417, 
        0.08693689107894897, 
        -0.0793021023273468, 
        0.03495923429727554, 
        -0.014061088673770428, 
        -0.3121034801006317, 
        0.01647821255028248, 
        -0.2653919458389282, 
        0.06278575211763382, 
        0.016689861193299294, 
        0.042934831231832504, 
        0.02713734842836857, 
        0.03250082582235336, 
        -0.016628969460725784, 
        -0.23030434548854828, 
        0.025983396917581558, 
        -0.03250345587730408, 
        -0.028311967849731445, 
        -0.014314776286482811, 
        -0.06629884988069534, 
        -0.14714154601097107, 
        -0.13559557497501373, 
        -0.021086545661091805, 
        0.006667182315140963, 
        0.02277924120426178, 
        -0.031602222472429276, 
        -0.09251615405082703, 
        0.002469940111041069, 
        0.04674753174185753, 
        -0.031223393976688385, 
        -0.3226704001426697, 
        -0.28538259863853455, 
        -0.03717225044965744, 
        -0.0035742572508752346, 
        0.04896329343318939, 
        0.07325486838817596, 
        0.033646732568740845, 
        -0.06445172429084778, 
        -0.015674058347940445, 
        0.021062161773443222, 
        0.022623741999268532, 
        -0.07554646581411362, 
        0.03700573369860649, 
        -0.00976964458823204, 
        -0.7943657040596008, 
        0.01135663129389286, 
        -0.014873205684125423, 
        -0.020285341888666153, 
        0.01945650950074196, 
        -0.082364022731781, 
        -0.00040316442027688026, 
        -0.0014311769045889378, 
        -0.04340037330985069, 
        -0.0005452722543850541, 
        -0.0239158496260643, 
        -0.11020535975694656, 
        -0.12469463795423508, 
        0.0901593491435051, 
        0.038098178803920746, 
        0.013746184296905994, 
        0.020042451098561287, 
        0.01333489827811718, 
        0.022533336654305458, 
        -0.021972771733999252, 
        0.12109697610139847, 
        0.16256359219551086, 
        -0.06182336062192917, 
        -0.07199309021234512, 
        -0.01733318157494068, 
        -0.003186774905771017, 
        0.03669773414731026, 
        -0.1569848209619522, 
        0.006374423857778311, 
        -0.0448189340531826, 
        -0.010704709216952324, 
        -0.048372335731983185, 
        0.0014255560236051679, 
        -0.000421929667936638, 
        0.014119514264166355, 
        -0.010303614661097527, 
        -0.2525527775287628, 
        -0.3060479760169983, 
        -0.10507895052433014, 
        -0.0006631573778577149, 
        0.24826379120349884, 
        -0.0018067549681290984, 
        0.13860683143138885, 
        0.019023140892386436, 
        -0.00305160996504128, 
        -0.028903676196932793, 
        -0.03331843391060829, 
        0.09991224855184555, 
        -0.024916665628552437, 
        -0.008094280026853085, 
        -0.10828602313995361, 
        0.04091339558362961, 
        -0.13999934494495392, 
        -0.15019361674785614, 
        -0.0035363833885639906, 
        0.02118968777358532, 
        0.003730219788849354, 
        -0.0011137011460959911, 
        -0.14038778841495514, 
        -0.020957129076123238, 
        -0.037778738886117935, 
        -0.06371619552373886, 
        0.11822813749313354, 
        -0.1653100699186325, 
        0.027021871879696846, 
        0.037989988923072815, 
        -0.003986063878983259, 
        0.006333836354315281, 
        0.04990646615624428, 
        -0.045494694262742996, 
        -0.009339733980596066, 
        0.022013986483216286, 
        -0.12700051069259644, 
        -0.09563276171684265, 
        -0.0473947636783123, 
        -0.1448533833026886, 
        -0.13075053691864014, 
        -0.13385537266731262, 
        -0.061074886471033096, 
        -0.11928416788578033, 
        0.01682448945939541, 
        0.23140965402126312, 
        0.16096946597099304, 
        0.21097072958946228, 
        0.028874067589640617, 
        0.01792212389409542, 
        -0.13137248158454895, 
        -0.1144745796918869, 
        -0.07983991503715515, 
        0.025307847186923027, 
        0.11286508291959763, 
        0.000716067967005074, 
        -0.021785497665405273, 
        -0.009351175278425217, 
        -0.0029417830519378185, 
        -0.11110273748636246, 
        -0.08147624135017395, 
        0.008648176677525043, 
        -0.01282249391078949, 
        0.0071519217453897, 
        -0.4005829393863678, 
        0.28931790590286255, 
        0.1048685759305954, 
        0.10670242458581924, 
        0.0005907886079512537, 
        -0.13904468715190887, 
        -0.1505305916070938, 
        0.04497959837317467, 
        0.1486946940422058, 
        -0.018404465168714523, 
        0.04159167408943176, 
        0.4202357530593872, 
        0.05019752308726311, 
        0.3752606511116028, 
        0.09358803182840347, 
        -0.08419614285230637, 
        0.023643018677830696, 
        0.059806887060403824, 
        0.007793394848704338, 
        -0.004361471626907587, 
        0.24230623245239258, 
        -0.0002033331256825477, 
        0.03669729828834534, 
        0.10126044601202011, 
        -0.00933391135185957, 
        0.17527495324611664, 
        0.16970036923885345, 
        0.14119817316532135, 
        0.09865676611661911, 
        0.13810262084007263, 
        0.02597208134829998, 
        -0.14605222642421722, 
        -0.13805748522281647, 
        0.14625389873981476, 
        0.04680459201335907, 
        0.052814334630966187, 
        0.4386596977710724, 
        0.47323286533355713, 
        0.1514955759048462, 
        0.13967271149158478, 
        0.02849254384636879, 
        0.03812447190284729, 
        0.06981552392244339, 
        -0.008104565553367138, 
        0.06403195112943649, 
        0.1234816163778305, 
        0.11273576319217682, 
        0.0787915289402008, 
        -0.027783673256635666, 
        -0.006854690611362457, 
        0.9036415219306946, 
        -0.17978695034980774, 
        0.11809328943490982, 
        0.12456401437520981, 
        -0.03110266663134098, 
        -0.042304877191782, 
        0.16450966894626617, 
        0.03284970298409462, 
        0.05522558465600014, 
        0.011136405169963837, 
        0.021597137674689293, 
        0.039703287184238434, 
        -0.12933647632598877, 
        0.10312803089618683, 
        0.0015614916337653995, 
        -0.06878184527158737, 
        0.016970474272966385, 
        -0.02659614570438862, 
        -0.04254016652703285, 
        0.003746630158275366, 
        0.02826065570116043, 
        -0.02110946923494339, 
        0.03400387242436409, 
        0.1304244101047516, 
        0.0031066385563462973, 
        0.0710083544254303, 
        0.041331492364406586, 
        0.04813208803534508, 
        0.03174474835395813, 
        0.09322100877761841, 
        -0.02703012153506279, 
        -0.18611028790473938, 
        0.007828994654119015, 
        0.00946028158068657, 
        -0.0077156429179012775, 
        -0.04212794080376625, 
        -0.06637483090162277, 
        -0.03514588624238968, 
        0.07343218475580215, 
        0.044748589396476746, 
        -0.06980790197849274, 
        0.0006566575611941516, 
        -0.023495497182011604, 
        -0.0031321924179792404, 
        -0.12610049545764923, 
        0.10234268009662628, 
        0.06972558796405792, 
        -0.024022625759243965, 
        0.03129294142127037, 
        -0.0015762909315526485, 
        0.3400949239730835, 
        -0.2190580815076828, 
        -0.016965243965387344, 
        0.014396454207599163, 
        0.044866979122161865, 
        0.03333928436040878, 
        -0.026798652485013008, 
        0.0566028468310833, 
        -0.06092308089137077, 
        0.03989347442984581, 
        0.020941387861967087, 
        -0.2856849133968353, 
        0.04629223048686981, 
        -0.330666184425354, 
        -0.03666691482067108, 
        -0.06517042219638824, 
        0.06998078525066376, 
        -0.0603872686624527, 
        0.003634857479482889, 
        -0.06313391774892807, 
        -0.19551165401935577, 
        -0.038437578827142715, 
        -0.01764080859720707, 
        -0.004729236010462046, 
        -0.015070096589624882, 
        -0.07903041690587997, 
        -0.08744818717241287, 
        -0.07423292100429535, 
        -0.08518044650554657, 
        -0.08193963766098022, 
        0.024783041328191757, 
        0.0707932561635971, 
        -0.006812402047216892, 
        -0.01246669515967369, 
        0.017228053882718086, 
        -0.055458877235651016, 
        -0.26736268401145935, 
        -0.2061614841222763, 
        -0.07808173447847366, 
        -0.07047073543071747, 
        -0.0862274244427681, 
        0.07117708772420883, 
        -0.05169595777988434, 
        0.05564531311392784, 
        -0.010827889665961266, 
        0.023284656926989555, 
        -0.07214395701885223, 
        -0.15445290505886078, 
        0.019606053829193115, 
        -0.001131576718762517, 
        -0.63613361120224, 
        0.016040263697504997, 
        0.09234870225191116, 
        0.07405173033475876, 
        0.030255094170570374, 
        -0.05691337212920189, 
        -0.03659551218152046, 
        -0.023085566237568855, 
        0.1220238134264946, 
        -0.04167171195149422, 
        0.04579171538352966, 
        0.01711474172770977, 
        -0.0702427476644516, 
        0.12266340106725693, 
        -0.0546104796230793, 
        -0.03815091773867607, 
        0.01806194707751274, 
        -0.015710264444351196, 
        0.011376750655472279, 
        0.0034742564894258976, 
        -0.014125351794064045, 
        -0.07232636958360672, 
        0.1052432730793953, 
        0.12449456006288528, 
        0.03715597093105316, 
        0.02665342390537262, 
        0.02479088306427002, 
        0.039221860468387604, 
        0.09125019609928131, 
        0.11804971843957901, 
        -0.01841043494641781, 
        -0.33600568771362305, 
        -0.28400489687919617, 
        -0.2703291177749634, 
        -0.0005866901483386755, 
        -0.060035280883312225, 
        -0.032955389469861984, 
        -0.059292301535606384, 
        0.13548216223716736, 
        -0.0318598710000515, 
        -0.09151696413755417, 
        -0.016890279948711395, 
        -0.0014563477598130703, 
        0.08980013430118561, 
        0.04945909231901169, 
        0.08631196618080139, 
        0.0724468007683754, 
        -0.0066695609129965305, 
        0.025832517072558403, 
        0.019360525533556938, 
        0.26033806800842285, 
        -0.25562795996665955, 
        -0.10214825719594955, 
        -0.10626322776079178, 
        0.002304450375959277, 
        -0.007767808623611927, 
        -0.017810748890042305, 
        0.016318902373313904, 
        -0.10722679644823074, 
        -0.016553405672311783, 
        -0.021137423813343048, 
        0.1387799084186554, 
        0.03853011876344681, 
        0.13489872217178345, 
        0.07410969585180283, 
        0.0210195891559124, 
        0.0014937554951757193, 
        -8.614640682935715e-05, 
        0.03646929934620857, 
        -0.03706860914826393, 
        0.08299055695533752, 
        -0.07808305323123932, 
        0.04459764435887337, 
        0.006468014791607857, 
        -0.02190719172358513, 
        0.011233050376176834, 
        0.05216600373387337, 
        0.0400347076356411, 
        -0.003801357466727495, 
        -0.06281985342502594, 
        -0.011947819963097572, 
        0.13872428238391876, 
        0.04265233129262924, 
        0.15090534090995789, 
        0.06066107749938965, 
        0.06518063694238663, 
        0.19240500032901764, 
        0.24608416855335236, 
        -0.06455660611391068, 
        0.006287006661295891, 
        0.10612600296735764, 
        -0.07606972754001617, 
        0.019319234415888786, 
        0.03255799785256386, 
        0.07043740153312683, 
        -0.10731089115142822, 
        -0.03783181682229042, 
        -0.04933496192097664, 
        -0.07917749881744385, 
        -0.03011973947286606, 
        0.2570312023162842, 
        0.1293332725763321, 
        0.06780412793159485, 
        0.10780656337738037, 
        -0.03426596149802208, 
        0.034913890063762665, 
        0.017434077337384224, 
        0.03141022473573685, 
        0.07753864675760269, 
        0.03788544237613678, 
        -0.05069740116596222, 
        -0.2910786271095276, 
        0.01175693143159151, 
        -0.30883973836898804, 
        0.03993755206465721, 
        -0.008774720132350922, 
        0.01181759499013424, 
        -0.0374714620411396, 
        -0.05059342086315155, 
        -0.03229202702641487, 
        -0.16321657598018646, 
        0.11281640827655792, 
        0.048896536231040955, 
        0.036714378744363785, 
        -0.0004309012438170612, 
        -0.10628094524145126, 
        -0.13613374531269073, 
        -0.1285308599472046, 
        -0.0010502263903617859, 
        0.05450339615345001, 
        -0.01980832777917385, 
        0.023640906438231468, 
        -0.09205558151006699, 
        -0.015052329748868942, 
        -0.024158595129847527, 
        -0.10209008306264877, 
        -0.4721437394618988, 
        -0.5242816805839539, 
        0.04484795406460762, 
        -0.012198120355606079, 
        -0.02847621962428093, 
        0.12493737787008286, 
        0.06983566284179688, 
        -0.14107516407966614, 
        -0.11907253414392471, 
        0.11211847513914108, 
        0.07907622307538986, 
        -0.08480993658304214, 
        0.026847610250115395, 
        -0.016125191003084183, 
        -0.7084721922874451, 
        -0.0711388811469078, 
        0.06954169273376465, 
        0.12419239431619644, 
        0.053259141743183136, 
        -0.06358200311660767, 
        0.0032383371144533157, 
        0.015032600611448288, 
        0.10639970004558563, 
        0.004633523989468813, 
        -0.004099606536328793, 
        -0.09232636541128159, 
        -0.08410687744617462, 
        -0.04057760164141655, 
        -0.07547423243522644, 
        -0.024011528119444847, 
        -0.059617381542921066, 
        -0.06621473282575607, 
        0.057012178003787994, 
        0.05967206135392189, 
        -0.010746980085968971, 
        -0.08669472485780716, 
        0.0474526472389698, 
        0.11055965721607208, 
        -0.013569364324212074, 
        -0.028060708194971085, 
        -0.055435046553611755, 
        0.09560294449329376, 
        0.051803071051836014, 
        0.10022477805614471, 
        -0.017526505514979362, 
        -0.21438340842723846, 
        -0.08051411062479019, 
        -0.16878585517406464, 
        0.0395384207367897, 
        0.08428004384040833, 
        -0.16105516254901886, 
        -0.13562238216400146, 
        0.05405668169260025, 
        -0.022673096507787704, 
        -0.002752968342974782, 
        -0.01911875233054161, 
        0.031636741012334824, 
        0.027586622163653374, 
        -0.05398750677704811, 
        0.03440170735120773, 
        0.0441899299621582, 
        0.04044928401708603, 
        0.039776746183633804, 
        -0.035505861043930054, 
        0.1261328011751175, 
        -0.21683815121650696, 
        0.12729361653327942, 
        0.09939330071210861, 
        -0.03504471480846405, 
        0.08840802311897278, 
        0.06297618895769119, 
        0.01486879587173462, 
        0.1674894392490387, 
        0.021852752193808556, 
        0.031872402876615524, 
        0.08467128872871399, 
        -0.13655610382556915, 
        0.12579062581062317, 
        -0.03829212114214897, 
        -0.03716442361474037, 
        0.008737699128687382, 
        0.036993514746427536, 
        0.034671176224946976, 
        0.01146001648157835, 
        0.009286751039326191, 
        -0.04904068261384964, 
        0.05300161615014076, 
        0.1651741862297058, 
        0.046840496361255646, 
        0.03673930838704109, 
        0.10805699229240417, 
        0.07886340469121933, 
        0.08400695025920868, 
        0.14996051788330078, 
        0.02899857796728611, 
        -0.2155837118625641, 
        -0.16592757403850555, 
        -0.11602877825498581, 
        0.09052933007478714, 
        -0.08062643557786942, 
        0.19103872776031494, 
        0.16768433153629303, 
        0.13439546525478363, 
        0.05426459014415741, 
        0.0025109027046710253, 
        0.07220105081796646, 
        0.05443786084651947, 
        -0.04117311164736748, 
        0.034551218152046204, 
        0.09092678874731064, 
        0.11127980798482895, 
        0.0647069662809372, 
        0.07611604779958725, 
        -0.021867947652935982, 
        0.33663108944892883, 
        -0.25769326090812683, 
        0.07769569009542465, 
        0.0871024802327156, 
        0.03794626519083977, 
        -0.03675093129277229, 
        0.08746813982725143, 
        -0.11405449360609055, 
        0.13697630167007446, 
        -0.028894513845443726, 
        0.16190314292907715, 
        0.04442404583096504, 
        -0.1304602324962616, 
        0.18669351935386658, 
        0.028747038915753365, 
        0.006384346634149551, 
        -0.1132054477930069, 
        -0.05807698890566826, 
        -0.033545833081007004, 
        0.053712256252765656, 
        0.08131164312362671, 
        0.007108335383236408, 
        0.07834187895059586, 
        0.04241054132580757, 
        -0.026593299582600594, 
        0.12386561930179596, 
        0.06988263875246048, 
        0.11799672245979309, 
        0.10032051056623459, 
        0.10163059085607529, 
        0.007421427872031927, 
        -0.25646528601646423, 
        -0.12388388067483902, 
        -0.17152342200279236, 
        0.08950084447860718, 
        -0.005374818574637175, 
        0.07274537533521652, 
        0.014462982304394245, 
        0.13962982594966888, 
        0.03360156714916229, 
        -0.09275177121162415, 
        0.032815974205732346, 
        -0.05713677778840065, 
        -0.07774485647678375, 
        -0.060841429978609085, 
        0.09194216877222061, 
        0.08986210823059082, 
        0.03122711181640625, 
        0.01381333265453577, 
        -0.02311510592699051, 
        0.3693596124649048, 
        -0.2519589066505432, 
        0.14266709983348846, 
        0.13175514340400696, 
        -0.0036694996524602175, 
        0.03232675790786743, 
        0.03596832975745201, 
        -0.06992056220769882, 
        0.11108940094709396, 
        -0.02614954300224781, 
        0.018887918442487717, 
        -0.06754156202077866, 
        -0.11519116163253784, 
        0.030200067907571793, 
        0.062343914061784744, 
        -0.029055193066596985, 
        -0.027720285579562187, 
        -0.07841181010007858, 
        0.024876659736037254, 
        0.01073184609413147, 
        -0.04833361506462097, 
        0.035352673381567, 
        0.05779751390218735, 
        0.1177854910492897, 
        -0.015324801206588745, 
        0.08052543550729752, 
        0.050069015473127365, 
        0.047564439475536346, 
        0.0666729286313057, 
        0.12862224876880646, 
        0.025531776249408722, 
        -0.2714182138442993, 
        -0.2645803987979889, 
        -0.17597131431102753, 
        0.06368141621351242, 
        0.002354269614443183, 
        -0.18088385462760925, 
        -0.1412750482559204, 
        0.0809716060757637, 
        -0.002155496273189783, 
        -0.0014220752054825425, 
        0.03356045112013817, 
        0.0034569359850138426, 
        -0.055559348315000534, 
        0.022416718304157257, 
        0.12602318823337555, 
        0.07732567936182022, 
        -0.008785402402281761, 
        -0.027617238461971283, 
        0.017574962228536606, 
        0.17379626631736755, 
        -0.2071308046579361, 
        -0.02198621816933155, 
        -0.013355310074985027, 
        -0.0053319791331887245, 
        -0.024788660928606987, 
        0.0055107371881604195, 
        -0.005183302331715822, 
        -0.09503523260354996, 
        0.024794116616249084, 
        -0.04665568470954895, 
        -0.21399664878845215, 
        0.08891522139310837, 
        -0.32896581292152405, 
        0.00669051893055439, 
        -0.01837553083896637, 
        0.05129575356841087, 
        -0.005234374199062586, 
        0.02711459808051586, 
        -0.0630873441696167, 
        -0.13402830064296722, 
        0.03224422410130501, 
        -0.003690013661980629, 
        -0.03010491654276848, 
        -0.024670811370015144, 
        -0.10684133321046829, 
        -0.15692603588104248, 
        -0.13140136003494263, 
        -0.00036761193769052625, 
        -0.010671352967619896, 
        -0.02918122336268425, 
        0.12985649704933167, 
        0.030273109674453735, 
        -0.026880502700805664, 
        0.04783209413290024, 
        -0.03241562843322754, 
        -0.17416828870773315, 
        -0.1804933398962021, 
        -0.030672749504446983, 
        0.02941790223121643, 
        -0.034867819398641586, 
        0.04942465201020241, 
        -0.010497888550162315, 
        -0.051778700202703476, 
        -0.022465117275714874, 
        -0.0562102273106575, 
        -0.07903717458248138, 
        -0.08373658359050751, 
        -0.007170674856752157, 
        0.028095832094550133, 
        -0.6885513663291931, 
        0.12347477674484253, 
        0.07884404063224792, 
        0.06552624702453613, 
        0.007752351462841034, 
        0.020609458908438683, 
        -0.06961270421743393, 
        0.03329078108072281, 
        0.08627800643444061, 
        0.009610423818230629, 
        0.053697604686021805, 
        0.09237003326416016, 
        -0.15624020993709564, 
        0.1321239322423935, 
        -0.0697750449180603, 
        -0.010217172093689442, 
        -0.03410845249891281, 
        0.04162004590034485, 
        0.04082976654171944, 
        0.03502567112445831, 
        0.06421570479869843, 
        -0.022554637864232063, 
        0.07873924821615219, 
        0.0577758252620697, 
        -0.02776261232793331, 
        0.09172756969928741, 
        0.07347908616065979, 
        0.10964658856391907, 
        0.04797256737947464, 
        0.05657104030251503, 
        -0.03383967652916908, 
        -0.27981293201446533, 
        -0.2510461211204529, 
        -0.25603511929512024, 
        0.0015003683511167765, 
        -0.09420997649431229, 
        0.08017506450414658, 
        0.0706307590007782, 
        0.08019249886274338, 
        0.007133759558200836, 
        -0.0798797681927681, 
        -0.03679985553026199, 
        -0.035557862371206284, 
        0.06233840435743332, 
        0.04133731499314308, 
        0.04646287113428116, 
        0.1010754182934761, 
        -0.0013330355286598206, 
        0.044605329632759094, 
        0.020160427317023277, 
        0.3571918308734894, 
        -0.22520430386066437, 
        0.05762392655014992, 
        0.06770756095647812, 
        0.04915544390678406, 
        0.04421628266572952, 
        -0.0041250018402934074, 
        -0.007277525030076504, 
        0.05532258749008179, 
        0.04980872943997383, 
        0.05968471243977547, 
        0.3923035264015198, 
        0.04050450026988983, 
        0.40678727626800537, 
        0.055815380066633224, 
        -0.074791818857193, 
        -0.06585027277469635, 
        -0.10930702835321426, 
        0.04983976110816002, 
        0.03420722484588623, 
        0.29228946566581726, 
        -0.019749702885746956, 
        -0.009221775457262993, 
        0.024263529106974602, 
        -0.0504164844751358, 
        0.14393143355846405, 
        0.1255282312631607, 
        0.0965365469455719, 
        0.002273347694426775, 
        0.016361059620976448, 
        -0.05138566717505455, 
        -0.25458016991615295, 
        0.014499958604574203, 
        -0.12704472243785858, 
        0.08387995511293411, 
        0.09923236817121506, 
        0.44063249230384827, 
        0.43745845556259155, 
        0.06690732389688492, 
        0.05741589888930321, 
        0.05542803555727005, 
        -0.02189088985323906, 
        0.05816018208861351, 
        0.06759420037269592, 
        0.013891378417611122, 
        0.05587778240442276, 
        0.09096616506576538, 
        0.13068066537380219, 
        -0.07080423086881638, 
        -0.004349375609308481, 
        0.9330528974533081, 
        0.04931461438536644, 
        0.07626736164093018, 
        0.13030177354812622, 
        -0.025070078670978546, 
        -0.007980911061167717, 
        -0.045295149087905884, 
        0.027945056557655334, 
        0.06745468825101852, 
        0.023518497124314308, 
        0.06528481096029282, 
        0.060907527804374695, 
        -0.10859381407499313, 
        0.20825055241584778, 
        -0.07058389484882355, 
        -0.05433789640665054, 
        -0.03747619315981865, 
        -0.015929942950606346, 
        0.016655482351779938, 
        -0.02078411728143692, 
        0.08774332702159882, 
        0.0026041881646960974, 
        0.07266456633806229, 
        0.10393156856298447, 
        -0.012543178163468838, 
        0.11440431326627731, 
        0.08772866427898407, 
        0.09402911365032196, 
        0.09561336785554886, 
        0.0844753161072731, 
        0.035910286009311676, 
        -0.3017890453338623, 
        -0.1470371037721634, 
        -0.19829359650611877, 
        0.005466976668685675, 
        -0.04651746526360512, 
        0.015580781735479832, 
        0.06810206174850464, 
        0.09903382509946823, 
        0.055280525237321854, 
        -0.04267141595482826, 
        -0.012894533574581146, 
        0.009617272764444351, 
        -0.039207108318805695, 
        0.05141373723745346, 
        0.12443076074123383, 
        0.07321172207593918, 
        0.06853578984737396, 
        -0.013970838859677315, 
        0.040275778621435165, 
        0.43154236674308777, 
        -0.2822122275829315, 
        -0.1085054874420166, 
        -0.09975653141736984, 
        0.03308269381523132, 
        0.07294020801782608, 
        -0.016652589663863182, 
        0.003662045346572995, 
        -0.09518703818321228, 
        0.025459449738264084, 
        0.0066419863142073154, 
        -0.09463340789079666, 
        0.13488222658634186, 
        -0.19671623408794403, 
        -0.022608909755945206, 
        0.01533398125320673, 
        0.011718966998159885, 
        -0.0011380045907571912, 
        0.038517508655786514, 
        0.008747649379074574, 
        -0.022023126482963562, 
        0.0564177967607975, 
        -0.10153070092201233, 
        -0.07659117132425308, 
        -0.04259534180164337, 
        -0.1876092404127121, 
        -0.13405969738960266, 
        -0.10724186152219772, 
        -0.06581470370292664, 
        -0.12836597859859467, 
        -0.0006953456322662532, 
        0.26656222343444824, 
        0.1246112659573555, 
        0.2160515934228897, 
        0.01167314313352108, 
        0.0010885556694120169, 
        -0.15016739070415497, 
        -0.110243059694767, 
        -0.10421595722436905, 
        -0.02454092539846897, 
        0.08181745558977127, 
        -0.003095438703894615, 
        -0.009995642118155956, 
        -0.025272997096180916, 
        -0.023429671302437782, 
        -0.04954781383275986, 
        -0.11289749294519424, 
        -0.04289001226425171, 
        -0.041886139661073685, 
        0.006072561256587505, 
        -0.4416916072368622, 
        0.2641459107398987, 
        0.13366495072841644, 
        0.11544199287891388, 
        -0.02010243944823742, 
        0.02091740444302559, 
        -0.03360419347882271, 
        0.03827785328030586, 
        0.1017012819647789, 
        0.017577292397618294, 
        -0.034056924283504486, 
        -0.28679198026657104, 
        0.04302098974585533, 
        -0.34104692935943604, 
        -0.03430093079805374, 
        -0.041171442717313766, 
        0.019585782662034035, 
        -0.02637474052608013, 
        0.010519989766180515, 
        -0.04600291699171066, 
        -0.2872302830219269, 
        -0.10922902077436447, 
        0.08204784989356995, 
        0.09236975759267807, 
        -0.014897961169481277, 
        -0.22127805650234222, 
        -0.2484511137008667, 
        -0.09121697396039963, 
        0.10529870539903641, 
        0.13445565104484558, 
        0.013487410731613636, 
        -0.06778259575366974, 
        -0.2194308042526245, 
        -0.11525987088680267, 
        0.08504004776477814, 
        0.04225338250398636, 
        -0.5079261660575867, 
        -0.5087640881538391, 
        0.11296423524618149, 
        -0.01750890165567398, 
        -0.13355667889118195, 
        0.13437417149543762, 
        0.051581453531980515, 
        0.1216692253947258, 
        0.06899465620517731, 
        0.13720859587192535, 
        0.18393968045711517, 
        -0.12147160619497299, 
        0.08425884693861008, 
        -0.009437943808734417, 
        -0.7894347310066223, 
        -0.1652805656194687, 
        0.13609503209590912, 
        0.07482551783323288, 
        0.03439055755734444, 
        -0.015890203416347504, 
        -0.07211983948945999, 
        0.07930907607078552, 
        0.08017650246620178, 
        0.028667936101555824, 
        0.019856469705700874, 
        -0.24217179417610168, 
        -0.0119777237996459, 
        -0.1665944904088974, 
        0.02641940861940384, 
        0.017162403091788292, 
        0.047167230397462845, 
        0.015714166685938835, 
        -0.015035431832075119, 
        0.04359916225075722, 
        -0.15971580147743225, 
        -0.010372504591941833, 
        0.03478550910949707, 
        0.11408117413520813, 
        0.0025574215687811375, 
        -0.039607103914022446, 
        -0.07184478640556335, 
        0.012333708815276623, 
        0.0919676274061203, 
        0.09901713579893112, 
        -0.04625232517719269, 
        -0.16776911914348602, 
        -0.22325612604618073, 
        -0.2062806338071823, 
        0.05579321086406708, 
        0.06248551607131958, 
        -0.32651787996292114, 
        -0.2976343631744385, 
        0.16121095418930054, 
        -0.03437015041708946, 
        -0.06649620831012726, 
        0.08617636561393738, 
        0.046552665531635284, 
        0.004663470201194286, 
        -0.09904706478118896, 
        0.10744974762201309, 
        0.13280679285526276, 
        -0.025349210947752, 
        0.043207697570323944, 
        -0.019123639911413193, 
        -0.3628629744052887, 
        -0.16733191907405853, 
        -0.07512494921684265, 
        -0.08292529731988907, 
        0.03237506374716759, 
        0.0663049966096878, 
        0.020921334624290466, 
        0.004276368301361799, 
        -0.03438510745763779, 
        -0.008335087448358536, 
        -0.0919703021645546, 
        -0.19550840556621552, 
        0.1912432163953781, 
        -0.2857148349285126, 
        0.06772816926240921, 
        -0.026844972744584084, 
        0.010054509155452251, 
        -0.012404697015881538, 
        -0.010877680033445358, 
        -0.010035733692348003, 
        -0.11863268166780472, 
        -0.05164063721895218, 
        -0.007371299434453249, 
        -0.06479677557945251, 
        -0.03210125118494034, 
        -0.1040356457233429, 
        -0.20220814645290375, 
        -0.12288738042116165, 
        -0.025413310155272484, 
        -0.0550646036863327, 
        0.023436175659298897, 
        0.25516796112060547, 
        0.0909755676984787, 
        -0.024044455960392952, 
        0.02892909198999405, 
        -0.012905769050121307, 
        -0.17897090315818787, 
        -0.20176708698272705, 
        -0.0156774390488863, 
        0.02197171188890934, 
        -0.13389070332050323, 
        0.06337942183017731, 
        -0.05642858147621155, 
        0.047072410583496094, 
        0.015623037703335285, 
        -0.025551538914442062, 
        -0.0411362387239933, 
        -0.08257000148296356, 
        -0.011438485234975815, 
        0.00563683919608593, 
        -0.72795170545578, 
        0.1992274820804596, 
        0.1113022044301033, 
        0.14675943553447723, 
        -0.026734206825494766, 
        -0.05019889026880264, 
        0.13613799214363098, 
        -0.01108916662633419, 
        0.1563652604818344, 
        0.04065500572323799, 
        0.04921644181013107, 
        0.09779219329357147, 
        -0.09770238399505615, 
        0.18166764080524445, 
        0.031104745343327522, 
        0.048504140228033066, 
        0.06775221973657608, 
        -0.06756555289030075, 
        0.05587288737297058, 
        -0.012392796576023102, 
        0.08815206587314606, 
        0.05801042914390564, 
        0.1188349574804306, 
        0.1313769370317459, 
        0.03932909294962883, 
        0.13582289218902588, 
        0.10180356353521347, 
        0.11266419291496277, 
        0.04535364732146263, 
        0.08966650068759918, 
        -0.029678644612431526, 
        -0.31552189588546753, 
        -0.16305656731128693, 
        -0.35366448760032654, 
        0.07761422544717789, 
        -0.036041323095560074, 
        0.058397628366947174, 
        0.044927433133125305, 
        0.12365861237049103, 
        -0.017632797360420227, 
        -0.13536633551120758, 
        -0.04470421001315117, 
        -0.05944906920194626, 
        0.012012005783617496, 
        0.08838925510644913, 
        0.1377408802509308, 
        0.13701488077640533, 
        0.048001766204833984, 
        0.003397193970158696, 
        -0.01449508871883154, 
        0.42761731147766113, 
        -0.22127975523471832, 
        0.006782904267311096, 
        -0.05989595502614975, 
        0.012367669492959976, 
        0.047229085117578506, 
        0.0012071507517248392, 
        0.029157789424061775, 
        -0.050695743411779404, 
        0.0061198268085718155, 
        0.03142895922064781, 
        -0.26963526010513306, 
        0.04660062491893768, 
        -0.3439902663230896, 
        0.07422032207250595, 
        -0.013087515719234943, 
        -0.018661856651306152, 
        0.036276429891586304, 
        -0.028353484347462654, 
        0.011372344568371773, 
        -0.29510247707366943, 
        -0.01884692721068859, 
        0.015290623530745506, 
        -0.05085572600364685, 
        -0.04416719451546669, 
        -0.16711586713790894, 
        -0.12762394547462463, 
        -0.09124862402677536, 
        -0.06341555714607239, 
        -0.018225550651550293, 
        0.03923505172133446, 
        0.04956020414829254, 
        -0.0305971447378397, 
        -0.04998064413666725, 
        0.020706992596387863, 
        0.014462360180914402, 
        -0.31284311413764954, 
        -0.28838372230529785, 
        -0.028975900262594223, 
        -0.00675871130079031, 
        -0.031329475343227386, 
        0.09673510491847992, 
        0.030027633532881737, 
        -0.013603012077510357, 
        -0.038109343498945236, 
        -0.015331273898482323, 
        0.02720300666987896, 
        -0.09303770214319229, 
        0.07481162995100021, 
        -0.024777403101325035, 
        -0.7822907567024231, 
        -0.001905960962176323, 
        0.08501037210226059, 
        0.046284157782793045, 
        -0.007930552586913109, 
        0.12075013667345047, 
        -0.2133130431175232, 
        0.03896435722708702, 
        0.09360411763191223, 
        -0.017828229814767838, 
        -0.1037469282746315, 
        0.06172137334942818, 
        -0.19131341576576233, 
        0.14207296073436737, 
        -0.15867364406585693, 
        0.06253332644701004, 
        0.11129333823919296, 
        0.06820396333932877, 
        -0.0011027568252757192, 
        -0.04033903032541275, 
        0.12753446400165558, 
        0.04469768702983856, 
        0.09914689511060715, 
        0.1069897785782814, 
        0.018616195768117905, 
        0.08938654512166977, 
        0.1452898234128952, 
        0.07915180176496506, 
        0.018793698400259018, 
        0.10302017629146576, 
        0.012330853380262852, 
        -0.1998210847377777, 
        0.022771919146180153, 
        -0.2764025032520294, 
        -0.11722294986248016, 
        -0.015058662742376328, 
        0.17147991061210632, 
        0.16795000433921814, 
        0.13422095775604248, 
        -0.02104790322482586, 
        -0.17641015350818634, 
        -0.019772643223404884, 
        -0.12494100630283356, 
        -0.007480100728571415, 
        0.02038409188389778, 
        0.032590266317129135, 
        0.048280734568834305, 
        0.07289739698171616, 
        0.004816409666091204, 
        -0.008835290558636189, 
        0.3875710368156433, 
        0.025783156976103783, 
        0.022935403510928154, 
        -0.03328408673405647, 
        0.024627670645713806, 
        -0.06458733230829239, 
        -0.008030752651393414, 
        -0.03828480839729309, 
        0.013871449045836926, 
        -0.031167764216661453, 
        -0.07975830882787704, 
        -0.06242065504193306, 
        -0.004030243959277868, 
        -0.13355886936187744, 
        -0.07635225355625153, 
        -0.07619208097457886, 
        -0.030809713527560234, 
        -0.002016932237893343, 
        -0.03696022182703018, 
        -0.021130407229065895, 
        -0.02559606172144413, 
        -0.05874079093337059, 
        -0.24998106062412262, 
        -0.20943370461463928, 
        0.013661056756973267, 
        -0.05751406401395798, 
        0.010530445724725723, 
        -0.03597152605652809, 
        -0.2983221709728241, 
        -0.13874047994613647, 
        0.028605878353118896, 
        -0.17312094569206238, 
        -0.03135279193520546, 
        -0.0488048754632473, 
        0.1308482140302658, 
        0.18823519349098206, 
        0.19275566935539246, 
        0.11610740423202515, 
        -0.05198637768626213, 
        -0.22939085960388184, 
        -0.06566153466701508, 
        -0.2729700803756714, 
        -0.10137736052274704, 
        0.028766201809048653, 
        0.002366554457694292, 
        -0.05220586806535721, 
        -0.019519314169883728, 
        -0.02255890518426895, 
        -0.036157138645648956, 
        -0.0013816513819620013, 
        -0.039727095514535904, 
        -0.07825842499732971, 
        0.06905459612607956, 
        0.058671023696660995, 
        0.006145621184259653, 
        0.017120635136961937, 
        -0.05570438131690025, 
        0.01769617572426796, 
        0.12552745640277863, 
        0.01936192438006401, 
        -0.0022303059231489897, 
        0.08245477825403214, 
        -0.1457606554031372, 
        0.17578162252902985, 
        -0.025613918900489807, 
        -0.04065599665045738, 
        0.012878448702394962, 
        -0.04635573923587799, 
        -0.016219420358538628, 
        0.02283068746328354, 
        -0.011351403780281544, 
        0.019788334146142006, 
        0.12264025211334229, 
        0.0915818139910698, 
        0.01316516101360321, 
        0.04913999140262604, 
        0.04269162192940712, 
        0.05224086716771126, 
        0.10599458962678909, 
        0.12112150341272354, 
        0.015268436633050442, 
        -0.284831166267395, 
        -0.25497373938560486, 
        -0.3091011047363281, 
        0.021494312211871147, 
        -0.06189100816845894, 
        -0.03189055249094963, 
        0.017190543934702873, 
        0.06325437128543854, 
        0.028778305277228355, 
        -0.016820693388581276, 
        0.0032083753030747175, 
        -0.026645898818969727, 
        0.03337228670716286, 
        0.03411426395177841, 
        0.07345809042453766, 
        0.06240018829703331, 
        0.016137825325131416, 
        0.039687540382146835, 
        0.0198943130671978, 
        0.37217092514038086, 
        -0.27116042375564575, 
        0.08323218673467636, 
        0.024817194789648056, 
        0.0026040542870759964, 
        -0.013726148754358292, 
        0.05584951862692833, 
        -0.11321168392896652, 
        0.03978394716978073, 
        0.018386179581284523, 
        0.004360802471637726, 
        0.012409725226461887, 
        -0.10898828506469727, 
        0.08647281676530838, 
        -0.01791508123278618, 
        -0.06302405148744583, 
        -0.06752296537160873, 
        -0.04913277551531792, 
        0.017942801117897034, 
        -0.077801413834095, 
        0.004953601863235235, 
        -0.04227161034941673, 
        0.0701901763677597, 
        0.06456273049116135, 
        -0.04232845827937126, 
        0.03975135460495949, 
        0.03872484341263771, 
        0.040923502296209335, 
        0.050801753997802734, 
        0.028074344620108604, 
        0.017394356429576874, 
        -0.12908335030078888, 
        -0.0634419396519661, 
        -0.010477399453520775, 
        0.05739806592464447, 
        0.06043784320354462, 
        -0.026053378358483315, 
        -0.012864924035966396, 
        0.08245200663805008, 
        0.02348213829100132, 
        -0.0203987006098032, 
        -0.03631458804011345, 
        -0.002066834829747677, 
        -0.05058479681611061, 
        -0.036859624087810516, 
        0.06076648458838463, 
        0.028262389823794365, 
        -0.04076160863041878, 
        0.02492959052324295, 
        -0.0134576465934515, 
        0.19579266011714935, 
        -0.13086360692977905, 
        -0.05960255116224289, 
        -0.09880650788545609, 
        0.05348572880029678, 
        0.026819951832294464, 
        0.002849073149263859, 
        -0.015976421535015106, 
        -0.06921317428350449, 
        -0.021483661606907845, 
        -0.06726416945457458, 
        -0.3100823760032654, 
        0.10197482258081436, 
        -0.3349663317203522, 
        -0.017994463443756104, 
        0.02182059735059738, 
        -0.022809939458966255, 
        -0.009601791389286518, 
        -0.01679317094385624, 
        -0.07514023035764694, 
        -0.1989823430776596, 
        -0.025281131267547607, 
        -0.048674777150154114, 
        -0.05252934247255325, 
        -0.028264150023460388, 
        -0.14648117125034332, 
        -0.10224619507789612, 
        -0.06680971384048462, 
        -0.027036473155021667, 
        -0.06448134779930115, 
        -0.019088346511125565, 
        0.10181402415037155, 
        -0.07918328791856766, 
        0.00984477810561657, 
        0.054021358489990234, 
        -0.002102731727063656, 
        -0.31364911794662476, 
        -0.3031424880027771, 
        -0.05371059104800224, 
        -0.03720124438405037, 
        -0.012938689440488815, 
        0.06679850071668625, 
        0.05901184678077698, 
        -0.050140686333179474, 
        -0.010875345207750797, 
        -0.06139945238828659, 
        -0.08863449841737747, 
        -0.10131986439228058, 
        0.018835144117474556, 
        -0.006918275263160467, 
        -0.7038707137107849, 
        0.01551818661391735, 
        0.0855439156293869, 
        0.0968303233385086, 
        -0.04620782285928726, 
        -0.06480206549167633, 
        -0.048288799822330475, 
        -0.08529890328645706, 
        0.13928095996379852, 
        0.0028054602444171906, 
        0.07819157838821411, 
        0.07389150559902191, 
        -0.11904425919055939, 
        0.1923481673002243, 
        0.014011449180543423, 
        -0.06221117079257965, 
        0.04524492844939232, 
        -0.040118686854839325, 
        -0.011885411106050014, 
        0.018047722056508064, 
        0.07471892982721329, 
        -0.043649401515722275, 
        0.02441045269370079, 
        0.1004231870174408, 
        -0.04684952273964882, 
        0.04914093762636185, 
        0.10985561460256577, 
        0.07679088413715363, 
        0.08309759944677353, 
        0.06006934121251106, 
        0.011763504706323147, 
        -0.22389499843120575, 
        -0.07539008557796478, 
        -0.15399368107318878, 
        0.021952392533421516, 
        0.0055909897200763226, 
        -0.019564472138881683, 
        0.0015732130268588662, 
        0.11170418560504913, 
        -0.04270008206367493, 
        -0.0403607115149498, 
        -0.006571468897163868, 
        -0.05020248144865036, 
        0.04985508695244789, 
        0.0006105584325268865, 
        0.044302113354206085, 
        0.06305225193500519, 
        0.024702414870262146, 
        0.04525113105773926, 
        0.019168687984347343, 
        0.4527033567428589, 
        -0.2046477198600769, 
        0.06592453271150589, 
        0.07307504862546921, 
        0.020569708198308945, 
        -0.02287561632692814, 
        -0.051041655242443085, 
        -0.030190274119377136, 
        0.003741714870557189, 
        -0.0371645949780941, 
        0.01028019841760397, 
        -0.15884345769882202, 
        0.0068242489360272884, 
        -0.2135496586561203, 
        -0.001435658661648631, 
        -0.08061379939317703, 
        -0.026650743559002876, 
        0.02154063805937767, 
        0.025460321456193924, 
        -0.020681260153651237, 
        -0.08699768781661987, 
        0.09198858588933945, 
        0.005192138720303774, 
        0.02404138445854187, 
        -0.020144164562225342, 
        -0.038579054176807404, 
        -0.10381633788347244, 
        -0.03665890172123909, 
        0.010335409082472324, 
        0.06327440589666367, 
        0.04235376790165901, 
        -0.018564440310001373, 
        -0.06495185941457748, 
        -0.030129289254546165, 
        0.052666667848825455, 
        -0.0015356149524450302, 
        -0.21655088663101196, 
        -0.26715248823165894, 
        0.006517732050269842, 
        -0.10822002589702606, 
        -0.07360982149839401, 
        -0.0018436897080391645, 
        -0.018842073157429695, 
        -0.007966043427586555, 
        -0.05382053926587105, 
        0.11078671365976334, 
        0.09636018425226212, 
        -0.0225539393723011, 
        -0.00589738367125392, 
        -0.013548833318054676, 
        -0.4078294038772583, 
        -0.07570596784353256, 
        -0.0996142253279686, 
        -0.10980553179979324, 
        -0.012163639068603516, 
        0.0626639649271965, 
        -0.02295767143368721, 
        0.0035535255447030067, 
        -0.06578479707241058, 
        0.0017359786434099078, 
        -0.024110445752739906, 
        -0.08942363411188126, 
        0.15756212174892426, 
        -0.24863366782665253, 
        0.02984364703297615, 
        0.02756551280617714, 
        0.015941523015499115, 
        0.0010179274249821901, 
        -0.0039911395870149136, 
        -0.030435025691986084, 
        -0.06671138107776642, 
        -0.003619467606768012, 
        -0.07402149587869644, 
        -0.1340327262878418, 
        0.007850426249206066, 
        -0.0981379970908165, 
        -0.1847519427537918, 
        -0.15040414035320282, 
        -0.11187181621789932, 
        -0.049261387437582016, 
        0.016265664249658585, 
        0.2600126564502716, 
        0.10493272542953491, 
        0.13257697224617004, 
        0.035106778144836426, 
        -0.007242630701512098, 
        -0.07956396043300629, 
        -0.15832149982452393, 
        -0.07308252155780792, 
        0.021747145801782608, 
        0.09848948568105698, 
        0.028393130749464035, 
        0.005736947525292635, 
        -0.029128236696124077, 
        -0.017419982701539993, 
        -0.08267573267221451, 
        -0.1348249316215515, 
        -0.06820187717676163, 
        -0.030416691675782204, 
        0.009438131004571915, 
        -0.5022759437561035, 
        0.2694016993045807, 
        0.0027778088115155697, 
        -0.0253074299544096, 
        -0.05664568021893501, 
        0.07001173496246338, 
        0.07732971012592316, 
        0.03106057457625866, 
        0.015884732827544212, 
        -0.004838857799768448, 
        -0.036192264407873154, 
        -0.016239790245890617, 
        -0.12353697419166565, 
        0.048509471118450165, 
        -0.1013464406132698, 
        -0.07258094102144241, 
        0.06571086496114731, 
        -0.06170273944735527, 
        0.01620609313249588, 
        -0.021127494052052498, 
        -0.000430823682108894, 
        -0.04712425917387009, 
        0.0437922403216362, 
        -0.03982209414243698, 
        0.03601164370775223, 
        0.04516773298382759, 
        0.01897076517343521, 
        0.04420258104801178, 
        0.05702399089932442, 
        -0.010138052515685558, 
        0.009009155444800854, 
        -0.01945684477686882, 
        -0.020996132865548134, 
        -0.07170454412698746, 
        0.013911592774093151, 
        -0.060695502907037735, 
        -0.06391362845897675, 
        0.005184249486774206, 
        0.02839832194149494, 
        -0.041372835636138916, 
        -0.061278291046619415, 
        -0.019983559846878052, 
        -0.05034678801894188, 
        -0.1375100314617157, 
        -0.01979980058968067, 
        -0.03788119554519653, 
        -0.03353353589773178, 
        -0.009267986752092838, 
        0.05056031420826912, 
        -0.06495263427495956, 
        0.016688192263245583, 
        -0.0170452743768692, 
        0.059865642338991165, 
        0.09397328644990921, 
        0.00943941529840231, 
        -0.05860751494765282, 
        0.014043222181499004, 
        -0.030257239937782288, 
        0.0903671532869339, 
        -0.008172644302248955, 
        0.014928275719285011, 
        0.10209877043962479, 
        -0.13372041285037994, 
        0.18292802572250366, 
        -0.027236035093665123, 
        0.004293379839509726, 
        0.014565282501280308, 
        0.05256875976920128, 
        -0.014725734479725361, 
        -0.017798304557800293, 
        0.05578378215432167, 
        -0.03828861564397812, 
        0.12713193893432617, 
        0.05030423030257225, 
        -0.02895917184650898, 
        0.06800158321857452, 
        0.10075105726718903, 
        0.06227753683924675, 
        0.1188584640622139, 
        0.12833769619464874, 
        0.022572966292500496, 
        -0.33569231629371643, 
        -0.11430384963750839, 
        -0.3190285861492157, 
        -0.010456662625074387, 
        0.023298371583223343, 
        0.006375306751579046, 
        -0.035285547375679016, 
        0.07815048843622208, 
        0.04381909221410751, 
        -0.038944583386182785, 
        -0.0002567819901742041, 
        -0.03376161679625511, 
        0.04419567063450813, 
        -0.03218238055706024, 
        0.12690573930740356, 
        0.0873398408293724, 
        -0.022603873163461685, 
        -0.0005377548513934016, 
        0.056351710110902786, 
        0.3869173526763916, 
        -0.19092461466789246, 
        0.04127601161599159, 
        0.09192144125699997, 
        0.014528061263263226, 
        0.021287361159920692, 
        -0.02173756994307041, 
        -0.045084595680236816, 
        0.1247132271528244, 
        -0.03399384394288063, 
        0.021252159029245377, 
        0.02885889634490013, 
        -0.14249993860721588, 
        0.18882834911346436, 
        -0.09272484481334686, 
        -0.03210648149251938, 
        0.025293678045272827, 
        -0.0073429676704108715, 
        -0.010316077619791031, 
        0.009066288359463215, 
        -0.00076152419205755, 
        -0.05223280191421509, 
        0.07784798741340637, 
        0.05275833606719971, 
        0.03730841353535652, 
        0.10608236491680145, 
        0.07723050564527512, 
        0.11185319721698761, 
        0.09211970865726471, 
        0.07331373542547226, 
        0.028125938028097153, 
        -0.26085957884788513, 
        -0.154689759016037, 
        -0.2635674476623535, 
        -0.032946620136499405, 
        0.02558720111846924, 
        0.02956247702240944, 
        0.00769670307636261, 
        0.10420996695756912, 
        -0.04653108865022659, 
        -0.07436379045248032, 
        -0.022863231599330902, 
        -0.05744523927569389, 
        -0.028406456112861633, 
        0.0579935759305954, 
        0.04735010489821434, 
        0.10912759602069855, 
        0.06798037886619568, 
        -0.044959183782339096, 
        0.03183187544345856, 
        0.38673555850982666, 
        -0.1991901844739914, 
        0.034964557737112045, 
        0.058666523545980453, 
        0.039827533066272736, 
        0.043271809816360474, 
        0.19194214046001434, 
        0.057129476219415665, 
        -0.020321927964687347, 
        -0.05051909014582634, 
        -0.00024968921206891537, 
        0.24228110909461975, 
        -0.047426410019397736, 
        0.3187858462333679, 
        -0.014791501685976982, 
        -0.05241886526346207, 
        0.03955861181020737, 
        0.06868461519479752, 
        0.01867353916168213, 
        -0.06136336550116539, 
        0.08481461554765701, 
        -0.046951718628406525, 
        -0.008223800919950008, 
        0.07502660155296326, 
        -0.0227910615503788, 
        0.11138340830802917, 
        0.1372835636138916, 
        0.011212331242859364, 
        0.07720362395048141, 
        0.07817476242780685, 
        0.014460492879152298, 
        0.06939977407455444, 
        0.21432919800281525, 
        0.2150619477033615, 
        0.017958207055926323, 
        -0.07771515846252441, 
        0.3453526794910431, 
        0.306731641292572, 
        0.06548750400543213, 
        0.06949276477098465, 
        0.055697038769721985, 
        -0.037446074187755585, 
        0.008375784382224083, 
        0.05711685121059418, 
        0.02137085236608982, 
        -0.006408260203897953, 
        0.015602974221110344, 
        0.01055380329489708, 
        -0.07424905151128769, 
        -0.009990491904318333, 
        0.5087109804153442, 
        0.36936306953430176, 
        -0.004050150979310274, 
        0.04152052849531174, 
        -0.008741398341953754, 
        0.13792024552822113, 
        0.1382516473531723, 
        -0.08309156447649002, 
        -0.011102579534053802, 
        -0.012579451315104961, 
        -0.09896476566791534, 
        0.11998627334833145, 
        -0.035579998046159744, 
        0.17343920469284058, 
        0.0670735090970993, 
        0.00206970633007586, 
        -0.02766232006251812, 
        -0.03845037892460823, 
        -0.01105857826769352, 
        -0.022755995392799377, 
        -0.07683233171701431, 
        -0.17681573331356049, 
        -0.053024232387542725, 
        -0.023811975494027138, 
        0.027694234624505043, 
        -0.006464386824518442, 
        0.0048263766802847385, 
        -0.007880520075559616, 
        -0.02230556309223175, 
        -4.463765071704984e-05, 
        -0.016827315092086792, 
        -0.2035284787416458, 
        -0.009283597581088543, 
        -0.24223847687244415, 
        0.15357623994350433, 
        0.04549787938594818, 
        0.26615557074546814, 
        0.26548531651496887, 
        -0.027176452800631523, 
        -0.017773451283574104, 
        0.009331398643553257, 
        -0.04363371804356575, 
        0.05503874644637108, 
        0.01697940193116665, 
        -0.015038047917187214, 
        -0.013234010897576809, 
        -0.00775669002905488, 
        0.019979991018772125, 
        -0.01072582509368658, 
        -0.09821740537881851, 
        0.21165387332439423, 
        0.06405998766422272, 
        -0.07785390317440033, 
        -0.12489517778158188, 
        -0.020830299705266953, 
        0.0027015521191060543, 
        -0.002102684462442994, 
        -0.0035670162178575993, 
        -0.0828004777431488, 
        0.029895948246121407, 
        -0.005824295338243246, 
        0.0968284159898758, 
        0.07090013474225998, 
        0.010105364955961704, 
        -0.01821010932326317, 
        0.024385172873735428, 
        0.04511733725667, 
        -0.0004581421671900898, 
        -0.012128149159252644, 
        -0.028730444610118866, 
        -0.22186824679374695, 
        -0.4499795436859131, 
        0.12505128979682922, 
        -0.0003368791949469596, 
        -0.014315381646156311, 
        -0.04809786006808281, 
        -0.08195368945598602, 
        0.032380033284425735, 
        0.08023513108491898, 
        0.008103577420115471, 
        -0.00703432597219944, 
        0.07076918333768845, 
        -0.10147061944007874, 
        -0.15115556120872498, 
        0.2608664631843567, 
        0.2466847449541092, 
        0.769264817237854, 
        0.6872844099998474, 
        -0.04711464047431946, 
        0.053166672587394714, 
        0.07550019770860672, 
        -0.14367341995239258, 
        0.07758312672376633, 
        0.22249047458171844, 
        0.19976526498794556, 
        -0.08557653427124023, 
        -0.08098619431257248, 
        -0.12077542394399643, 
        -0.15907567739486694, 
        0.006881100591272116, 
        0.48179709911346436, 
        -0.37191662192344666, 
        0.1770058572292328, 
        0.08289042115211487, 
        0.048722557723522186, 
