{
  "defaults": {}, 
   "inputs": [
    {
      "name": "variable_name0", 
      "offset": "0", 
      "scale": "1"
    }, 
    {
      "name": "variable_name1", 
      "offset": "0", 
      "scale": "1"
    }, 
    {
      "name": "variable_name2", 
      "offset": "0", 
      "scale": "1"
    }, 
    {
      "name": "variable_name3", 
      "offset": "0", 
      "scale": "1"
    }, 
    {
      "name": "variable_name4", 
      "offset": "0", 
      "scale": "1"
    }, 
    {
      "name": "variable_name5", 
      "offset": "0", 
      "scale": "1"
    }, 
    {
      "name": "variable_name6", 
      "offset": "0", 
      "scale": "1"
    }, 
    {
      "name": "variable_name7", 
      "offset": "0", 
      "scale": "1"
    }, 
    {
      "name": "variable_name8", 
      "offset": "0", 
      "scale": "1"
    }, 
    {
      "name": "variable_name9", 
      "offset": "0", 
      "scale": "1"
    }, 
    {
      "name": "variable_name10", 
      "offset": "0", 
      "scale": "1"
    }, 
    {
      "name": "variable_name11", 
      "offset": "0", 
      "scale": "1"
    }, 
    {
      "name": "variable_name12", 
      "offset": "0", 
      "scale": "1"
    }, 
    {
      "name": "variable_name13", 
      "offset": "0", 
      "scale": "1"
    }, 
    {
      "name": "variable_name14", 
      "offset": "0", 
      "scale": "1"
    }, 
    {
      "name": "variable_name15", 
      "offset": "0", 
      "scale": "1"
    }, 
    {
      "name": "variable_name16", 
      "offset": "0", 
      "scale": "1"
    }, 
    {
      "name": "variable_name17", 
      "offset": "0", 
      "scale": "1"
    }, 
    {
      "name": "variable_name18", 
      "offset": "0", 
      "scale": "1"
    }, 
    {
      "name": "variable_name19", 
      "offset": "0", 
      "scale": "1"
    }, 
    {
      "name": "variable_name20", 
      "offset": "0", 
      "scale": "1"
    }, 
    {
      "name": "variable_name21", 
      "offset": "0", 
      "scale": "1"
    }, 
    {
      "name": "variable_name22", 
      "offset": "0", 
      "scale": "1"
    }, 
    {
      "name": "variable_name23", 
      "offset": "0", 
      "scale": "1"
    }, 
    {
      "name": "variable_name24", 
      "offset": "0", 
      "scale": "1"
    }, 
    {
      "name": "variable_name25", 
      "offset": "0", 
      "scale": "1"
    }, 
    {
      "name": "variable_name26", 
      "offset": "0", 
      "scale": "1"
    }, 
    {
      "name": "variable_name27", 
      "offset": "0", 
      "scale": "1"
    }, 
    {
      "name": "variable_name28", 
      "offset": "0", 
      "scale": "1"
    }, 
    {
      "name": "variable_name29", 
      "offset": "0", 
      "scale": "1"
    }, 
    {
      "name": "variable_name30", 
      "offset": "0", 
      "scale": "1"
    }, 
    {
      "name": "variable_name31", 
      "offset": "0", 
      "scale": "1"
    }, 
    {
      "name": "variable_name32", 
      "offset": "0", 
      "scale": "1"
    }, 
    {
      "name": "variable_name33", 
      "offset": "0", 
      "scale": "1"
    }, 
    {
      "name": "variable_name34", 
      "offset": "0", 
      "scale": "1"
    }, 
    {
      "name": "variable_name35", 
      "offset": "0", 
      "scale": "1"
    }, 
    {
      "name": "variable_name36", 
      "offset": "0", 
      "scale": "1"
    }, 
    {
      "name": "variable_name37", 
      "offset": "0", 
      "scale": "1"
    }, 
    {
      "name": "variable_name38", 
      "offset": "0", 
      "scale": "1"
    }, 
    {
      "name": "variable_name39", 
      "offset": "0", 
      "scale": "1"
    }, 
    {
      "name": "variable_name40", 
      "offset": "0", 
      "scale": "1"
    }, 
    {
      "name": "variable_name41", 
      "offset": "0", 
      "scale": "1"
    }, 
    {
      "name": "variable_name42", 
      "offset": "0", 
      "scale": "1"
    }, 
    {
      "name": "variable_name43", 
      "offset": "0", 
      "scale": "1"
    }, 
    {
      "name": "variable_name44", 
      "offset": "0", 
      "scale": "1"
    }, 
    {
      "name": "variable_name45", 
      "offset": "0", 
      "scale": "1"
    }, 
    {
      "name": "variable_name46", 
      "offset": "0", 
      "scale": "1"
    }, 
    {
      "name": "variable_name47", 
      "offset": "0", 
      "scale": "1"
    }, 
    {
      "name": "variable_name48", 
      "offset": "0", 
      "scale": "1"
    }, 
    {
      "name": "variable_name49", 
      "offset": "0", 
      "scale": "1"
    }
  ], 
  "layers": [
    {
      "activation": "rectified", 
      "architecture": "dense", 
      "bias": [
        0.06458380073308945, 
        0.0342407263815403, 
        0.12149112671613693, 
        -0.02599107101559639, 
        -0.055093977600336075, 
        0.041490498930215836, 
        0.09340856969356537, 
        0.10552234202623367, 
        -0.051314227283000946, 
        -0.02690739743411541, 
        -0.044974226504564285, 
        0.15753552317619324, 
        -0.044675957411527634, 
        -0.03206000477075577, 
        0.09663983434438705, 
        0.08491338789463043, 
        -0.03681068867444992, 
        0.045915622264146805, 
        -0.0020079598762094975, 
        -0.04979850724339485, 
        -0.060637012124061584, 
        0.07187492400407791, 
        0.1437336802482605, 
        -0.03888878971338272, 
        -0.013829061761498451, 
        -0.06221100315451622, 
        -0.018523812294006348, 
        0.12023838609457016, 
        0.12281830608844757, 
        0.1061791479587555, 
        -0.03982872888445854, 
        0.10656404495239258, 
        -0.03926189988851547, 
        0.1895732581615448, 
        0.10969583690166473, 
        -0.03016422875225544, 
        -0.007905535399913788, 
        0.05317229405045509, 
        -0.028567640110850334, 
        0.084671251475811, 
        0.06478115916252136, 
        -0.04425235465168953, 
        0.08307740837335587, 
        0.06103576347231865, 
        0.13906905055046082, 
        0.06743060797452927, 
        0.09513217955827713, 
        0.09262426197528839, 
        0.10086953639984131, 
        0.06821027398109436, 
        -0.03980468958616257, 
        -0.07088682800531387, 
        -0.05286230146884918, 
        -0.03852633014321327, 
        0.17809967696666718, 
        -0.01583677902817726, 
        0.09865806996822357, 
        0.13566954433918, 
        -0.008789287880063057, 
        0.03135690093040466, 
        0.08516015857458115, 
        0.07745202630758286, 
        -0.05360371246933937, 
        -0.04586152732372284, 
        -0.05661633610725403, 
        0.06696711480617523, 
        0.10849010944366455, 
        0.09736572951078415, 
        0.07283490896224976, 
        0.07237502187490463, 
        0.06397241353988647, 
        -0.042157161980867386, 
        -0.03866904601454735, 
        -0.0445718877017498, 
        0.11922848969697952, 
        -0.036519236862659454, 
        -0.02052280865609646, 
        0.14870651066303253, 
        -0.0026197428815066814, 
        0.08971226215362549, 
        0.07222875207662582, 
        0.000823258189484477, 
        0.1038886308670044, 
        0.07699834555387497, 
        0.14154143631458282, 
        0.16939786076545715, 
        -0.051415152847766876, 
        0.09785405546426773, 
        -0.022939611226320267, 
        -0.05000826343894005, 
        -0.051693663001060486, 
        0.0845014750957489, 
        0.044816337525844574, 
        -0.03531160578131676, 
        -0.043408073484897614, 
        0.07912669330835342, 
        -0.03420768678188324, 
        0.05426448583602905, 
        0.09412674605846405, 
        0.09710251539945602
      ], 
      "weights": [
        0.018400052562355995, 
        0.018197499215602875, 
        -0.0043823919259011745, 
        0.015308775939047337, 
        0.04295505955815315, 
        0.04259735718369484, 
        0.0920419842004776, 
        -0.07788307964801788, 
        -0.02240946516394615, 
        0.11312360316514969, 
        -0.03207564353942871, 
        0.08585459738969803, 
        -0.007988084107637405, 
        0.019006753340363503, 
        -0.05582152307033539, 
        -0.05574557185173035, 
        -0.05252542719244957, 
        0.02272171713411808, 
        -0.06243342533707619, 
        -0.05066173896193504, 
        0.011637816205620766, 
        -0.04856348782777786, 
        -0.07297690212726593, 
        0.29348263144493103, 
        0.238474503159523, 
        0.15579339861869812, 
        -0.0033081388100981712, 
        -0.03352522850036621, 
        0.013065147213637829, 
        -0.07872302830219269, 
        -0.05016520246863365, 
        -0.22307148575782776, 
        0.011545082554221153, 
        0.026100391522049904, 
        -0.18444083631038666, 
        -0.21822935342788696, 
        0.048455677926540375, 
        -0.0072628166526556015, 
        -0.025258304551243782, 
        -0.021810438483953476, 
        -0.01631717011332512, 
        -0.16588428616523743, 
        -0.11074928939342499, 
        0.042118705809116364, 
        0.012664560228586197, 
        -0.011697059497237206, 
        -0.04427819326519966, 
        -0.021535301581025124, 
        0.2930227220058441, 
        -0.014296350069344044, 
        0.06031174957752228, 
        0.01798165589570999, 
        -0.07856358587741852, 
        -0.025816507637500763, 
        -0.029190538451075554, 
        0.016548478975892067, 
        0.0021311005111783743, 
        0.004231259226799011, 
        0.023750286549329758, 
        -0.010967139154672623, 
        -0.03724302724003792, 
        -0.006378158926963806, 
        -0.008233829401433468, 
        0.0034409938380122185, 
        -0.15704195201396942, 
        0.05111856386065483, 
        -0.02174852229654789, 
        0.08250566571950912, 
        -0.06265123188495636, 
        -0.01283301692456007, 
        -0.0027647600509226322, 
        -0.0368366539478302, 
        -0.013932916335761547, 
        0.4131854474544525, 
        0.41222628951072693, 
        0.0765608474612236, 
        -0.00013071834109723568, 
        -0.049079932272434235, 
        -0.0028770072385668755, 
        -0.02199620194733143, 
        0.06360913068056107, 
        -0.024441702291369438, 
        -0.0007136335480026901, 
        -0.04446721822023392, 
        -0.15222415328025818, 
        -0.12065636366605759, 
        0.05865490064024925, 
        0.07562141120433807, 
        0.006592379417270422, 
        0.0752592459321022, 
        0.019837863743305206, 
        -0.1749141663312912, 
        -0.14912210404872894, 
        0.014847727492451668, 
        0.0031979097984731197, 
        -0.046556513756513596, 
        -0.03982028365135193, 
        -0.040751323103904724, 
        0.22532008588314056, 
        -0.014791724272072315, 
        0.10962934046983719, 
        0.14807389676570892, 
        0.011981241405010223, 
        -0.07182031124830246, 
        0.056294459849596024, 
        0.044730640947818756, 
        0.1154446005821228, 
        -0.04772746562957764, 
        0.010069098323583603, 
        0.08855194598436356, 
        -0.14673162996768951, 
        0.06615163385868073, 
        -0.11592307686805725, 
        -0.0074861482717096806, 
        0.08133001625537872, 
        -0.002728347899392247, 
        -0.019825413823127747, 
        0.03845575451850891, 
        -0.023388760164380074, 
        -0.15196581184864044, 
        0.09441012144088745, 
        0.051327694207429886, 
        -0.056112904101610184, 
        0.5253346562385559, 
        0.5548080801963806, 
        0.37660056352615356, 
        0.05018255114555359, 
        0.0801786333322525, 
        -0.017988599836826324, 
        0.4791560173034668, 
        0.40747761726379395, 
        0.14737659692764282, 
        0.02418477274477482, 
        -0.049641773104667664, 
        -0.6681545376777649, 
        -0.6724638938903809, 
        0.0884392186999321, 
        0.14733901619911194, 
        0.009072048589587212, 
        0.18949894607067108, 
        -0.00392430555075407, 
        -0.16066759824752808, 
        -0.17978157103061676, 
        0.08544185757637024, 
        0.15475453436374664, 
        -0.009117250330746174, 
        0.03935706242918968, 
        -0.0053032394498586655, 
        0.46285200119018555, 
        -0.19712823629379272, 
        -0.007868845015764236, 
        -0.036424484103918076, 
        0.048775117844343185, 
        0.02323807030916214, 
        -0.05341513454914093, 
        -0.0055542378686368465, 
        -0.024048680439591408, 
        0.004462765995413065, 
        -0.01659359037876129, 
        -0.07751228660345078, 
        0.03087221458554268, 
        -0.16113585233688354, 
        0.01569158397614956, 
        -0.0217283982783556, 
        -0.012181224301457405, 
        -0.0243747029453516, 
        0.037057068198919296, 
        0.0011967759346589446, 
        -0.164263516664505, 
        -0.05397389829158783, 
        0.034949809312820435, 
        0.015466216951608658, 
        0.03564077988266945, 
        -0.6098707914352417, 
        -0.5579296350479126, 
        -0.17406012117862701, 
        0.02856765314936638, 
        -0.053344763815402985, 
        -0.019979150965809822, 
        -0.03498576208949089, 
        -0.22547362744808197, 
        -0.008273783139884472, 
        0.1387595683336258, 
        0.20710478723049164, 
        -0.030266666784882545, 
        -0.11941325664520264, 
        -0.02890065312385559, 
        -0.0524623729288578, 
        -0.05145861580967903, 
        -0.12281697243452072, 
        0.0021870145574212074, 
        0.23076626658439636, 
        0.2178252637386322, 
        -0.043070875108242035, 
        -0.05617267265915871, 
        -0.006439472083002329, 
        0.05351507291197777, 
        0.04742835834622383, 
        -0.35526043176651, 
        -0.10400625318288803, 
        -0.009460268542170525, 
        -0.046489402651786804, 
        0.032324716448783875, 
        -0.02584415301680565, 
        0.014670373871922493, 
        -0.05350511893630028, 
        -0.020498840138316154, 
        0.020078450441360474, 
        0.0013334277318790555, 
        -0.09791553765535355, 
        -0.003259752644225955, 
        -0.1373944878578186, 
        0.014655832201242447, 
        0.05378919094800949, 
        -0.042330652475357056, 
        -0.018243368715047836, 
        -0.0027043926529586315, 
        -0.01554769929498434, 
        -0.15878301858901978, 
        -0.054216884076595306, 
        0.019326617941260338, 
        -0.015883786603808403, 
        0.05734759196639061, 
        -0.6509514451026917, 
        -0.6056981086730957, 
        -0.222690150141716, 
        -0.001492480980232358, 
        0.0007326389313675463, 
        -0.01101661752909422, 
        -0.07162037491798401, 
        -0.1586969941854477, 
        -0.04082968458533287, 
        0.036083705723285675, 
        0.1310882270336151, 
        0.1060834527015686, 
        0.12878389656543732, 
        -0.03541534021496773, 
        0.0010164083214476705, 
        0.010290376842021942, 
        -0.032520659267902374, 
        0.05824854597449303, 
        0.18265162408351898, 
        0.20082299411296844, 
        -0.051367830485105515, 
        -0.06181434541940689, 
        0.027966590598225594, 
        0.006142933387309313, 
        0.048507653176784515, 
        -0.3540037274360657, 
        -0.030879663303494453, 
        0.04677453264594078, 
        0.0653456598520279, 
        -0.002413302194327116, 
        -0.031918004155159, 
        -0.11428087204694748, 
        0.034199994057416916, 
        0.006754603236913681, 
        0.0528164841234684, 
        -0.022201817482709885, 
        0.04871039837598801, 
        -0.02276339940726757, 
        0.027693333104252815, 
        -0.014317098073661327, 
        0.06600817292928696, 
        0.06083173677325249, 
        -0.02605394460260868, 
        -0.01719800941646099, 
        0.046062491834163666, 
        0.05946054309606552, 
        0.05029963701963425, 
        0.003953658975660801, 
        -0.014184409752488136, 
        0.015516404993832111, 
        0.42745035886764526, 
        0.3772604167461395, 
        0.11845330148935318, 
        -0.017424514517188072, 
        0.05389699712395668, 
        -0.02783086895942688, 
        0.09379158169031143, 
        0.1249513253569603, 
        0.2614918649196625, 
        -0.10596378147602081, 
        -0.1287470906972885, 
        -0.1866721659898758, 
        -0.13918718695640564, 
        0.014573647640645504, 
        0.05260131508111954, 
        0.08773397654294968, 
        0.02101302146911621, 
        0.021177446469664574, 
        -0.15437115728855133, 
        -0.23830591142177582, 
        -0.004877487663179636, 
        0.04994863271713257, 
        -0.00575899938121438, 
        -0.014523404650390148, 
        0.018724855035543442, 
        0.18931955099105835, 
        -0.07717327773571014, 
        0.09266380220651627, 
        0.12480026483535767, 
        -0.007675512693822384, 
        -0.03638867661356926, 
        0.03895194083452225, 
        -0.04311402142047882, 
        0.04770716652274132, 
        -0.04216785356402397, 
        0.05867718160152435, 
        0.12554478645324707, 
        -0.02830706350505352, 
        -0.02444019541144371, 
        -4.587931471178308e-05, 
        -0.014656362123787403, 
        -0.028343679383397102, 
        -0.04490441456437111, 
        -0.07904858887195587, 
        0.01756431721150875, 
        -0.09871954470872879, 
        -0.1402071863412857, 
        -0.000619282596744597, 
        -0.007743978872895241, 
        0.019123289734125137, 
        0.22887183725833893, 
        0.26487836241722107, 
        0.07240723073482513, 
        -0.0023451121523976326, 
        -0.008670183829963207, 
        -0.05616741254925728, 
        -0.06598014384508133, 
        -0.14282339811325073, 
        -0.376656711101532, 
        0.11876165866851807, 
        0.10096489638090134, 
        -0.23154130578041077, 
        -0.2670997679233551, 
        0.12771651148796082, 
        0.02547927014529705, 
        -0.005831604823470116, 
        -0.059865355491638184, 
        -0.0049859462305903435, 
        -0.09397673606872559, 
        -0.16111569106578827, 
        0.06033648923039436, 
        0.12501060962677002, 
        0.02215302549302578, 
        -0.0034906836226582527, 
        -0.05607596039772034, 
        0.26257431507110596, 
        -0.11452789604663849, 
        0.06094658374786377, 
        0.1299770474433899, 
        0.04567728564143181, 
        0.03626803308725357, 
        0.028011377900838852, 
        -0.02441871166229248, 
        0.10305142402648926, 
        -0.012335117906332016, 
        0.04791896417737007, 
        0.18048487603664398, 
        0.013968461193144321, 
        0.13555821776390076, 
        -0.012272671796381474, 
        0.029112335294485092, 
        -0.05544991418719292, 
        -0.032835688441991806, 
        -0.008845330215990543, 
        -0.021485650911927223, 
        0.13215519487857819, 
        0.03736136481165886, 
        0.01645689085125923, 
        0.025518985465168953, 
        0.016424639150500298, 
        0.5874111652374268, 
        0.5757936835289001, 
        0.20001432299613953, 
        0.03297583758831024, 
        0.07691509276628494, 
        0.018888084217905998, 
        -0.05819954723119736, 
        0.07361637055873871, 
        -0.22908715903759003, 
        0.004249070771038532, 
        -0.0639074295759201, 
        -0.21855810284614563, 
        -0.20380809903144836, 
        0.14695437252521515, 
        0.09719549119472504, 
        0.009809620678424835, 
        0.12065127491950989, 
        -0.005082873161882162, 
        -0.1403331756591797, 
        -0.17460495233535767, 
        0.06726135313510895, 
        0.1420828253030777, 
        0.04137691482901573, 
        0.000325129454722628, 
        0.037078168243169785, 
        0.38738781213760376, 
        -0.009752298705279827, 
        -0.0777847096323967, 
        -0.1030811294913292, 
        0.0402427576482296, 
        0.06519055366516113, 
        -0.046223461627960205, 
        -0.019461987540125847, 
        -0.06637305021286011, 
        0.009942883625626564, 
        -0.02010311745107174, 
        -0.15603938698768616, 
        0.07109970599412918, 
        -0.1689605861902237, 
        0.01720558851957321, 
        -0.002567946445196867, 
        -0.03678979352116585, 
        -0.026256129145622253, 
        -0.01995033212006092, 
        -0.009075137786567211, 
        -0.08752001821994781, 
        -0.04047904908657074, 
        -0.006705632898956537, 
        0.02259378507733345, 
        0.03012617863714695, 
        -0.6687360405921936, 
        -0.5737444162368774, 
        -0.19665378332138062, 
        0.01543408166617155, 
        0.001427104347385466, 
        0.02587530016899109, 
        -0.0017818087944760919, 
        -0.084402896463871, 
        0.017689088359475136, 
        0.07453038543462753, 
        0.1616576761007309, 
        0.14911113679409027, 
        0.12170212715864182, 
        -0.07392030209302902, 
        -0.04598873481154442, 
        0.05779023841023445, 
        -0.09201117604970932, 
        0.056390490382909775, 
        0.1726355403661728, 
        0.2418750524520874, 
        0.028482815250754356, 
        -0.025380106642842293, 
        0.05866885185241699, 
        0.022512732073664665, 
        0.01801247149705887, 
        -0.4137127697467804, 
        -0.04336291551589966, 
        -0.03157729655504227, 
        -0.03843270614743233, 
        -0.009329619817435741, 
        0.02388211153447628, 
        -0.05493403598666191, 
        -0.029447773471474648, 
        -0.04834504798054695, 
        -0.023604167625308037, 
        -0.07364524155855179, 
        -0.13133682310581207, 
        -0.01282389834523201, 
        -0.1827978938817978, 
        0.01054590567946434, 
        0.03675335273146629, 
        0.016316866502165794, 
        -0.01401143055409193, 
        0.062140386551618576, 
        0.010354763828217983, 
        -0.14926110208034515, 
        -0.09076853096485138, 
        0.04581369087100029, 
        -0.00830858014523983, 
        0.00971043761819601, 
        -0.6256121397018433, 
        -0.6138213276863098, 
        -0.19554932415485382, 
        -0.008504733443260193, 
        0.04082021489739418, 
        -0.006835531909018755, 
        -0.03800826147198677, 
        -0.19616135954856873, 
        -0.09045162796974182, 
        0.13540172576904297, 
        0.17863446474075317, 
        0.013441898860037327, 
        -0.04547954723238945, 
        -0.029365528374910355, 
        -0.0368482768535614, 
        0.013743872754275799, 
        -0.06506409496068954, 
        0.023699315264821053, 
        0.19392909109592438, 
        0.20255862176418304, 
        0.04340572655200958, 
        -0.06254708021879196, 
        0.02076110802590847, 
        0.08390510082244873, 
        0.04514416679739952, 
        -0.38103002309799194, 
        -0.02887413464486599, 
        -0.03419477865099907, 
        -0.05408596619963646, 
        0.05752839148044586, 
        0.014919672161340714, 
        -0.021128691732883453, 
        -0.06551264971494675, 
        -0.021616822108626366, 
        -0.01168456207960844, 
        -0.08345998823642731, 
        -0.12612655758857727, 
        0.038545574992895126, 
        -0.19756940007209778, 
        0.03366071730852127, 
        0.05885540693998337, 
        -0.044913582503795624, 
        -0.02918258123099804, 
        0.025783052667975426, 
        -0.06587792187929153, 
        -0.0774674192070961, 
        -0.0687103196978569, 
        0.06167174503207207, 
        -0.03721325844526291, 
        0.042949069291353226, 
        -0.5907643437385559, 
        -0.5968461632728577, 
        -0.2283095419406891, 
        0.03598454222083092, 
        -0.03684699535369873, 
        0.0065453690476715565, 
        0.0018887982005253434, 
        -0.11392197012901306, 
        0.023464392870664597, 
        0.029978852719068527, 
        0.07892826199531555, 
        0.056957442313432693, 
        0.11279112845659256, 
        -0.0979330763220787, 
        -0.08585911244153976, 
        0.0030958910938352346, 
        -0.1341075897216797, 
        0.0548362210392952, 
        0.17400488257408142, 
        0.22881710529327393, 
        0.005515331402420998, 
        -0.04015878960490227, 
        0.03152724355459213, 
        0.03577671945095062, 
        0.0007947541307657957, 
        -0.4146801829338074, 
        -0.050359368324279785, 
        0.18217697739601135, 
        0.10822800546884537, 
        0.05470089241862297, 
        0.051043469458818436, 
        -0.00362470094114542, 
        -0.025599628686904907, 
        0.16973774135112762, 
        0.02354368567466736, 
        0.08047392964363098, 
        0.223605677485466, 
        0.01536566298455, 
        0.1978341042995453, 
        0.020778344944119453, 
        -0.0090546365827322, 
        -0.17752104997634888, 
        0.0044149719178676605, 
        0.018722781911492348, 
        0.019388917833566666, 
        0.16302740573883057, 
        0.10112455487251282, 
        0.09463029354810715, 
        0.10251211374998093, 
        0.014842020347714424, 
        0.7974996566772461, 
        0.7771492600440979, 
        0.3017725348472595, 
        0.046518780291080475, 
        0.11754302680492401, 
        0.002535770880058408, 
        -0.08308125287294388, 
        0.009510538540780544, 
        -0.15247076749801636, 
        -0.013416226021945477, 
        0.015063895843923092, 
        -0.27330535650253296, 
        -0.28419652581214905, 
        0.14255066215991974, 
        0.08664633333683014, 
        -0.1379254311323166, 
        0.20246712863445282, 
        -0.010056914761662483, 
        -0.06706289201974869, 
        -0.156906858086586, 
        0.11811292916536331, 
        0.1872352808713913, 
        0.043911874294281006, 
        0.07935962080955505, 
        0.035075392574071884, 
        0.4233095347881317, 
        0.10829997062683105, 
        -0.0628577321767807, 
        -0.0451071560382843, 
        0.0030922857113182545, 
        0.06518703699111938, 
        0.012569820508360863, 
        -0.030096277594566345, 
        -0.08929908275604248, 
        -0.03660541772842407, 
        -0.02428833395242691, 
        -0.0958016887307167, 
        0.05463769659399986, 
        -0.15916062891483307, 
        -0.032086052000522614, 
        0.038769617676734924, 
        -0.00405524205416441, 
        -0.010160820558667183, 
        0.05149877071380615, 
        -0.030370594933629036, 
        -0.11360780894756317, 
        -0.05780581757426262, 
        -0.0273856483399868, 
        0.017887135967612267, 
        0.01179525163024664, 
        -0.6488252282142639, 
        -0.6420568823814392, 
        -0.21449066698551178, 
        -0.027636602520942688, 
        0.02809552662074566, 
        0.04270355403423309, 
        -0.038421839475631714, 
        -0.1088668555021286, 
        -0.033793676644563675, 
        0.1035442054271698, 
        0.07782159745693207, 
        0.13783353567123413, 
        0.15681786835193634, 
        -0.03876151144504547, 
        -0.07562727481126785, 
        0.049953240901231766, 
        -0.10078416764736176, 
        0.05381184443831444, 
        0.23859190940856934, 
        0.23366357386112213, 
        -0.008011535741388798, 
        -0.05321232229471207, 
        0.05238925665616989, 
        0.0848972350358963, 
        0.004295149352401495, 
        -0.3304968476295471, 
        -0.08131711930036545, 
        -0.07957373559474945, 
        -0.024408215656876564, 
        0.008414512500166893, 
        0.06521264463663101, 
        0.007490506861358881, 
        0.014407581649720669, 
        -0.028355829417705536, 
        0.04530281573534012, 
        -0.04260778799653053, 
        -0.09782307595014572, 
        0.022646775469183922, 
        -0.1819649636745453, 
        0.022330529987812042, 
        -0.01057502906769514, 
        -0.0076612732373178005, 
        0.0063208043575286865, 
        0.007526892703026533, 
        -0.01728644222021103, 
        -0.12525999546051025, 
        -0.0381399467587471, 
        0.05730817839503288, 
        -0.023943664506077766, 
        -0.00725603336468339, 
        -0.5939143300056458, 
        -0.6033006906509399, 
        -0.20552927255630493, 
        0.035445909947156906, 
        0.003669968107715249, 
        0.0424075648188591, 
        -0.033608537167310715, 
        -0.1457304209470749, 
        0.014329127967357635, 
        0.13275834918022156, 
        0.12505090236663818, 
        0.06830424815416336, 
        0.11200708895921707, 
        -0.067958764731884, 
        -0.06826207786798477, 
        0.059929415583610535, 
        -0.05516640096902847, 
        -0.02533361129462719, 
        0.2138197273015976, 
        0.2536929249763489, 
        -0.006031247321516275, 
        -0.0714486762881279, 
        -0.012494645081460476, 
        0.0383637510240078, 
        0.010443485341966152, 
        -0.3910429775714874, 
        -0.09391232579946518, 
        0.070319265127182, 
        0.1248808205127716, 
        -0.07348235696554184, 
        -0.027625832706689835, 
        -0.02677391842007637, 
        0.023109758272767067, 
        0.12425859272480011, 
        -0.02754538133740425, 
        0.0011516337981447577, 
        0.08823604136705399, 
        -0.021426523104310036, 
        0.07916045188903809, 
        -0.022868942469358444, 
        0.011023852042853832, 
        -0.01981271617114544, 
        0.022815579548478127, 
        -0.009923730045557022, 
        0.06139220669865608, 
        -0.1301017701625824, 
        -0.12647803127765656, 
        0.018117723986506462, 
        -0.03093620203435421, 
        -0.00839894451200962, 
        0.3636191785335541, 
        0.3627909719944, 
        0.13285458087921143, 
        -0.028227129951119423, 
        -0.02853374555706978, 
        0.011960982345044613, 
        -0.053544651716947556, 
        -0.10826906561851501, 
        -0.2687385380268097, 
        0.05833067372441292, 
        0.09606301039457321, 
        -0.26219525933265686, 
        -0.3344026505947113, 
        0.14092019200325012, 
        0.014312595129013062, 
        0.03971204161643982, 
        -0.04613882303237915, 
        -0.0806865319609642, 
        -0.14877527952194214, 
        -0.21331772208213806, 
        0.05503442883491516, 
        0.12931939959526062, 
        -0.04563277214765549, 
        -0.01891734078526497, 
        -0.02678608149290085, 
        0.3198995590209961, 
        -0.10307086259126663, 
        0.12267941981554031, 
        0.1261957287788391, 
        0.06511756032705307, 
        -0.02132861502468586, 
        -0.04911981523036957, 
        -0.029281964525580406, 
        0.12103861570358276, 
        -0.004589976277202368, 
        -0.044348545372486115, 
        0.10523433238267899, 
        0.03451543301343918, 
        0.09583504498004913, 
        0.014964114874601364, 
        0.043913617730140686, 
        0.019956042990088463, 
        -0.034616585820913315, 
        -0.019035115838050842, 
        0.03322228416800499, 
        0.11895165592432022, 
        0.054333653301000595, 
        0.00703376904129982, 
        0.010419190861284733, 
        -0.029927650466561317, 
        0.42826852202415466, 
        0.4699147939682007, 
        0.15109632909297943, 
        0.026584401726722717, 
        -0.020832229405641556, 
        0.011535420082509518, 
        -0.045711223036050797, 
        -0.0036017028614878654, 
        -0.16524380445480347, 
        -0.004253432620316744, 
        -0.048579249531030655, 
        -0.1313246488571167, 
        -0.13009102642536163, 
        0.048524416983127594, 
        0.06945667415857315, 
        0.014715157449245453, 
        0.09146331250667572, 
        0.007703907322138548, 
        -0.12843571603298187, 
        -0.15910372138023376, 
        0.09877143055200577, 
        0.1161884292960167, 
        -0.003935652785003185, 
        0.015541902743279934, 
        -0.016665495932102203, 
        0.30899569392204285, 
        0.05540353059768677, 
        -0.06719846278429031, 
        -0.07513454556465149, 
        0.03572581708431244, 
        0.0020284203346818686, 
        -0.033280909061431885, 
        0.014951683580875397, 
        -0.08500069379806519, 
        0.03259430453181267, 
        0.011296435259282589, 
        -0.08228782564401627, 
        0.06252320110797882, 
        -0.18422409892082214, 
        -0.01617538370192051, 
        0.02499447576701641, 
        -0.055215585976839066, 
        -0.02037380263209343, 
        -0.02308119460940361, 
        -0.019733140245079994, 
        -0.14134876430034637, 
        -0.10289449244737625, 
        0.006581670604646206, 
        0.02166641503572464, 
        0.016803797334432602, 
        -0.574516773223877, 
        -0.5802847146987915, 
        -0.24189530313014984, 
        -0.02586883306503296, 
        -0.04960362985730171, 
        0.03867344930768013, 
        -0.04848304018378258, 
        -0.16876357793807983, 
        0.00986622367054224, 
        0.09445149451494217, 
        0.16617566347122192, 
        0.0014489259338006377, 
        -0.0012116464786231518, 
        -0.03558378666639328, 
        -0.09445302933454514, 
        0.01625778339803219, 
        -0.0608171783387661, 
        0.02337280660867691, 
        0.24149669706821442, 
        0.24033525586128235, 
        0.019835293292999268, 
        -0.0032295603305101395, 
        0.0529329776763916, 
        0.02658131904900074, 
        0.06658029556274414, 
        -0.35380807518959045, 
        -0.08343053609132767, 
        0.040803924202919006, 
        0.018411114811897278, 
        0.027658576145768166, 
        -0.03293318301439285, 
        0.020017003640532494, 
        0.09908895194530487, 
        0.07814556360244751, 
        -0.024292951449751854, 
        0.0681285560131073, 
        0.029367316514253616, 
        -0.0945710688829422, 
        0.06974141299724579, 
        -0.012677399441599846, 
        -0.05644787475466728, 
        0.026409436017274857, 
        0.0845412090420723, 
        0.024964867159724236, 
        0.052115995436906815, 
        -0.03085155598819256, 
        -0.12455819547176361, 
        0.04213482886552811, 
        -0.037158943712711334, 
        -0.03015563078224659, 
        0.2716093361377716, 
        0.17039664089679718, 
        0.04083651304244995, 
        0.08472394943237305, 
        -0.0230050440877676, 
        0.024555733427405357, 
        -0.07354632765054703, 
        -0.13266097009181976, 
        -0.1057058647274971, 
        0.03690772503614426, 
        0.02219385839998722, 
        0.06403092294931412, 
        0.07082369923591614, 
        -0.0023337642196565866, 
        0.06778526306152344, 
        -0.03567199409008026, 
        0.042774349451065063, 
        -0.03241219371557236, 
        0.0769805759191513, 
        0.0279254000633955, 
        0.05688222125172615, 
        0.010224919766187668, 
        0.0002749089035205543, 
        0.05126139894127846, 
        -0.05613282695412636, 
        0.11613249778747559, 
        -0.011608095839619637, 
        0.03695954382419586, 
        0.011080143041908741, 
        -0.038771674036979675, 
        -0.048822712153196335, 
        0.08524544537067413, 
        0.06798002123832703, 
        -0.048782847821712494, 
        -0.08283925801515579, 
        0.04882919415831566, 
        -0.001543516293168068, 
        -0.04009898751974106, 
        0.030110280960798264, 
        0.008705275133252144, 
        -0.08364894986152649, 
        0.0857645571231842, 
        0.05579349771142006, 
        -0.031923163682222366, 
        -0.042649298906326294, 
        -0.06762582063674927, 
        -0.09108252823352814, 
        0.06903993338346481, 
        0.09203346818685532, 
        -0.08977464586496353, 
        -0.15296152234077454, 
        -0.22332975268363953, 
        0.12804587185382843, 
        0.01238051988184452, 
        0.07057642936706543, 
        -0.10127239674329758, 
        -0.2390683889389038, 
        -0.18586869537830353, 
        -0.002003353787586093, 
        0.159274160861969, 
        0.1328592151403427, 
        0.06461743265390396, 
        0.015149912796914577, 
        -0.023137947544455528, 
        0.040120482444763184, 
        0.05079283192753792, 
        0.08282196521759033, 
        0.08608822524547577, 
        0.09613388031721115, 
        0.06336478888988495, 
        -0.01067274622619152, 
        0.022067224606871605, 
        -0.02564476616680622, 
        -0.04181908443570137, 
        -0.045743368566036224, 
        0.006726980209350586, 
        0.055276669561862946, 
        -0.10068260878324509, 
        -0.08896627277135849, 
        0.005720367655158043, 
        0.05444124713540077, 
        -0.05548308044672012, 
        -0.0525008849799633, 
        -0.0320667065680027, 
        0.0774684026837349, 
        -0.010927588678896427, 
        -0.08523502945899963, 
        -0.01098147314041853, 
        -0.16704103350639343, 
        0.04491949453949928, 
        0.053328610956668854, 
        0.01634090021252632, 
        -0.019670231267809868, 
        0.011499722488224506, 
        -0.04689604416489601, 
        -0.12734191119670868, 
        -0.025272993370890617, 
        -0.019187239930033684, 
        0.04992878809571266, 
        -0.008948289789259434, 
        -0.6269293427467346, 
        -0.5695760846138, 
        -0.17413713037967682, 
        0.05795513093471527, 
        0.0025225840508937836, 
        -0.004956477787345648, 
        -0.038856711238622665, 
        -0.16418246924877167, 
        0.030049335211515427, 
        0.07161381095647812, 
        0.16319286823272705, 
        0.08024441450834274, 
        0.10158529132604599, 
        -0.020799223333597183, 
        -0.06922806799411774, 
        0.058922212570905685, 
        -0.05371786281466484, 
        -0.02395753376185894, 
        0.1418571025133133, 
        0.23972977697849274, 
        -0.028460251167416573, 
        -0.07601460814476013, 
        0.0583907887339592, 
        0.00021039435523562133, 
        0.023900846019387245, 
        -0.3956495523452759, 
        -0.047489579766988754, 
        -0.04901472106575966, 
        -0.08658117800951004, 
        0.0025172678288072348, 
        0.006890625227242708, 
        -0.015763843432068825, 
        -0.0070702070370316505, 
        -0.04692085459828377, 
        -0.007466203533113003, 
        -0.04346778616309166, 
        -0.13272669911384583, 
        0.0267080869525671, 
        -0.19568845629692078, 
        0.04872998967766762, 
        0.027863025665283203, 
        0.010943631641566753, 
        -0.032051485031843185, 
        0.013345897197723389, 
        -0.024476809427142143, 
        -0.13666914403438568, 
        -0.0951089933514595, 
        -0.0234377384185791, 
        -0.05119595304131508, 
        0.024882705882191658, 
        -0.6430701017379761, 
        -0.6217017769813538, 
        -0.288449764251709, 
        0.05545985326170921, 
        -0.018355945125222206, 
        0.03346240520477295, 
        -0.006092749070376158, 
        -0.11136431246995926, 
        0.021158551797270775, 
        0.11353425681591034, 
        0.1469612419605255, 
        0.1543884426355362, 
        0.1337255984544754, 
        -0.06680348515510559, 
        -0.05835806578397751, 
        0.027092965319752693, 
        -0.040537476539611816, 
        0.04228954017162323, 
        0.24607422947883606, 
        0.2502889037132263, 
        -0.04189318045973778, 
        -0.07372371852397919, 
        0.04071866348385811, 
        0.05036378651857376, 
        0.03284895792603493, 
        -0.37924104928970337, 
        -0.07284778356552124, 
        0.1125422865152359, 
        0.07558142393827438, 
        -0.0542304664850235, 
        -0.0029278581496328115, 
        0.052677083760499954, 
        -0.01838761940598488, 
        0.11373354494571686, 
        -0.005430885124951601, 
        0.04128963500261307, 
        0.07718999683856964, 
        0.03735852241516113, 
        0.07234969735145569, 
        -0.02238956280052662, 
        0.025743480771780014, 
        0.00929687824100256, 
        -0.016258221119642258, 
        -0.05047788843512535, 
        -0.006712962407618761, 
        0.02080875262618065, 
        -0.045464202761650085, 
        0.052774447947740555, 
        0.00488593615591526, 
        0.012353535741567612, 
        0.3503873348236084, 
        0.32867488265037537, 
        0.12802064418792725, 
        0.03513331338763237, 
        0.02180156484246254, 
        -0.013865383341908455, 
        -0.06499560922384262, 
        -0.027980303391814232, 
        -0.16231057047843933, 
        -0.017021585255861282, 
        -0.012853722088038921, 
        -0.21963386237621307, 
        -0.21050116419792175, 
        0.10367291420698166, 
        0.021832482889294624, 
        -0.03148838132619858, 
        0.02525864914059639, 
        -0.016866259276866913, 
        -0.14558348059654236, 
        -0.09377650171518326, 
        0.06692059338092804, 
        0.01603855937719345, 
        -0.054555024951696396, 
        -0.0531061626970768, 
        -0.025665322318673134, 
        0.2570039927959442, 
        -0.02078157663345337, 
        0.11094170063734055, 
        0.10606806725263596, 
        0.051643963903188705, 
        0.030803393572568893, 
        0.06416811794042587, 
        -0.04438646882772446, 
        0.1487378627061844, 
        -0.0033106764312833548, 
        -0.014141681604087353, 
        0.20581495761871338, 
        0.11186693608760834, 
        0.19793900847434998, 
        0.0427473820745945, 
        0.010916008614003658, 
        0.061895016580820084, 
        0.008119619451463223, 
        0.0184476375579834, 
        -0.018540337681770325, 
        0.21359272301197052, 
        0.17908351123332977, 
        0.0018553525442257524, 
        0.030020346865057945, 
        0.00908301305025816, 
        0.702521026134491, 
        0.6682020425796509, 
        0.16365672647953033, 
        -0.01571236364543438, 
        0.009501718915998936, 
        0.0529010035097599, 
        -0.034242432564496994, 
        -0.0069234189577400684, 
        -0.008465360850095749, 
        -0.014766599051654339, 
        -0.13453859090805054, 
        -0.21227522194385529, 
        -0.18308429419994354, 
        0.1685902178287506, 
        -0.049132466316223145, 
        -0.06752439588308334, 
        0.10599812865257263, 
        -0.053859733045101166, 
        -0.16840340197086334, 
        -0.20342040061950684, 
        0.14169251918792725, 
        0.105185367166996, 
        0.050320856273174286, 
        0.06051327660679817, 
        0.03110944852232933, 
        0.40159860253334045, 
        0.148248553276062, 
        -0.035062018781900406, 
        -0.0112605020403862, 
        -0.01890566013753414, 
        0.04490020498633385, 
        0.006870148703455925, 
        0.016406551003456116, 
        -0.0794706791639328, 
        0.020689373835921288, 
        -0.02036185935139656, 
        -0.12973351776599884, 
        0.003445384558290243, 
        -0.10540472716093063, 
        0.04191255569458008, 
        0.02741503156721592, 
        0.018894687294960022, 
        -0.00424827728420496, 
        0.024260541424155235, 
        -0.045203451067209244, 
        -0.14891216158866882, 
        -0.0964215025305748, 
        0.014227251522243023, 
        -0.0052916682325303555, 
        -0.015903223305940628, 
        -0.5488136410713196, 
        -0.60092693567276, 
        -0.22799478471279144, 
        0.026105575263500214, 
        0.028252456337213516, 
        0.0212083850055933, 
        -0.022556480020284653, 
        -0.12182655185461044, 
        -0.012157031334936619, 
        0.1379740834236145, 
        0.1397869735956192, 
        0.013584200292825699, 
        0.048456184566020966, 
        -0.04427998512983322, 
        -0.019010202959179878, 
        0.05909866839647293, 
        -0.08393701910972595, 
        -0.0011519078398123384, 
        0.15259133279323578, 
        0.20389613509178162, 
        0.02125898376107216, 
        0.010845509357750416, 
        0.030420510098338127, 
        0.0504579059779644, 
        0.021479951217770576, 
        -0.3782396614551544, 
        -0.07190318405628204, 
        0.022937143221497536, 
        0.018826015293598175, 
        0.056630659848451614, 
        0.0144214341416955, 
        0.002568676136434078, 
        0.012754860334098339, 
        0.002228519646450877, 
        0.031962599605321884, 
        -0.06045302003622055, 
        -0.10977940261363983, 
        -0.0331493578851223, 
        -0.09618040919303894, 
        -0.02965255081653595, 
        -0.010282128117978573, 
        -0.0246663149446249, 
        0.008899606764316559, 
        0.057186346501111984, 
        -0.0417649932205677, 
        -0.06772379577159882, 
        -0.0041379560716450214, 
        -0.011007740162312984, 
        0.001097843749448657, 
        0.019809456542134285, 
        -0.5135083794593811, 
        -0.4697772264480591, 
        -0.2128697782754898, 
        0.05625108629465103, 
        0.027010103687644005, 
        0.02643483132123947, 
        -0.46247366070747375, 
        -0.34982234239578247, 
        -0.07408864051103592, 
        0.14037306606769562, 
        0.15005430579185486, 
        0.08599771559238434, 
        0.033497970551252365, 
        -0.050158239901065826, 
        -0.02562764659523964, 
        0.04940613731741905, 
        -0.05332908034324646, 
        0.03508570045232773, 
        0.22179333865642548, 
        0.13919955492019653, 
        0.013927129097282887, 
        0.018141446635127068, 
        0.07281988114118576, 
        0.014856070280075073, 
        0.01646931655704975, 
        -0.25130996108055115, 
        -0.030258484184741974, 
        -0.10356144607067108, 
        -0.11197633296251297, 
        -0.014681268483400345, 
        0.006975092925131321, 
        0.047178152948617935, 
        0.010316407307982445, 
        -0.08820140361785889, 
        -0.03967084363102913, 
        -0.037241771817207336, 
        -0.10878033190965652, 
        0.013284582644701004, 
        -0.14217360317707062, 
        0.01430092565715313, 
        0.024852517992258072, 
        0.027240894734859467, 
        0.03639441728591919, 
        0.03586510941386223, 
        -0.07176370173692703, 
        -0.10188930481672287, 
        -0.0564260333776474, 
        -0.03731010854244232, 
        -0.00804125051945448, 
        -0.057162221521139145, 
        -0.6025190949440002, 
        -0.5713505744934082, 
        -0.20543162524700165, 
        0.029470128938555717, 
        -0.031969234347343445, 
        0.007075440138578415, 
        -0.034497905522584915, 
        -0.07748191803693771, 
        0.04341452568769455, 
        0.08359470963478088, 
        0.13445158302783966, 
        0.03398603945970535, 
        0.05077637732028961, 
        -0.03338612988591194, 
        -0.0355953574180603, 
        0.034626979380846024, 
        -0.09195607155561447, 
        -0.040027447044849396, 
        0.19446861743927002, 
        0.1668643355369568, 
        -0.055343110114336014, 
        -0.03477500006556511, 
        0.02385915443301201, 
        -0.009924633428454399, 
        -0.02230674773454666, 
        -0.37684887647628784, 
        0.01185131911188364, 
        -0.021507417783141136, 
        -0.01927219331264496, 
        0.03898818418383598, 
        -0.04002046212553978, 
        -0.044783081859350204, 
        -0.029171733185648918, 
        0.014489402063190937, 
        0.02291722409427166, 
        -0.009865103289484978, 
        -0.06358571350574493, 
        0.031240137293934822, 
        -0.14707326889038086, 
        0.02866182290017605, 
        -0.0280873104929924, 
        -0.005806957837194204, 
        0.00878142099827528, 
        0.0461512990295887, 
        -0.027447234839200974, 
        -0.17439968883991241, 
        -0.12819688022136688, 
        -0.018826909363269806, 
        0.00863192044198513, 
        0.027092890813946724, 
        -0.5186811685562134, 
        -0.4912146031856537, 
        -0.1664687842130661, 
        0.038945671170949936, 
        0.04650857299566269, 
        0.06238618120551109, 
        -0.32532554864883423, 
        -0.4899601340293884, 
        -0.018962400034070015, 
        0.15387998521327972, 
        0.16614161431789398, 
        -0.002644516760483384, 
        0.035892728716135025, 
        0.02098608762025833, 
        0.01829330436885357, 
        -1.1403972166590393e-05, 
        -0.028552774339914322, 
        0.050938546657562256, 
        0.1389930546283722, 
        0.19049251079559326, 
        0.03077344037592411, 
        -0.000905342516489327, 
        0.06864392757415771, 
        0.027320370078086853, 
        -0.0022748226765543222, 
        -0.27050381898880005, 
        -0.1367976814508438, 
        0.14381368458271027, 
        0.14884285628795624, 
        0.02693270891904831, 
        0.01919470727443695, 
        0.17267677187919617, 
        0.06534717231988907, 
        0.0684276670217514, 
        0.06870423257350922, 
        0.0017450194573029876, 
        0.16821099817752838, 
        0.03862276300787926, 
        0.12256134301424026, 
        0.06415259838104248, 
        0.014071978628635406, 
        0.16271674633026123, 
        -0.13037961721420288, 
        0.015567337162792683, 
        0.0901336669921875, 
        0.16048628091812134, 
        0.15635845065116882, 
        -0.08157719671726227, 
        0.06891371309757233, 
        0.0561056025326252, 
        0.5685014724731445, 
        0.552044153213501, 
        0.11373589932918549, 
        -0.0839027389883995, 
        0.03194399178028107, 
        0.02595132403075695, 
        0.027476739138364792, 
        0.09057560563087463, 
        -0.014613039791584015, 
        -0.06087913736701012, 
        -0.12840536236763, 
        -0.18041500449180603, 
        -0.1492917537689209, 
        0.09078002721071243, 
        0.05254295468330383, 
        0.018483689054846764, 
        0.03238668292760849, 
        0.013621966354548931, 
        -0.13304093480110168, 
        -0.1845870167016983, 
        0.10817672312259674, 
        0.08258723467588425, 
        0.029749250039458275, 
        0.05905039235949516, 
        0.038519471883773804, 
        0.3900376260280609, 
        0.09577056020498276, 
        0.1338638812303543, 
        0.1657622903585434, 
        0.0445902980864048, 
        0.024527648463845253, 
        -0.06297265738248825, 
        0.07500286400318146, 
        0.10056562721729279, 
        0.03349708765745163, 
        0.0747123584151268, 
        0.12123127281665802, 
        0.035292986780405045, 
        0.12081024795770645, 
        -0.002063612686470151, 
        -0.10771223902702332, 
        0.0691092386841774, 
        -0.0879771038889885, 
        0.0032270981464535, 
        0.032384343445301056, 
        0.11715788394212723, 
        0.032891951501369476, 
        0.08372032642364502, 
        0.09492501616477966, 
        -0.0200370941311121, 
        0.47235381603240967, 
        0.4474543333053589, 
        0.2484191358089447, 
        0.017238453030586243, 
        0.01716490276157856, 
        0.019810929894447327, 
        -0.010138805955648422, 
        0.07619335502386093, 
        -0.08298524469137192, 
        -0.0022812222596257925, 
        -0.11536550521850586, 
        -0.345637708902359, 
        -0.2869945764541626, 
        0.07570961862802505, 
        -0.03987590968608856, 
        -0.11636757850646973, 
        0.12690721452236176, 
        -0.1033623069524765, 
        -0.10956399142742157, 
        -0.1717640906572342, 
        0.1443747729063034, 
        0.07259850949048996, 
        -0.002701827324926853, 
        0.05127722769975662, 
        0.05573625490069389, 
        0.3110312521457672, 
        0.08446922153234482, 
        0.09624473005533218, 
        0.07829451560974121, 
        0.005829169414937496, 
        -0.009297226555645466, 
        0.03823503479361534, 
        0.05102309212088585, 
        0.11784586310386658, 
        -0.059457603842020035, 
        0.028974954038858414, 
        0.17392270267009735, 
        0.045975133776664734, 
        0.2281898707151413, 
        -0.02199036441743374, 
        -0.019236262887716293, 
        0.021239347755908966, 
        -0.013563019223511219, 
        -0.0073388912715017796, 
        0.003915638662874699, 
        0.1130141094326973, 
        -0.011924036778509617, 
        0.043429166078567505, 
        0.08942630141973495, 
        0.010672925971448421, 
        0.62019282579422, 
        0.5850194692611694, 
        0.23881562054157257, 
        0.029824236407876015, 
        0.08311694115400314, 
        -0.044937942177057266, 
        0.010497291572391987, 
        0.06501825153827667, 
        -0.07565814256668091, 
        0.0045735458843410015, 
        -0.07603763788938522, 
        -0.2863197922706604, 
        -0.3136622905731201, 
        0.13518722355365753, 
        -0.04058491438627243, 
        -0.1829093098640442, 
        0.07878942787647247, 
        -0.0829460397362709, 
        -0.13843326270580292, 
        -0.17328059673309326, 
        0.06250356882810593, 
        0.07073452323675156, 
        0.012142783030867577, 
        0.023574208840727806, 
        0.011166864074766636, 
        0.4502282738685608, 
        0.11334925144910812, 
        -0.07479901611804962, 
        -0.07686494290828705, 
        0.02901032753288746, 
        0.0625072792172432, 
        -0.020662592723965645, 
        -0.001961939502507448, 
        -0.07701201736927032, 
        0.005894029047340155, 
        -0.033281661570072174, 
        -0.1289343237876892, 
        -0.034901976585388184, 
        -0.13006243109703064, 
        0.04724404215812683, 
        0.04919037967920303, 
        -0.03938198462128639, 
        0.006149603053927422, 
        0.056227151304483414, 
        -0.05882326140999794, 
        -0.055333152413368225, 
        -0.01954047940671444, 
        0.07418863475322723, 
        0.06019212678074837, 
        0.005485999397933483, 
        -0.532251238822937, 
        -0.46907147765159607, 
        -0.13578344881534576, 
        0.023973817005753517, 
        -0.009329196065664291, 
        0.015463522635400295, 
        -0.015123986639082432, 
        -0.0934959426522255, 
        0.004038728307932615, 
        0.05413469672203064, 
        0.135527104139328, 
        0.10565502941608429, 
        0.160888209939003, 
        -0.032316870987415314, 
        -0.03237688168883324, 
        0.04014531522989273, 
        -0.044957686215639114, 
        0.03547685593366623, 
        0.14017097651958466, 
        0.14907966554164886, 
        -0.04577486589550972, 
        0.0059803142212331295, 
        -0.016561802476644516, 
        0.0021713650785386562, 
        0.009660981595516205, 
        -0.3409583270549774, 
        -0.0011755881132557988, 
        0.0979706197977066, 
        0.13808703422546387, 
        -0.034209586679935455, 
        0.02252945676445961, 
        0.0961356833577156, 
        0.02649645321071148, 
        0.11314930021762848, 
        0.04301794618368149, 
        -0.002333124866709113, 
        0.14201588928699493, 
        -0.0037280491087585688, 
        0.12353472411632538, 
        0.020803960040211678, 
        -0.016420364379882812, 
        0.02691017836332321, 
        -0.02351863868534565, 
        -0.040214668959379196, 
        0.0204144474118948, 
        0.11361266672611237, 
        0.018808966502547264, 
        0.0537976510822773, 
        0.019645415246486664, 
        -0.0031830212101340294, 
        0.6092574000358582, 
        0.5761815905570984, 
        0.2204611599445343, 
        0.006419686134904623, 
        0.03735027089715004, 
        -0.022587375715374947, 
        0.026471275836229324, 
        0.08766021579504013, 
        -0.048220403492450714, 
        -0.012804069556295872, 
        -0.12507760524749756, 
        -0.36800411343574524, 
        -0.42399853467941284, 
        0.07478173822164536, 
        0.007553871721029282, 
        -0.019483553245663643, 
        0.023401891812682152, 
        -0.003454227466136217, 
        -0.26798221468925476, 
        -0.2577289342880249, 
        0.10949383676052094, 
        0.09760905802249908, 
        0.03148989379405975, 
        -0.017734719440340996, 
        0.02419126220047474, 
        0.42693591117858887, 
        0.04946550354361534, 
        -0.05632830411195755, 
        -0.0015370069304481149, 
        0.07462486624717712, 
        -0.03579749912023544, 
        -0.03869226947426796, 
        -0.03489929810166359, 
        -0.020214011892676353, 
        0.024278992787003517, 
        -0.09680785983800888, 
        -0.1300620585680008, 
        0.05133349448442459, 
        -0.1670181304216385, 
        -0.027407530695199966, 
        0.012180043384432793, 
        -0.04453444853425026, 
        -0.031015509739518166, 
        0.07470812648534775, 
        -0.02034679614007473, 
        -0.0718507394194603, 
        -0.08429357409477234, 
        -0.023008665069937706, 
        0.029523635283112526, 
        0.0041539305821061134, 
        -0.558866024017334, 
        -0.5778212547302246, 
        -0.13960561156272888, 
        -0.020332178100943565, 
        0.01916622184216976, 
        0.00018042654846794903, 
        -0.33367159962654114, 
        -0.2983483076095581, 
        -0.025212334468960762, 
        0.07836110889911652, 
        0.12582792341709137, 
        0.02376144379377365, 
        0.049013715237379074, 
        -0.0740920826792717, 
        -0.0538465715944767, 
        0.01531208772212267, 
        -0.09234686940908432, 
        0.031594567000865936, 
        0.14462223649024963, 
        0.15524500608444214, 
        -0.06478282064199448, 
        -0.0736204981803894, 
        0.05503079667687416, 
        0.05553658679127693, 
        -0.005136952735483646, 
        -0.28212684392929077, 
        -0.013547401875257492, 
        0.18054360151290894, 
        0.1539425253868103, 
        -0.0801355168223381, 
        -0.0013643538113683462, 
        -0.1381407380104065, 
        -0.17186489701271057, 
        0.21028392016887665, 
        -0.013119019567966461, 
        0.16993901133537292, 
        0.20938712358474731, 
        -0.017689259722828865, 
        0.16505195200443268, 
        0.0010002233320847154, 
        -0.05036139488220215, 
        -0.05509237200021744, 
        0.2476300448179245, 
        -0.0021222420036792755, 
        -0.04424751177430153, 
        0.09365306794643402, 
        -0.11129479110240936, 
        0.05541713535785675, 
        0.12867505848407745, 
        0.0008776421309448779, 
        0.7614426612854004, 
        0.7526790499687195, 
        0.38799887895584106, 
        0.08674509078264236, 
        0.11448926478624344, 
        -0.016995402052998543, 
        -0.015371493995189667, 
        -0.028719205409288406, 
        -0.15006233751773834, 
        0.1194857731461525, 
        -0.01809661276638508, 
        -0.5996328592300415, 
        -0.6254253387451172, 
        0.18464289605617523, 
        0.04369515925645828, 
        -0.11828918755054474, 
        0.19547386467456818, 
        -0.08911523967981339, 
        -0.12667681276798248, 
        -0.114902563393116, 
        0.12135293334722519, 
        0.156055748462677, 
        0.029419749975204468, 
        0.08709841966629028, 
        -0.0464932955801487, 
        0.4525958001613617, 
        0.06256221979856491, 
        0.09193835407495499, 
        0.10013799369335175, 
        0.06479911506175995, 
        -0.002122232224792242, 
        0.049231842160224915, 
        -0.014227471314370632, 
        0.1403389871120453, 
        0.0035383207723498344, 
        0.0640936940908432, 
        0.08752791583538055, 
        -0.020090216770768166, 
        0.15897120535373688, 
        0.04501419514417648, 
        0.049221236258745193, 
        -0.22609862685203552, 
        0.01594022661447525, 
        -0.005466661881655455, 
        0.04977353289723396, 
        0.16250677406787872, 
        0.11025609821081161, 
        0.04695206880569458, 
        0.01867692731320858, 
        -5.300345947034657e-05, 
        0.5556097030639648, 
        0.47608768939971924, 
        0.18164873123168945, 
        0.06785711646080017, 
        0.07885292917490005, 
        0.03393757343292236, 
        -0.084261454641819, 
        -0.029148966073989868, 
        -0.1398114562034607, 
        -0.018493780866265297, 
        -0.11760236322879791, 
        -0.18004965782165527, 
        -0.23750214278697968, 
        0.14608030021190643, 
        0.044407863169908524, 
        0.006085943430662155, 
        0.03762595355510712, 
        -0.012016203254461288, 
        -0.22614233195781708, 
        -0.16827760636806488, 
        0.09941129386425018, 
        0.09555861353874207, 
        0.04986652359366417, 
        0.04957716166973114, 
        0.04395505040884018, 
        0.3046102225780487, 
        0.05375200882554054, 
        -0.000923339684959501, 
        -0.011688517406582832, 
        0.018641449511051178, 
        0.033061254769563675, 
        0.006784023717045784, 
        -0.06818246841430664, 
        -0.03888536989688873, 
        0.002302380045875907, 
        -0.055725499987602234, 
        -0.1502232551574707, 
        -0.022461796179413795, 
        -0.17911648750305176, 
        0.021349750459194183, 
        -0.014390340074896812, 
        -0.01987426169216633, 
        -0.05996346473693848, 
        0.045936428010463715, 
        -0.057069551199674606, 
        -0.21694225072860718, 
        -0.0866287425160408, 
        -0.005659572314471006, 
        0.005901395343244076, 
        0.007232556585222483, 
        -0.5268470644950867, 
        -0.5367459058761597, 
        -0.19496150314807892, 
        0.0007798912120051682, 
        0.0160589050501585, 
        0.04807857796549797, 
        -0.04213138297200203, 
        -0.2259613573551178, 
        -0.008407176472246647, 
        0.15825462341308594, 
        0.1823458969593048, 
        -0.06358505040407181, 
        -0.024859542027115822, 
        -0.06489983946084976, 
        -0.050972528755664825, 
        0.0367756225168705, 
        -0.08716907352209091, 
        -0.04774907976388931, 
        0.14102567732334137, 
        0.19060206413269043, 
        0.012193409726023674, 
        -0.05375121533870697, 
        -0.0007402996998280287, 
        -0.009855234064161777, 
        0.0285334549844265, 
        -0.3253752291202545, 
        -0.05578009411692619, 
        0.019916502758860588, 
        0.02789446711540222, 
        -0.0033828432206064463, 
        -0.061189204454422, 
        0.033770084381103516, 
        -0.0693194568157196, 
        -0.04143466055393219, 
        0.01967819780111313, 
        0.00249558431096375, 
        -0.00757311237975955, 
        0.010869620367884636, 
        -0.08408884704113007, 
        -0.01992041990160942, 
        -0.04567558318376541, 
        0.07541253417730331, 
        -0.013047803193330765, 
        0.028305836021900177, 
        -0.03748831897974014, 
        -0.012923907488584518, 
        -0.02194995805621147, 
        0.014850884675979614, 
        -0.004246536176651716, 
        -0.019031308591365814, 
        0.008099288679659367, 
        -0.033982690423727036, 
        -0.016505006700754166, 
        0.01965130679309368, 
        0.015095372684299946, 
        -0.023550042882561684, 
        -0.0010135713964700699, 
        0.014013152569532394, 
        -0.05512353405356407, 
        0.05720648169517517, 
        0.035912204533815384, 
        -0.018799740821123123, 
        -0.026795687153935432, 
        0.01602025143802166, 
        0.01356577780097723, 
        -0.029722318053245544, 
        -0.013082519173622131, 
        -0.03651372715830803, 
        -0.022031109780073166, 
        -0.026275629177689552, 
        -0.03356042131781578, 
        -0.04671000689268112, 
        -0.046887319535017014, 
        -0.05291694030165672, 
        -0.0010364928748458624, 
        -0.07788719981908798, 
        -1.037429683492519e-05, 
        0.03162947669625282, 
        0.017445817589759827, 
        0.0393868014216423, 
        0.024385591968894005, 
        -0.05427168309688568, 
        -0.021148253232240677, 
        0.0253683440387249, 
        0.04812052845954895, 
        0.06540870666503906, 
        0.016459114849567413, 
        -0.05384618043899536, 
        -0.009906104765832424, 
        -0.04860054701566696, 
        0.013283513486385345, 
        -0.07741346955299377, 
        -0.041200198233127594, 
        0.07296726107597351, 
        -0.003022387158125639, 
        0.12906299531459808, 
        0.07352351397275925, 
        0.04580344259738922, 
        0.018523264676332474, 
        0.004696759860962629, 
        0.02599288709461689, 
        0.022788193076848984, 
        0.019580218940973282, 
        0.013258135877549648, 
        0.0169022586196661, 
        -0.001371832680888474, 
        0.0007649408653378487, 
        -0.008134601637721062, 
        -0.01188540831208229, 
        -0.007470829878002405, 
        -0.08948372304439545, 
        0.0024359370581805706, 
        -0.007178205531090498, 
        0.024525649845600128, 
        0.021818656474351883, 
        -0.03289012238383293, 
        -0.014903120696544647, 
        -0.027412086725234985, 
        0.009947672486305237, 
        0.027700260281562805, 
        0.015304122120141983, 
        0.05430804565548897, 
        0.03770807757973671, 
        0.11238469183444977, 
        0.05905504152178764, 
        -0.0058218929916620255, 
        0.018016858026385307, 
        -0.025889785960316658, 
        -0.015845181420445442, 
        0.015661565586924553, 
        -0.03438879922032356, 
        -0.01824217662215233, 
        -0.027591338381171227, 
        -0.04315585643053055, 
        0.023228874430060387, 
        -0.021735645830631256, 
        -0.058792389929294586, 
        -0.018346549943089485, 
        -0.10416075587272644, 
        -0.03282920643687248, 
        -0.060011424124240875, 
        0.019416971132159233, 
        0.0023782721254974604, 
        0.018637705594301224, 
        -0.031091367825865746, 
        -0.07134275138378143, 
        -0.05334298312664032, 
        -0.012117982842028141, 
        -0.022281911224126816, 
        -0.030539406463503838, 
        -0.26196110248565674, 
        -0.27869877219200134, 
        -0.10937613248825073, 
        -0.0029867757111787796, 
        -0.029545078054070473, 
        -0.03150428086519241, 
        -0.0644068717956543, 
        -0.08325638622045517, 
        0.0006232173764146864, 
        0.09080830216407776, 
        0.057917430996894836, 
        -0.024981491267681122, 
        -0.024665432050824165, 
        -0.02216424234211445, 
        -0.0651954784989357, 
        0.00352333951741457, 
        -0.028232863172888756, 
        0.044728025794029236, 
        0.1326412707567215, 
        0.08471787720918655, 
        -0.012063682079315186, 
        0.01289205253124237, 
        0.035806600004434586, 
        -0.036276675760746, 
        -0.02451806701719761, 
        -0.2011134922504425, 
        0.023998897522687912, 
        0.05847229063510895, 
        0.11222665756940842, 
        -0.04630871117115021, 
        -0.009150325320661068, 
        -0.026607319712638855, 
        0.15674617886543274, 
        0.03571344539523125, 
        0.008026373572647572, 
        0.07483214139938354, 
        0.09058251231908798, 
        0.021658165380358696, 
        0.1479833573102951, 
        -0.030168350785970688, 
        -0.011971279047429562, 
        -0.10651054978370667, 
        -0.05894438177347183, 
        -0.002858552848920226, 
        0.03419525548815727, 
        0.026345904916524887, 
        -0.03419935330748558, 
        -0.03086964599788189, 
        -0.008854216895997524, 
        -0.033273108303546906, 
        0.555883526802063, 
        0.5046336054801941, 
        0.22179734706878662, 
        -0.0074755181558430195, 
        -0.027921171858906746, 
        0.015161004848778248, 
        0.16184023022651672, 
        0.26258471608161926, 
        -0.06857645511627197, 
        -0.02423708699643612, 
        -0.10595238208770752, 
        -0.5508803129196167, 
        -0.4988190233707428, 
        0.0749533474445343, 
        0.07091671973466873, 
        0.006316130515187979, 
        0.013996194116771221, 
        -0.02453279308974743, 
        -0.28289172053337097, 
        -0.2338816374540329, 
        0.08026440441608429, 
        0.046870749443769455, 
        0.018385786563158035, 
        -0.050495948642492294, 
        0.01288884412497282, 
        0.3620256185531616, 
        -0.009893220849335194, 
        0.06083793193101883, 
        0.0708986148238182, 
        0.050612542778253555, 
        0.04761413857340813, 
        -0.27438652515411377, 
        -0.029768692329525948, 
        0.08113890886306763, 
        0.03588264808058739, 
        0.018637515604496002, 
        0.20003554224967957, 
        0.06581848114728928, 
        0.17019779980182648, 
        -0.009160910733044147, 
        -0.0037559568881988525, 
        -0.054230984300374985, 
        -0.08567208051681519, 
        0.05223904177546501, 
        0.047365643084049225, 
        0.19758126139640808, 
        0.18119283020496368, 
        -0.07492581754922867, 
        -0.015040864236652851, 
        -0.03265519440174103, 
        0.705439567565918, 
        0.6598168611526489, 
        0.16615580022335052, 
        -0.036293789744377136, 
        -0.0671050027012825, 
        0.00923279207199812, 
        -0.054091159254312515, 
        -0.013766394928097725, 
        -0.19937998056411743, 
        -0.04427527263760567, 
        -0.09807749092578888, 
        -0.15268008410930634, 
        -0.11391761898994446, 
        0.06897635012865067, 
        0.020865926519036293, 
        0.03671169653534889, 
        0.08172555267810822, 
        -0.0106887836009264, 
        -0.20817849040031433, 
        -0.23394900560379028, 
        0.08659501373767853, 
        0.0482756532728672, 
        0.0007774799596518278, 
        -0.02937898598611355, 
        0.02888433076441288, 
        0.33651453256607056, 
        0.11796121299266815, 
        -0.06266766041517258, 
        -0.08051209151744843, 
        -0.005011384375393391, 
        0.027707234025001526, 
        -0.01732274331152439, 
        -0.015504955314099789, 
        -0.08856082707643509, 
        0.030032573267817497, 
        -0.03956211358308792, 
        -0.07908443361520767, 
        0.051135554909706116, 
        -0.14911144971847534, 
        -0.026208942756056786, 
        -0.0026160411071032286, 
        0.01604626141488552, 
        -0.049340683966875076, 
        0.025191236287355423, 
        -0.06342204660177231, 
        -0.13846293091773987, 
        -0.08281891793012619, 
        0.022280290722846985, 
        -0.04721304774284363, 
        0.00015547953080385923, 
        -0.6186153292655945, 
        -0.6384477019309998, 
        -0.27090972661972046, 
        0.04498494416475296, 
        -0.0047086915001273155, 
        0.028547663241624832, 
        0.020567717030644417, 
        -0.10883785784244537, 
        -0.056685347110033035, 
        0.13921649754047394, 
        0.11548028141260147, 
        0.07128206640481949, 
        0.06730597466230392, 
        -0.08227916806936264, 
        -0.058525994420051575, 
        0.008502715267241001, 
        -0.08504170179367065, 
        0.06043679639697075, 
        0.22506862878799438, 
        0.24810457229614258, 
        -0.03383740037679672, 
        -0.0038781382609158754, 
        -0.015841497108340263, 
        0.027965769171714783, 
        0.03764336183667183, 
        -0.3987443745136261, 
        -0.054349593818187714, 
        0.09506893903017044, 
        0.033767975866794586, 
        -0.010029169730842113, 
        -0.06751487404108047, 
        -0.048427291214466095, 
        0.0011476005893200636, 
        0.04520491510629654, 
        -0.01703036017715931, 
        0.02826174907386303, 
        -0.011023101396858692, 
        -0.0004083714447915554, 
        -0.03448491171002388, 
        -0.03335203230381012, 
        -0.01876785047352314, 
        -0.0016440924955531955, 
        -0.01088734995573759, 
        -0.06461680680513382, 
        0.056490276008844376, 
        -0.2850629985332489, 
        -0.2491602897644043, 
        -0.06091046705842018, 
        0.005733015015721321, 
        -0.043208468705415726, 
        -0.18687105178833008, 
        -0.20547159016132355, 
        0.020438626408576965, 
        -0.0032350935507565737, 
        -0.009788593277335167, 
        -0.09205231070518494, 
        -0.3305842876434326, 
        -0.4751359820365906, 
        -0.4900282323360443, 
        0.22187969088554382, 
        0.2607263922691345, 
        -0.24774856865406036, 
        -0.2211650162935257, 
        0.12204484641551971, 
        -0.019000491127371788, 
        0.011342168785631657, 
        -0.05474427342414856, 
        -0.008541561663150787, 
        0.02493426576256752, 
        -0.02294807694852352, 
        0.05748290568590164, 
        0.08814695477485657, 
        0.03846129775047302, 
        0.036823224276304245, 
        -0.07054648548364639, 
        -0.027441199868917465, 
        -0.1393279880285263, 
        0.04908468946814537, 
        0.04067074880003929, 
        0.06444314867258072, 
        0.03487705439329147, 
        -0.05944260582327843, 
        -0.09277180582284927, 
        0.09909258037805557, 
        0.01313508115708828, 
        -0.0025070891715586185, 
        0.20816737413406372, 
        0.09306942671537399, 
        0.1998342126607895, 
        0.043272752314805984, 
        -0.01843835599720478, 
        -0.09053971618413925, 
        0.004171071108430624, 
        0.018440725281834602, 
        -0.011984395794570446, 
        0.2628301978111267, 
        0.12965430319309235, 
        -0.019626161083579063, 
        -0.016384540125727654, 
        -0.0036630311515182257, 
        0.8806147575378418, 
        0.7345253825187683, 
        0.1469428539276123, 
        -0.03424706310033798, 
        -0.00698587391525507, 
        0.0518697090446949, 
        -0.07230483740568161, 
        -0.0017065625870600343, 
        -0.09750569611787796, 
        -0.04201351851224899, 
        -0.13658498227596283, 
        -0.03429264947772026, 
        -0.059625294059515, 
        0.10780490189790726, 
        0.02781842276453972, 
        -0.022852396592497826, 
        0.07470235228538513, 
        -0.016522394493222237, 
        -0.15312056243419647, 
        -0.20237310230731964, 
        0.06193876639008522, 
        0.06675583124160767, 
        -0.00411240104585886, 
        -0.030493585392832756, 
        0.0023561320267617702, 
        0.34222346544265747, 
        0.16645978391170502, 
        0.13219252228736877, 
        0.16759143769741058, 
        -0.02678408846259117, 
        -0.060129314661026, 
        0.02251722849905491, 
        -0.05005946755409241, 
        0.16782374680042267, 
        0.043914977461099625, 
        0.018906736746430397, 
        0.11406297236680984, 
        -0.08462569862604141, 
        0.1598256677389145, 
        -0.02807627059519291, 
        0.07328382134437561, 
        -0.007478935644030571, 
        -0.04273327812552452, 
        0.058114565908908844, 
        -0.012100592255592346, 
        0.03292224928736687, 
        -0.021752486005425453, 
        0.12071213871240616, 
        0.15989799797534943, 
        0.03361161798238754, 
        0.6135697364807129, 
        0.5738376379013062, 
        0.3009389042854309, 
        0.04594838246703148, 
        0.11873839795589447, 
        -0.03541155904531479, 
        0.4381619989871979, 
        0.36247119307518005, 
        0.31130868196487427, 
        0.0512547567486763, 
        -0.0660502165555954, 
        -0.2392459511756897, 
        -0.2514653205871582, 
        0.13522978127002716, 
        0.17814797163009644, 
        0.031492795795202255, 
        0.11845781654119492, 
        0.010703079402446747, 
        -0.1613953411579132, 
        -0.10633876919746399, 
        0.14093011617660522, 
        0.15076667070388794, 
        0.07685686647891998, 
        0.0712960958480835, 
        0.030547145754098892, 
        0.48074445128440857, 
        -0.0949859693646431, 
        0.08497282862663269, 
        0.018091708421707153, 
        0.01756541058421135, 
        -0.031249135732650757, 
        -0.013171602971851826, 
        -0.05153296887874603, 
        0.04772480949759483, 
        -0.00018010880739893764, 
        0.05134771764278412, 
        0.028941359370946884, 
        0.02423170395195484, 
        -0.10300172865390778, 
        0.006368984468281269, 
        -0.04454554617404938, 
        -0.054071273654699326, 
        -0.05756932124495506, 
        -0.025909803807735443, 
        0.0808805376291275, 
        -0.29186171293258667, 
        -0.2177867740392685, 
        0.06589766591787338, 
        -0.06680312007665634, 
        -0.03374958038330078, 
        -0.3625454902648926, 
        -0.2876935303211212, 
        -0.03424476087093353, 
        -0.011246944777667522, 
        -0.03511885926127434, 
        0.04965011775493622, 
        -0.1638762503862381, 
        -0.31177863478660583, 
        -0.407864511013031, 
        0.1826467365026474, 
        0.2056208997964859, 
        -0.1679777204990387, 
        -0.14617404341697693, 
        0.056966621428728104, 
        -0.008404340595006943, 
        0.014699316583573818, 
        -0.04564232379198074, 
        -0.02271268330514431, 
        0.15041613578796387, 
        0.06107880547642708, 
        0.05142974853515625, 
        0.1011059582233429, 
        0.044243503361940384, 
        0.10575389117002487, 
        -0.06909172981977463, 
        -0.1366078406572342, 
        -0.1572488695383072, 
        0.08080516010522842, 
        0.041033901274204254, 
        -0.015917250886559486, 
        0.05068081617355347, 
        -0.12113706767559052, 
        0.006501127500087023, 
        0.07302463054656982, 
        -0.02010301873087883, 
        -0.012064706534147263, 
        0.14308680593967438, 
        0.02072424627840519, 
        0.15086467564105988, 
        -0.013506066054105759, 
        0.020752860233187675, 
        -0.024189099669456482, 
        -0.020561112090945244, 
        -0.007535501848906279, 
        0.015262067317962646, 
        0.2032647579908371, 
        0.11479715257883072, 
        0.09750159084796906, 
        0.06341225653886795, 
        0.0069890874437987804, 
        0.44766220450401306, 
        0.48172423243522644, 
        0.2080627828836441, 
        0.016330629587173462, 
        0.05970758944749832, 
        0.0007095602923072875, 
        -0.04529194161295891, 
        0.005372264888137579, 
        0.0027126052882522345, 
        -0.09395791590213776, 
        -0.03970719873905182, 
        -0.08780760318040848, 
        -0.0908343568444252, 
        0.118489570915699, 
        0.05211913213133812, 
        -0.12474843859672546, 
        0.09075074642896652, 
        -0.08219743520021439, 
        -0.08470295369625092, 
        -0.07571978121995926, 
        0.0397028774023056, 
        0.044219084084033966, 
        0.046408284455537796, 
        0.07211209833621979, 
        0.03445201739668846, 
        0.3014993667602539, 
        0.08047720044851303, 
        0.12636135518550873, 
        0.07317902147769928, 
        -0.00431840680539608, 
        -0.006637471728026867, 
        -0.08073533326387405, 
        0.017921991646289825, 
        0.11893077194690704, 
        -0.05980350449681282, 
        -0.028307883068919182, 
        0.1266513615846634, 
        0.015902014449238777, 
        0.11900516599416733, 
        -0.0129890451207757, 
        -0.03628950193524361, 
        -0.14970363676548004, 
        0.06344742327928543, 
        -0.06159776449203491, 
        -0.039380352944135666, 
        0.13298766314983368, 
        0.010473188944160938, 
        0.019777638837695122, 
        -0.008585565723478794, 
        -0.00016088341362774372, 
        0.5459492206573486, 
        0.5626763701438904, 
        0.22743922472000122, 
        -0.026532752439379692, 
        0.06236075609922409, 
        0.014748578891158104, 
        0.017719799652695656, 
        0.08443120867013931, 
        -0.13431523740291595, 
        0.004961178172379732, 
        -0.020816411823034286, 
        -0.30209270119667053, 
        -0.380630224943161, 
        0.05408221855759621, 
        -0.04976827651262283, 
        -0.12709124386310577, 
        0.065394826233387, 
        -0.0695880576968193, 
        -0.20544059574604034, 
        -0.21509495377540588, 
        0.03827601671218872, 
        0.08940878510475159, 
        0.003192187286913395, 
        -0.021237807348370552, 
        0.007903320714831352, 
        0.3718855679035187, 
        0.1235419437289238, 
        0.06341903656721115, 
        0.052824877202510834, 
        -0.006982195656746626, 
        0.007368907332420349, 
        0.006362503860145807, 
        0.0924048125743866, 
        0.10694944113492966, 
        0.015850476920604706, 
        -0.0024033321533352137, 
        0.1506703644990921, 
        -0.015866372734308243, 
        0.15459837019443512, 
        0.010878097265958786, 
        -0.018326982855796814, 
        0.013151777908205986, 
        -0.03458208590745926, 
        -0.025316093116998672, 
        0.05824378877878189, 
        0.011913930997252464, 
        0.03606363385915756, 
        0.032902032136917114, 
        0.016713976860046387, 
        -0.003762400010600686, 
        0.5391532778739929, 
        0.5199631452560425, 
        0.18938703835010529, 
        0.015825238078832626, 
        0.04648340865969658, 
        -0.0016845145728439093, 
        0.03601432591676712, 
        0.04296206682920456, 
        -0.16000041365623474, 
        -0.033912673592567444, 
        -0.13040891289710999, 
        -0.4032098352909088, 
        -0.3551623225212097, 
        0.0521615669131279, 
        0.08591634780168533, 
        0.042221829295158386, 
        0.07447033375501633, 
        -0.024658408015966415, 
        -0.2166346162557602, 
        -0.23707634210586548, 
        0.04508359357714653, 
        0.04895190894603729, 
        -0.005441785324364901, 
        0.02499455027282238, 
        0.011216603219509125, 
        0.3807651102542877, 
        0.015125452540814877, 
        0.08851076662540436, 
        0.03087269701063633, 
        0.10723920166492462, 
        0.030795173719525337, 
        -0.007388709113001823, 
        -0.17868448793888092, 
        0.04122968763113022, 
        0.12840035557746887, 
        0.05464762821793556, 
        0.16393648087978363, 
        0.009614845737814903, 
        0.20510534942150116, 
        0.03532355651259422, 
        0.046790678054094315, 
        -0.057552769780159, 
        -0.1718125343322754, 
        0.12088765949010849, 
        0.0870848149061203, 
        0.0977548137307167, 
        0.01298538502305746, 
        0.04391030967235565, 
        0.06587179750204086, 
        0.054896652698516846, 
        0.2930796146392822, 
        0.3067243993282318, 
        0.020197730511426926, 
        0.023710453882813454, 
        0.029682926833629608, 
        0.11460269242525101, 
        0.2243332415819168, 
        0.23195932805538177, 
        0.10593532770872116, 
        0.08689281344413757, 
        0.0747234970331192, 
        0.5581051707267761, 
        0.5714545249938965, 
        0.08604706823825836, 
        0.20766541361808777, 
        0.07043688744306564, 
        0.16600549221038818, 
        0.03641800209879875, 
        0.06763540208339691, 
        0.09008023887872696, 
        0.06202777847647667, 
        0.03359159454703331, 
        0.04467514902353287, 
        0.05617766082286835, 
        0.011911524459719658, 
        0.30691468715667725, 
        0.10321790724992752, 
        -0.05131298303604126, 
        -0.09026743471622467, 
        0.0898217037320137, 
        0.04170268028974533, 
        -0.02759677916765213, 
        -0.05731221288442612, 
        -0.04541270434856415, 
        0.0054871877655386925, 
        -0.06531476974487305, 
        -0.15151163935661316, 
        0.05891944095492363, 
        -0.17039018869400024, 
        -0.03598520904779434, 
        0.030653974041342735, 
        -0.05370001867413521, 
        -0.01416897401213646, 
        0.016947943717241287, 
        -0.08471780270338058, 
        -0.10700257867574692, 
        -0.0576971136033535, 
        0.016719579696655273, 
        -0.007419513072818518, 
        0.006911576259881258, 
        -0.6328117251396179, 
        -0.5577262043952942, 
        -0.1694498360157013, 
        0.03849548101425171, 
        -0.019958674907684326, 
        0.016102280467748642, 
        0.015880495309829712, 
        -0.17568083107471466, 
        0.022497836500406265, 
        0.138124018907547, 
        0.14883928000926971, 
        0.03637992590665817, 
        0.04441557824611664, 
        -0.0366026796400547, 
        -0.07982160151004791, 
        -0.007602662779390812, 
        -0.07512696832418442, 
        0.04075082018971443, 
        0.16252654790878296, 
        0.19528135657310486, 
        -0.04098041355609894, 
        -0.07419812679290771, 
        -0.005252508912235498, 
        0.03515863046050072, 
        0.0040368386544287205, 
        -0.3104270100593567, 
        -0.10626804083585739, 
        -0.0801667720079422, 
        -0.06976665556430817, 
        -0.0033493039663881063, 
        -0.10211042314767838, 
        -0.057123638689517975, 
        -0.06684547662734985, 
        -0.03453657403588295, 
        0.048659104853868484, 
        -0.033148735761642456, 
        -0.11723494529724121, 
        0.017478497698903084, 
        -0.09477270394563675, 
        0.06930489093065262, 
        -0.07468554377555847, 
        -0.0015181394992396235, 
        -0.051391031593084335, 
        0.0335276797413826, 
        -0.06685002893209457, 
        -0.07843493670225143, 
        -0.0814662054181099, 
        -0.04907746985554695, 
        -0.012553072534501553, 
        -0.00298178568482399, 
        -0.7268807291984558, 
        -0.6457638144493103, 
        -0.28899964690208435, 
        0.006913297809660435, 
        -0.053069282323122025, 
        0.05563822388648987, 
        -0.40041911602020264, 
        -0.43806105852127075, 
        -0.07764232158660889, 
        0.07623755186796188, 
        0.09800390899181366, 
        0.1498541235923767, 
        0.17267780005931854, 
        -0.058220457285642624, 
        -0.08118749409914017, 
        0.05814318731427193, 
        -0.1000768169760704, 
        -0.014950345270335674, 
        0.21885062754154205, 
        0.2021605223417282, 
        -0.08081058412790298, 
        -0.09219686686992645, 
        0.03282846137881279, 
        0.06598316878080368, 
        0.0396532267332077, 
        -0.3417174518108368, 
        -0.08476483821868896, 
        -0.03818727284669876, 
        -0.03179718181490898, 
        0.026417214423418045, 
        0.03313591331243515, 
        -0.0444241501390934, 
        -0.038618411868810654, 
        -0.09925606101751328, 
        -0.027889663353562355, 
        -0.042498353868722916, 
        -0.07341844588518143, 
        0.026194274425506592, 
        -0.13357891142368317, 
        0.034439243376255035, 
        0.004683288279920816, 
        -0.02147846296429634, 
        0.01727982424199581, 
        0.027403205633163452, 
        -0.08147934824228287, 
        -0.09262962639331818, 
        -0.004625519271939993, 
        0.013178220018744469, 
        -0.0023349847178906202, 
        -0.015183106996119022, 
        -0.6048777103424072, 
        -0.6453371644020081, 
        -0.21303671598434448, 
        0.01613468863070011, 
        0.03653308376669884, 
        0.04731247201561928, 
        0.02829313464462757, 
        -0.11425551772117615, 
        -0.0327407643198967, 
        0.13586579263210297, 
        0.1581769585609436, 
        0.1406388133764267, 
        0.0894843265414238, 
        -0.09730533510446548, 
        -0.08148635923862457, 
        0.0681850016117096, 
        -0.0869784951210022, 
        0.06562433391809464, 
        0.23368477821350098, 
        0.23222950100898743, 
        0.024777311831712723, 
        -0.00406500743702054, 
        0.040437594056129456, 
        -0.01041700690984726, 
        0.05822456255555153, 
        -0.3675536811351776, 
        0.013288152404129505, 
        -0.04157525673508644, 
        -0.05006149783730507, 
        0.006062156055122614, 
        0.027682317420840263, 
        -0.0597267746925354, 
        -0.046903032809495926, 
        0.008895985782146454, 
        0.009055406786501408, 
        -0.03277688845992088, 
        -0.08991295844316483, 
        0.03820176422595978, 
        -0.1839369386434555, 
        -0.00814757775515318, 
        0.016065938398241997, 
        0.022982651367783546, 
        -0.02413218654692173, 
        0.007712628226727247, 
        -0.06384681165218353, 
        -0.1302792727947235, 
        -0.10313908755779266, 
        0.020769601687788963, 
        -0.052489280700683594, 
        0.02598821371793747, 
        -0.4681176245212555, 
        -0.5425584316253662, 
        -0.1987902969121933, 
        -0.015543553978204727, 
        0.03164582699537277, 
        0.03440028801560402, 
        -0.04977964609861374, 
        -0.1768750250339508, 
        -0.012867733836174011, 
        0.12401539832353592, 
        0.10010344535112381, 
        0.019081730395555496, 
        -0.05997643247246742, 
        -0.004943122621625662, 
        -0.040188729763031006, 
        0.02480684220790863, 
        -0.0800662636756897, 
        -0.021076835691928864, 
        0.1414775252342224, 
        0.14941735565662384, 
        -0.0019839443266391754, 
        -0.062194958329200745, 
        -0.025333579629659653, 
        0.006471631117165089, 
        0.010299038141965866, 
        -0.3514229655265808, 
        -0.033442266285419464, 
        0.1673237830400467, 
        0.1395808607339859, 
        -0.037942562252283096, 
        0.03772687539458275, 
        0.03368314355611801, 
        0.13516780734062195, 
        0.18224385380744934, 
        0.011942515149712563, 
        -0.07051171362400055, 
        0.15518122911453247, 
        0.015539728105068207, 
        0.15273474156856537, 
        0.0011015264317393303, 
        0.015563186258077621, 
        -0.05584177002310753, 
        -0.19748178124427795, 
        0.033833108842372894, 
        0.11836183071136475, 
        0.1155739277601242, 
        0.039747800678014755, 
        0.0712994858622551, 
        0.0348535031080246, 
        0.050542283803224564, 
        0.6122297048568726, 
        0.5765920877456665, 
        0.23897424340248108, 
        0.08371830731630325, 
        0.06488601118326187, 
        0.023515159264206886, 
        -0.011076518334448338, 
        0.0015841741114854813, 
        -0.2560504674911499, 
        0.07875830680131912, 
        -0.028192857280373573, 
        -0.5919483304023743, 
        -0.5243679285049438, 
        0.1916225403547287, 
        0.06443848460912704, 
        0.026386532932519913, 
        0.1003047525882721, 
        0.005999289453029633, 
        -0.22816430032253265, 
        -0.15083111822605133, 
        0.09845435619354248, 
        0.11928882449865341, 
        0.03619455546140671, 
        0.13418927788734436, 
        0.01009333971887827, 
        0.396697074174881, 
        0.027190225198864937, 
        -0.07207197695970535, 
        -0.03763594478368759, 
        0.05421588942408562, 
        -0.07175716012716293, 
        -0.03567294403910637, 
        -0.048060331493616104, 
        -0.04799983650445938, 
        0.03679950162768364, 
        -0.0616842657327652, 
        -0.05557078868150711, 
        -0.0038029318675398827, 
        -0.10794327408075333, 
        -0.011751689016819, 
        -0.024177363142371178, 
        -0.025273287668824196, 
        -0.00838703103363514, 
        0.02199721336364746, 
        -0.06707412004470825, 
        -0.19789697229862213, 
        -0.12653838098049164, 
        -0.036307692527770996, 
        -0.0723230391740799, 
        0.009431526996195316, 
        -0.5392084717750549, 
        -0.47310805320739746, 
        -0.18943436443805695, 
        -0.04723859578371048, 
        0.005395242013037205, 
        0.060948241502046585, 
        -0.4720206558704376, 
        -0.4122074842453003, 
        -0.26233720779418945, 
        0.10993579030036926, 
        0.19393086433410645, 
        -0.09662500023841858, 
        -0.13772352039813995, 
        -0.05717479810118675, 
        0.01546056754887104, 
        0.028378266841173172, 
        -0.09022906422615051, 
        -0.044095106422901154, 
        0.18037433922290802, 
        0.08805853873491287, 
        0.02156846784055233, 
        -0.0346190519630909, 
        -0.05034639686346054, 
        0.009031199850142002, 
        0.023800184950232506, 
        -0.29477712512016296, 
        -0.08246439695358276, 
        0.05158068612217903, 
        0.10266710072755814, 
        -0.005358952563256025, 
        -0.00011447771248640493, 
        0.020515266805887222, 
        0.029706543311476707, 
        0.1229080930352211, 
        -0.0463358536362648, 
        0.04672295227646828, 
        0.11601464450359344, 
        0.011744419112801552, 
        0.18746308982372284, 
        -0.0350000336766243, 
        -0.02046634815633297, 
        0.02194776013493538, 
        0.004030017647892237, 
        -0.027268320322036743, 
        0.04891205206513405, 
        -0.04565303772687912, 
        -0.125404953956604, 
        0.027343763038516045, 
        0.007554689887911081, 
        0.01474194135516882, 
        0.5673168897628784, 
        0.5283085703849792, 
        0.27826008200645447, 
        0.041394855827093124, 
        0.02821599878370762, 
        0.005534856580197811, 
        0.024800434708595276, 
        0.03535681590437889, 
        -0.16745515167713165, 
        -0.06135189160704613, 
        -0.027422895655035973, 
        -0.5627396106719971, 
        -0.585117518901825, 
        0.10887160152196884, 
        0.010129081085324287, 
        0.009324003010988235, 
        0.07187499850988388, 
        -0.045941032469272614, 
        -0.237849161028862, 
        -0.21898961067199707, 
        0.03211657330393791, 
        0.1141810491681099, 
        0.04552336409687996, 
        -0.050154909491539, 
        0.02167072333395481, 
        0.4173334538936615, 
        0.004072585143148899, 
        0.15313200652599335, 
        0.17673595249652863, 
        0.06020380184054375, 
        0.020089736208319664, 
        0.09544545412063599, 
        -0.12496363371610641, 
        0.0888935923576355, 
        -0.028337370604276657, 
        0.09587222337722778, 
        0.13769996166229248, 
        0.0071033393032848835, 
        0.18567192554473877, 
        0.01484181359410286, 
        0.01922430284321308, 
        0.1857079416513443, 
        0.005019872449338436, 
        0.042654335498809814, 
        -0.003527365392073989, 
        0.023729585111141205, 
        -0.006069214083254337, 
        -0.0007779245497658849, 
        0.08280488103628159, 
        -0.006979048717767, 
        0.577872633934021, 
        0.5874241590499878, 
        0.1907704919576645, 
        0.08394085615873337, 
        0.08587029576301575, 
        0.030237682163715363, 
        0.2125517725944519, 
        0.2202056497335434, 
        0.07009521126747131, 
        -0.011860407888889313, 
        -0.11723164469003677, 
        -0.5086995959281921, 
        -0.5444773435592651, 
        0.17914389073848724, 
        0.08512598276138306, 
        0.044555798172950745, 
        0.09466460347175598, 
        -0.0005544376326724887, 
        -0.164871945977211, 
        -0.21876809000968933, 
        0.09407816082239151, 
        0.12780120968818665, 
        0.009269566275179386, 
        0.01758263260126114, 
        0.06342697888612747, 
        0.4388245940208435, 
        0.0648597702383995, 
        -0.006660587154328823, 
        0.040876176208257675, 
        -2.6557245291769505e-07, 
        -0.012251309119164944, 
        -0.04512867331504822, 
        -0.13412413001060486, 
        -0.014323042705655098, 
        -0.003726802533492446, 
        -0.04415126517415047, 
        0.0024319335352629423, 
        -0.025104651227593422, 
        -0.07247508317232132, 
        -0.01602308265864849, 
        -0.0014137823600322008, 
        -0.037097759544849396, 
        -0.0627707913517952, 
        -0.005324477329850197, 
        -0.008134972304105759, 
        -0.14443397521972656, 
        -0.0714673101902008, 
        -0.055303625762462616, 
        -0.05808449164032936, 
        0.040462180972099304, 
        -0.24294927716255188, 
        -0.2306007295846939, 
        -0.01229354552924633, 
        -0.024818966165184975, 
        -0.03403099253773689, 
        -0.004044610075652599, 
        0.004012820310890675, 
        -0.02040238305926323, 
        -0.1001276895403862, 
        0.11703823506832123, 
        0.14051119983196259, 
        -0.09105782210826874, 
        -0.09129957109689713, 
        -0.03081665188074112, 
        -0.005666923709213734, 
        0.012544913217425346, 
        -0.05590532720088959, 
        -0.02013079822063446, 
        0.11039520800113678, 
        0.13906779885292053, 
        0.008125001564621925, 
        0.0006056501879356802, 
        -0.003032850567251444, 
        0.05193410441279411, 
        -0.07444597780704498, 
        -0.2299923151731491, 
        -0.03644995763897896, 
        0.050926338881254196, 
        0.005219404119998217, 
        0.01665605418384075, 
        0.021441157907247543, 
        -0.06024416908621788, 
        -0.002426224062219262, 
        0.031778521835803986, 
        0.06731819361448288, 
        0.05230104178190231, 
        0.1298622488975525, 
        0.06063671410083771, 
        0.13389624655246735, 
        0.04270683228969574, 
        -0.00537084648385644, 
        0.1375071257352829, 
        -0.010442672297358513, 
        0.02973885089159012, 
        0.045527245849370956, 
        0.23186282813549042, 
        0.20788441598415375, 
        0.007891159504652023, 
        0.020489927381277084, 
        0.01715547777712345, 
        0.7045658826828003, 
        0.6395978331565857, 
        0.0973614975810051, 
        -0.036396730691194534, 
        0.029686693102121353, 
        0.02440476045012474, 
        -0.021899398416280746, 
        0.04997687414288521, 
        -0.10681229084730148, 
        -0.05146663635969162, 
        -0.14119559526443481, 
        0.013400807976722717, 
        -0.06992071866989136, 
        0.07204245030879974, 
        -0.07691683620214462, 
        -0.040355902165174484, 
        0.05741550400853157, 
        0.03328413888812065, 
        -0.22002342343330383, 
        -0.20998190343379974, 
        0.03568515554070473, 
        0.039433930069208145, 
        -0.04187347739934921, 
        -0.03909635171294212, 
        0.040153250098228455, 
        0.27891695499420166, 
        0.10900110006332397, 
        0.12519407272338867, 
        0.031469400972127914, 
        0.024391604587435722, 
        -0.010849458165466785, 
        0.02507973276078701, 
        0.042329657822847366, 
        0.053255870938301086, 
        0.006012897938489914, 
        0.08315340429544449, 
